encog,BasicNetwork,java,3.2.0,1,1363516549869
[BASIC]
[BASIC:PARAMS]
[BASIC:NETWORK]
beginTraining=0
connectionLimit=0
contextTargetOffset=0,0,0,0
contextTargetSize=0,0,0,0
endTraining=3
hasContext=f
inputCount=11
layerCounts=1,11,21,12
layerFeedCounts=1,10,20,11
layerContextCount=0,0,0,0
layerIndex=0,1,12,33
output=0,0,0,0,0,0,0,0,0,0,0,1,0,0,0,0,0,0,0,0,0,0,0,0,0,0,0,0,0,0,0,0,1,0,0,0,0,0,0,0,0,0,0,0,1
outputCount=1
weightIndex=0,11,221,461
weights=0.3343491856,0.2374183135,0.3277121834,0.1909297804,0.2208994102,0.0818978455,0.2304771227,0.1143393721,0.0812224441,0.1011399706,0.2350369451,0.1065731261,0.2686552958,0.3230686274,0.006677018,0.0276559649,0.0825119381,0.107211237,0.0145209106,0.140325875,0.073688753,0.1415088126,0.3881923091,0.0761935561,0.044966796,0.2491108996,0.201557314,0.0623716352,0.2492985848,0.010940711,0.28215416,-0.1969165277,0.3318194164,0.3064435376,0.0990205742,0.0975392413,0.3266889519,0.3655029124,0.0344458399,0.3185795089,0.0861154165,0.0889879628,0.1969570096,0.0183713752,0.0419071975,0.3467964208,0.3343401403,0.1256074532,0.2667309978,0.2919646586,0.2638808955,0.2275544364,-0.2555271057,0.0166939022,0.1146712851,0.1562875513,0.1769066156,0.0607119867,0.2540007292,0.0513512762,0.3050456544,0.1650375376,0.0829966177,0.2090942042,0.0782206739,0.1524121886,0.0045192956,0.0197569761,0.2898394934,0.2291868313,0.1899927122,0.3652112808,0.380677797,0.3433454287,0.215773341,0.0844295158,0.0169583059,0.0457381226,0.2529497856,0.2746248295,0.1716628615,0.1619633222,0.236438676,0.3537623725,0.1581448414,0.2571333459,0.0910914955,0.0642630883,0.3009276076,0.0608439992,0.0553970633,0.0268620715,0.2874993022,0.2211169521,-0.2186734892,0.1698610643,0.2359881449,0.0217790905,0.2553118303,0.1240317437,0.3402598891,0.2233054081,0.1062304075,0.2403484436,0.3847567016,0.0263711542,0.0644390266,0.0012799353,0.0720258745,0.3611716294,0.2851414124,0.1106817311,0.0815521529,0.0296986779,0.0246810214,0.287496445,0.1156756029,0.3471168941,0.2626779534,0.0466210014,0.3807206922,0.030221753,0.1838074317,0.0693050845,0.0845729508,0.2567083454,0.160717341,0.3120736608,0.0868319816,0.0547659689,0.133497179,0.2123692011,0.2646133143,0.3828046331,0.0760056646,0.2078041188,-0.1550687734,0.2319274625,0.244315435,0.0446050615,0.1838168845,0.025294655,0.0319477673,0.3628430023,0.2721839739,0.0472997401,0.0125580132,0.2770925721,0.0129607314,0.2495347854,0.141730924,0.376912552,0.2113091213,0.2918699175,0.1351465307,0.3751522585,0.2458430211,0.1125585257,0.1866313893,0.1113260028,0.1605484642,0.3173283949,0.1040890048,0.2995843852,0.3111335411,0.0862556854,0.26776813,0.064682517,0.0606162155,0.1965899191,0.096574789,0.3639764564,0.0075928622,0.3599902695,0.3606800895,0.2949201825,0.0141611443,0.2069166175,-0.3197294302,0.2895559408,0.2911963816,0.3203567516,0.2346383175,0.1964116495,0.0176957719,0.3615780415,0.1551736379,0.208067387,0.0408762372,0.3257774283,0.1186611469,0.3608439419,0.1092661232,0.0652147197,0.1371926267,0.1780264734,0.0579093825,0.375660891,0.2381387947,0.2606758187,0.0620786769,0.0297805893,0.0759859365,0.3757705092,0.1262372543,0.3561075861,0.1930954993,0.350487549,0.208716243,0.0465741406,0.385757932,0.2938368986,0.1923921809,0.14316819,0.0327066241,0.3800282795,0.3662740265,0.0527709959,0.0280085043,0.0898553004,0.3820499437,0.215465494,0.4388706858,0.1342183751,0.2056070791,0.4085941727,0.0778657648,0.0158108698,0.0090958196,0.3234713186,0.0250824521,0.4119731221,0.2106495691,0.2030770133,0.2713841661,0.1001954992,0.310028412,0.0735316546,0.3971470843,0.037842814,0.2095141648,0.0594996703,0.1310604635,0.2254941252,-0.4587518303,0.1696387576,0.2720827825,0.2213225012,0.0385639126,0.0576712063,0.2252610608,0.0065730257,0.0482199753,0.1016476342,0.2290929653,0.0676110378,0.0554232514,0.0210314302,0.2750938513,0.1313226822,0.2557577935,0.3890531236,0.2652684773,0.0230313859,0.243742265,0.4101439214,0.2450218866,0.2822679015,0.1557520823,0.0135376522,0.4039900492,0.0967832968,0.205578171,0.0574059297,0.1427839583,0.3947381131,0.1896743324,0.4162284092,0.2935803642,0.1276374716,-0.1073285294,0.3381136713,0.0383529318,0.1694953807,0.2567803866,0.4363731191,0.2825045733,0.2878434239,0.3946645287,0.2120372945,0.0883076003,0.144712841,-0.2526156282,0.2310125069,0.1384493479,0.1314137859,0.2419241138,0.2325288934,0.0073227978,0.3941042868,0.360344677,0.1608235921,0.4251666912,0.1235744116,-0.2462205456,0.1870986801,0.3007411637,0.3858782989,0.2664524621,0.0437747315,0.1768249919,0.0522711428,0.1715862284,0.4241590166,0.3340981551,0.4351504595,0.3515955809,0.1570715618,0.249586616,0.3265489636,0.2516953634,0.0317563297,0.378958009,0.2421635033,0.1434701038,0.4275887014,0.2456376365,0.3329137072,0.044991826,0.3145259501,0.1833450512,0.2339044621,0.1057345921,0.3401697336,0.4574147832,0.0842725349,0.2371472917,0.0710503317,0.0572242582,0.0525650927,0.0783840561,0.3698228564,0.1739656924,0.0219056037,0.3915745585,0.0793019518,0.0084645562,0.1382156303,0.2104294773,0.3439941294,0.3504772013,0.3796707962,0.4345343366,0.3052026792,0.392151249,0.0597958655,0.1168597022,0.3663397672,0.3744431226,0.2558495376,0.4210229351,0.1187798547,0.2980230269,0.2311357222,0.0971949579,0.3975213108,0.3762163178,0.3294229579,0.3476748111,0.4282561681,0.1260488513,0.4363286673,0.0125611507,0.2181738295,0.4258812894,0.4047401797,0.275103506,0.323441636,0.2090872166,0.1927054298,0.1181331203,0.235403743,0.0218684107,0.087200726,0.4302094245,0.236263191,0.3241783672,0.1202481329,-0.049816197,0.0325721896,0.012937825,0.4375523501,0.0459095785,0.3035286982,0.4532970715,0.3842460509,0.0392285848,0.408676136,0.0188237093,0.4312439886,-0.059401535,0.195244059,0.05235413,0.2054272896,0.2555732563,0.0625662381,0.1548065054,0.0870560799,0.1305186027,0.3528332801,0.0955457332,0.2488845098,-0.010813953,0.2510758709,0.3552844823,0.1851765419,0.193869786,0.1008885072,0.3284446821,0.1672144391,0.0594644468,0.0744155593,0.3570953614,0.0988143299,-0.0716185117,0.1595620675,0.3627653612,0.2323902919,0.1090101198,0.0837397426,0.3012990526,0.4335081267,0.06528625,0.195833399,0.0333453958,0.0211289426,-0.3695350272,0.3109505402,0.1887778463,0.2794076156,0.4479547155,0.089666334,0.0675134155,0.1011230643,0.0449408903,0.0755148433,0.2163913433,0.1365176791,0.3228709709,0.3786836971,0.0958506728,0.3722421775,0.3376922792,0.1445420478,0.4588230978,0.0884025239,0.2348213289,0.2172443583,0.3394715118,0.320730776,-0.3473316137
biasActivation=0,1,1,1
[BASIC:ACTIVATION]
"ActivationTANH"
"ActivationTANH"
"ActivationTANH"
"ActivationLinear"
