encog,BasicNetwork,java,3.2.0,1,1361977401639
[BASIC]
[BASIC:PARAMS]
[BASIC:NETWORK]
beginTraining=0
connectionLimit=0
contextTargetOffset=0,0,0
contextTargetSize=0,0,0
endTraining=2
hasContext=f
inputCount=36
layerCounts=1,43,37
layerFeedCounts=1,42,36
layerContextCount=0,0,0
layerIndex=0,1,44
output=0,0,0,0,0,0,0,0,0,0,0,0,0,0,0,0,0,0,0,0,0,0,0,0,0,0,0,0,0,0,0,0,0,0,0,0,0,0,0,0,0,0,0,1,0,0,0,0,0,0,0,0,0,0,0,0,0,0,0,0,0,0,0,0,0,0,0,0,0,0,0,0,0,0,0,0,0,0,0,0,1
outputCount=1
weightIndex=0,43,1597
weights=0.1362211408,0.049765896,0.190528057,0.2060564573,0.3050878359,0.157554405,0.0168565415,0.2953082645,0.3428412085,0.209615585,0.3046835696,0.349005414,0.0799155317,0.0799497963,0.028922924,0.0542984314,0.0120009748,0.0914503871,0.1132406955,0.1603936304,0.2702699126,0.0345500697,0.0632241689,0.0894197877,0.3215988487,0.0743540605,0.0169114882,0.2133992309,0.0871756438,0.2545105331,0.050070443,0.237971289,0.2561140179,0.1954729637,0.2360663408,0.2658890293,0.3448672529,0.1476510327,0.1835473778,0.0941207568,0.3133404699,0.1962257453,0.1593616028,0.0813204101,0.3708608437,0.3841154933,0.3492365281,0.0733112624,0.0910471998,0.3419487313,0.3418233551,0.1721509651,0.0124411696,0.2450499039,0.1885392361,0.1834869103,0.0034045794,0.2134516826,0.2320155862,0.2759451836,0.3227981593,0.3175485768,0.1927625607,0.2124949911,0.3538541362,0.0954162641,0.085517308,0.1061594898,0.1295725591,0.1381013019,0.0852504971,0.0463146749,0.072340234,0.3773364153,0.1790545696,0.2771118313,0.1284912404,0.0214851616,0.3798457163,0.3130659025,0.2979598013,0.2363489313,0.1911219756,0.3142528049,0.0517300354,0.0353250323,0.0530613122,0.2972314465,0.2154276396,0.3638087514,0.195881906,0.0216305351,0.0074043153,0.1753869537,0.0804694052,0.1790505626,0.2607687761,0.2195889222,0.3447064181,0.3736837542,0.3736061736,0.2627584267,0.0615939982,0.3242741997,0.1389393911,0.0325520345,0.0984011946,0.1955706167,0.1635659578,0.1226019295,0.1053481575,0.145549797,0.1609119332,0.0012864152,0.2999750582,0.1366967281,-0.005992331,0.3129490717,0.0539512731,0.0923106583,0.1380337072,0.1184461737,0.2144273213,0.3002071818,0.3315941634,0.2744489394,0.2573832073,0.2465539672,0.2641298499,0.2561880693,0.0088161409,0.1209169091,0.2352296982,0.1880621551,0.0533756581,0.1606835709,0.3587652813,0.2472714489,0.2166423335,0.250513888,0.1978949186,0.1111330962,0.3006028563,0.1330801776,0.1548231373,0.1817521038,0.3115365285,0.0932723162,0.3667735179,0.1549347932,0.1015479363,0.331216005,0.30429524,-0.211773372,0.1654781337,0.2642612865,0.1145964531,0.1277673049,0.081231116,0.0935817199,0.3786260841,0.0724898179,0.1097181173,0.3128050518,0.0634069368,0.2710987509,0.222670649,0.2270587138,0.3326137875,0.2249820072,0.0731531157,0.0124506727,0.3589056978,0.15380832,0.1599062544,0.3412699077,0.3491878623,0.316258082,0.3114306268,0.190431564,0.2568218234,0.264209446,0.2191906029,0.0550660539,0.2921270165,0.186473231,0.1244681859,0.3315640894,0.2969085685,0.0644314869,-0.2454952571,0.1937455866,0.0908527049,0.1129838483,0.3761472384,0.3841759698,0.2831073025,0.3473191029,0.2698902214,0.1926789288,0.1487563446,0.2318442302,0.1953404347,0.3142311237,0.3640030804,0.3599468059,0.0305821533,0.0571293831,0.187006937,0.3811771978,0.0788491187,0.3698928952,0.1794283749,0.0578048505,0.1947422485,0.181752568,0.0806533941,0.2951308642,0.0280961995,0.068046915,0.0668575437,0.0893593936,0.2771527627,0.1961666228,0.1282388061,0.1742063631,0.0865028134,-0.3025716954,0.2641782593,0.3618922168,0.2987170466,0.0415181974,0.2346762048,0.2016471121,0.2576692814,0.0176824365,0.3551690757,0.0780574801,0.3607259259,0.3673715928,0.3022513907,0.0024043966,0.3761808478,0.2117343657,0.1362096063,0.2882067669,0.1057694911,0.211905801,0.338772844,0.3031422914,0.2116398026,0.0507679915,0.073487823,0.005017852,0.335891843,0.1210652857,0.0538370383,0.2181053833,0.1835983878,0.3155474313,0.0053337959,0.3215479157,0.2249459919,0.3213738813,0.0598024788,0.3792957588,0.0558051228,0.2548633286,0.2774683978,0.0075552392,0.3557297949,0.3547443055,0.1631886364,0.0938422369,0.0645036515,0.2877273742,0.2770235182,0.3256909636,0.1652117109,0.0797271873,0.092752387,0.1060300281,0.1018831957,0.333325313,0.3004357261,0.0185077766,0.2225731524,0.0992570126,0.2293968474,0.1176034215,0.0503982261,0.0314519531,0.3620483849,0.343492506,0.058981637,0.1603171099,0.1405570747,0.119912531,0.1895374398,0.2239703372,0.1312106706,-0.1062880179,0.2265079456,0.3806890172,0.0839922264,0.3217487985,0.3054029575,0.1171164385,0.0115245064,0.1972347307,0.2758312884,0.1594355848,0.3152730762,0.3781651471,0.1134527489,0.173218106,0.3666281408,0.2808468424,0.3594159641,0.2087207993,0.3808839111,0.2758168432,0.2072049512,0.2980011902,0.2651889213,0.0248136869,0.2854087318,0.0397186257,0.2064396568,0.2796381206,0.1247330502,0.0715707067,0.3211856149,0.1051973928,0.0401677498,0.0289866453,0.227089564,0.1607853949,-0.1156127166,0.1023907098,0.3241261561,0.0044582894,0.0700287224,0.2039108456,0.2340028636,0.3526022624,0.147598716,0.1860324905,0.3123460435,0.1350331019,0.0982788231,0.0199488322,0.2025317849,0.0125969182,0.0581257216,0.143122557,0.2493896162,0.238709642,0.0098844184,0.0048451469,0.2520502571,0.2674193191,0.2352811866,0.3772814612,0.1615117753,0.0575706688,0.2209214528,0.0293949128,0.0908745239,0.0471372514,0.2189595807,0.0675015632,0.361658867,0.2152228679,0.2116062658,0.2465924099,0.3382042735,0.3574900573,0.1295092915,0.3254895602,0.3174853725,0.1792247867,0.2115671272,0.1798284812,0.0579666389,0.3193545359,0.005822004,0.330978886,0.2541217447,0.3682886598,0.2508977442,0.3022798711,0.0799011882,0.2416641424,0.0591927771,0.1823539224,0.3604770601,0.0332295815,0.2066114685,0.0071480265,0.0359523109,0.2989559689,0.0850199295,0.2229044346,0.3307704677,0.1108423929,0.2999777245,0.1106556901,0.0463288274,0.1783441057,0.2544057216,0.2903175768,0.2554476897,0.1557824481,0.0441273491,0.2096785349,0.2252373754,0.1099959896,0.1687055034,0.1043361159,0.2398794789,0.2969441423,0.3393484227,0.1729566702,0.2040823713,0.2976348484,0.1463995716,0.163125552,0.1663659042,0.2356024086,0.3086435775,0.2124481798,0.1904142998,0.1338748486,0.2663139726,0.2862142086,0.2211891411,0.2132869181,0.3660780747,0.2158521176,0.1301869317,0.2354358544,0.1658348388,0.0281972261,0.1361793154,0.0437190178,0.1983005407,0.2832770987,0.2389187854,-0.1310937904,0.3600826055,0.2366739185,0.1248549354,0.1660514123,0.23957671,0.2368940202,0.0517570994,0.1402059322,0.1207074764,0.077166666,0.0464457032,0.2313026718,0.1743663465,0.2406949484,0.2287694279,0.2782241551,0.2519640157,0.2531011149,0.1792268586,0.149956478,0.135594773,0.1050508009,0.188396327,0.1402113325,0.1724938562,0.3367797862,0.2192620052,0.0833472605,0.2682544159,0.3839193992,0.2707469893,0.0370534335,0.1643718364,0.3569912296,0.2069780978,0.2297374043,0.2812464521,0.3154994955,0.1446495143,0.0185706051,0.3334497753,0.1894188574,0.1918155865,0.188188707,0.0645664934,0.1795389263,0.0245324552,0.2372330548,0.3474452324,0.100383937,0.2017720171,0.1101548334,0.3307314797,0.2099032543,0.0998223052,0.0668260909,0.2323769209,0.0671514021,0.2402710829,0.1214164142,0.1660152569,0.335132256,0.2775766129,0.2730599272,0.2752699256,0.2546033977,0.1298621641,0.0301396737,0.0207770155,0.0689903192,0.1063943251,0.2048527688,0.1195863811,0.1105542003,0.2842037778,0.2690368154,0.2865779619,0.2998408166,0.0115932634,0.3218070181,0.3432451472,0.3627799681,0.3156468868,0.0688848942,0.1861258965,0.2823265496,0.0209233506,0.2792936468,0.1988702775,0.0253322242,0.2486443972,0.2181974342,0.3796971948,0.3167534438,0.0229947287,0.362767301,0.0480720329,0.1161367991,0.2755731397,0.387781412,0.0069504764,0.1191787228,0.2615865691,0.181500114,0.0337948595,0.2513048265,0.1364216576,0.1222873261,0.3361720319,0.0671197781,-0.2335653863,0.2777513446,0.2220553504,0.0886848167,0.0774543371,0.2725927704,0.1096350583,0.177533313,0.0918779022,0.3674150364,0.1639203733,0.369886606,0.0049486403,0.1867655908,0.3873450492,0.3132083494,0.360883321,0.0623086471,0.1968593516,0.0830125778,0.1481373941,0.0529332352,0.289080503,0.1629953506,0.2255691393,0.255501413,0.3007156381,0.3771029616,0.0415989501,0.0230312194,0.0779797678,0.3564096856,0.178932204,0.3418188763,0.1864524405,0.329111372,0.1119568769,-0.2093087359,0.1689828959,0.3458428176,0.2397840777,0.1329488514,0.1216911728,0.0480656831,0.1552347149,0.0059397908,0.274185167,0.0471515138,0.3448441137,0.280263768,0.1526734819,0.2942952339,0.3487490571,0.2198854021,0.2761891022,0.2894205366,0.3093365124,0.1633417804,0.1388539522,0.314017882,0.0546162453,0.1696102616,0.2464037513,0.3281021759,0.0977895151,0.0650794455,0.0070682452,0.3461561655,0.2529017593,0.3626635616,0.2286482938,0.0918138334,0.0789323755,0.1845623778,0.149342623,0.2119416276,0.0078392512,0.3302948232,0.1171979674,0.1750567445,0.2590745775,0.0081057752,0.1782661625,0.2500305212,0.3768397717,0.2075799082,0.0554833922,0.063737415,0.3034683204,0.1027821629,0.2878897668,0.0847545971,0.1471942229,0.0772901381,0.3255595639,0.2252407167,0.3107686034,0.3396973003,0.0210004293,0.1312087283,0.1106703788,0.0640150321,0.1838261025,0.2016609573,0.0730269399,0.3001044405,0.1060525446,0.3540693211,0.0667615774,0.3792034947,0.2433472119,-0.1531191829,0.0868142286,0.3369743622,0.0852952007,0.2131155707,0.022848265,0.2265693071,0.286561193,0.0386091371,0.3005952472,0.3085442834,0.1969743753,0.3308716204,0.0717639707,0.0104659693,0.0209171805,0.3849689533,0.0580962645,0.0866952167,0.2858367819,0.3021906935,0.1252924028,0.1264446398,0.2914611541,0.2316578203,0.0764367162,0.2157024242,0.2937474867,0.3645990046,0.0026111717,0.1941623647,0.0317147178,0.0642458115,0.0173234549,0.0291007653,0.3783445269,0.3784908244,-0.2177852309,0.3601296876,0.2512302718,0.2558941272,0.0617703449,0.3367766863,0.3578943875,0.1472195525,0.0989940644,0.1821894698,0.051431571,0.3470519904,0.2407875258,0.0300453504,0.2190442895,0.1564085831,0.3867817595,0.0236969999,0.0451876992,0.1648237803,0.3022707645,0.1236404764,0.0266135716,0.3557107671,0.2152549201,0.2751472723,0.3073349515,0.0654799898,0.2733514476,0.1170188742,0.0013904588,0.1394048644,0.0556997575,0.0307385651,0.2716112017,0.010409919,0.0330809343,-0.2253335621,0.0758061773,0.0612470013,0.29922306,0.05076914,0.3207031229,0.000930017,0.1903150421,0.3551630962,0.2758905518,0.0916901782,0.3291292237,0.1827458522,0.2536768432,0.2232242067,0.0577753609,0.1024349998,0.2686512757,0.1948300442,0.387202383,0.1491662504,0.0077244471,0.1283491598,0.259093412,0.057428036,0.0057189373,0.1687953842,0.2290204058,0.2816688408,0.3423943175,0.0405211928,0.1295821066,0.0094009143,0.3848376566,0.0615850815,0.309256849,0.0431946523,0.3878144475,0.0532611801,0.3597296984,0.017641317,0.2298113208,0.2416750333,0.0745355336,0.0427138833,0.1682625628,0.0007600496,0.0714309034,0.0322749769,0.3533874456,0.299791749,0.0755233873,0.1422203992,0.3240298207,0.1176897712,0.134971925,0.194798819,0.3256620665,0.3265325301,0.3402209407,0.3312775683,0.0250454275,0.1562982999,0.1694707629,0.3880287173,0.0715092907,0.0534561542,0.3611146414,0.2692991884,0.0215435439,0.2627861425,0.0640597061,0.0319764199,0.2678941424,-0.1349510043,0.3215499627,0.0937842525,0.1437269739,0.0227815973,0.257619266,0.3841190376,0.2685027698,0.2013261222,0.1774223313,0.1420027344,0.0085356365,0.3369337524,0.159740104,0.0508411461,0.1460344602,0.3817782334,0.2966095186,0.0487458994,0.3805437345,0.0710837358,0.017040726,0.141166029,0.337649287,0.0228636674,0.078096603,0.1095785239,0.274183285,0.1020168683,0.3655770995,0.2564053699,0.241975538,0.2681716407,0.0005306036,0.1302663136,0.1249478654,0.2964401553,0.3578154915,0.3878223807,0.3194891045,0.3089525345,0.2216748408,0.0108374804,0.0982502071,0.2968743482,0.1296576689,0.2056722215,0.3081019357,0.0558348699,0.2077706085,0.1971406662,0.1748146856,0.3301316237,0.2110026968,0.1336882771,0.2413768247,0.2978549266,0.0859676529,0.2298343479,0.2061373505,0.2925821676,0.066883423,0.1577346081,0.1816868029,0.2047063445,0.2388476359,0.3187775501,0.1720786726,0.122988401,0.3104032536,0.1802553756,0.1137960502,0.2793194028,0.0283480603,0.204522718,0.1931431661,0.2995481644,0.0796156513,0.004846866,0.3765369245,0.3269424538,0.1280941518,0.0555058297,0.3353651081,0.2299851151,0.3601259395,0.2386857114,0.0009956858,0.3536893722,0.2265872974,0.0333879659,0.342792449,0.166435489,0.343489683,0.0615336412,0.1279890891,0.3675415191,0.2690301722,0.0337470307,0.3062176198,0.3369048961,0.08551872,0.3324520591,0.360093555,0.1996601661,0.3007181697,0.2820962765,0.2675422298,0.0128551056,0.3047502485,0.0229632939,-0.1969071849,0.172646314,0.2846694917,0.1858212955,0.3508620117,0.1061373959,0.3539960353,0.0780239946,0.1247502839,0.0448310618,0.1983637331,0.2581614513,0.0020969072,0.1719301766,0.1544641857,0.1696504591,0.0637813485,0.3577144207,0.0349479567,0.2846189134,0.0638579359,0.2060053449,0.3302628471,0.308955933,0.1051050475,0.3151547652,0.2079260261,0.3100058182,0.2488516539,0.2485863314,0.3142541463,0.3531311987,0.0401556501,0.0101996243,0.2373766845,0.2492403369,0.2038705085,-0.23897684,0.1176781428,0.2482696198,0.2493627352,0.1574303797,0.2937808619,0.2347454662,0.0281506739,0.2057569742,0.2925747036,0.0630917496,0.3298731727,0.3516036314,0.1770229072,0.0274587552,0.089870458,0.2530049389,0.1491908349,0.1305737149,0.2801835533,0.0767803182,0.1125000326,0.1867443812,0.0816356093,0.1780226131,0.2120119134,0.158388515,0.3481470713,0.1862445115,0.0775101583,0.0257348744,0.0709135505,0.1500688893,0.2400369312,0.1490614172,0.0171023143,0.3408355609,0.0579857818,0.2893344086,0.1857819697,0.371705804,0.1539578475,0.2434354736,0.1965712653,0.027438507,0.1730542436,0.3394704076,0.3329323182,0.1263592982,0.0495116227,0.1927427749,0.3557069265,0.0042779408,0.1237413826,0.3087226579,0.2770662984,0.0806920134,0.2328490984,0.0382341368,0.296169896,0.3401498779,0.170307827,0.1425220239,0.1196045611,0.1745404719,0.3693782831,0.1797656786,0.049927855,0.2425122031,0.0049358657,0.3608158202,0.1468238475,0.2833329831,0.0409478183,0.1967861069,0.0269656845,0.3069247394,0.0707434499,0.1481645692,0.2794879258,0.0628052355,0.3852660682,0.0160958191,0.1403405342,0.1515655441,0.3013497943,0.1270645165,0.2296938935,0.3072816525,0.3758542499,0.2210231798,0.2277154741,0.0292978628,0.2179694256,0.1815203547,0.0145612261,0.0957340251,0.0359151619,0.1502854545,0.3026600015,0.3517438981,0.3006126904,0.2681002157,0.1851718009,0.0168689252,0.0673511263,0.1405583947,0.0426622038,0.1461485498,0.3758328986,0.2117296722,0.1650871942,0.1172233068,0.2868699132,0.2004335633,0.1242053674,0.2223912632,0.1795384491,0.0166408224,0.1259162342,0.3396225951,0.1347739189,0.018310627,0.346497227,0.2280269473,0.3612071812,0.3785060352,0.0735596715,0.0559640459,0.3478902563,0.1186941503,0.0663939494,0.2223626832,0.3514542533,0.0745239395,0.0274549772,0.3846150513,0.3256699264,0.1156151788,0.351463329,0.0245156719,0.0958579622,0.2072220449,0.1073065973,0.266156972,0.182356665,0.2045597859,0.3659516065,-0.2655583169,0.3296812726,0.1358412388,0.2314784133,0.2774987853,0.2669399856,0.0943112109,0.0160844096,0.2641456123,0.0481182378,0.3130069279,0.1910104576,0.3044428986,0.3486852769,0.1610663584,0.0104444896,0.2871793034,0.0193564799,0.1610330552,0.1305316128,0.1990786988,0.3748146501,0.3852549089,0.2955384154,0.0946770797,0.3170584015,0.1870396163,0.1149657993,0.2201129484,0.1444827763,0.1061080843,0.2534889406,0.1253986905,0.1371144235,0.1600027698,0.2760453343,0.0927778917,-0.0455887397,0.1729297036,0.2629437107,0.2886051382,0.1064649985,0.0250209785,0.0233830902,0.281533873,0.0719651815,0.238381782,0.0501534255,0.2748596199,0.011315651,0.2315646216,0.3380143461,0.2351428082,0.378057007,0.3444287233,0.2264181116,0.3709870637,0.1125252571,0.1910092197,0.061468267,0.1095182374,0.2763651909,0.1286903133,0.3032492004,0.0141291739,0.3345132808,0.2767868795,0.099722844,0.1454905472,0.1587034688,0.3364910861,0.1638839083,0.3476185224,0.2535259752,0.3878268237,0.0482872872,0.129828454,0.1992683962,0.1605020133,0.0298130703,0.0536252418,0.1901312239,0.3569602999,0.1870359174,0.3000549085,0.0083047556,0.3352024373,0.2707267136,0.2384504934,0.3132581258,0.3438388038,0.146145436,0.1028744753,0.0293162072,0.2661180528,0.1736032103,0.0737289896,0.1962561301,0.3371701801,0.0083599604,0.243815225,0.1795789724,0.0917923786,0.3198272391,0.3284361854,0.1976464598,0.0813300051,0.0025840634,0.3608371767,0.2615025836,0.0355122027,-0.2604282059,0.1837351655,0.3119328998,0.1744935468,0.0886716692,0.2834077435,0.1684925713,0.3730530097,0.3578631363,0.0002024858,0.3870417182,0.2730587487,0.0537676765,0.1219853394,0.3357944559,0.0036970151,0.2699775219,0.2831162072,0.2659470443,0.268383788,0.0610484657,0.3543034769,0.2658281247,0.2512706421,0.2139837198,0.0021945194,0.0602784402,0.2389501268,0.1356129369,0.0655859486,0.0438483482,0.0395519952,0.1133312574,0.237289266,0.0841968596,0.1259291558,0.2756837284,-0.1595501709,0.1495433509,0.1351136027,0.3447548369,0.1923097217,0.0738978918,0.1772037379,0.256307928,0.0425486559,0.0150507308,0.0780537554,0.3407090401,0.2854483021,0.1332174246,0.1956336901,0.2312791654,0.2443025826,0.1481535066,0.2517413648,0.326600925,0.3287131403,0.1185097083,0.3839298791,0.229740852,0.2700797445,0.3111521394,0.2837193442,0.0666063325,0.3214396314,0.0974187946,0.0746126536,0.235630034,0.3539658077,0.3214887808,0.2103672464,0.2376847205,0.2190610479,-0.1096571922,0.0496082268,0.3054433685,0.3801134955,0.0416842737,0.0628247959,0.111432108,0.1832863395,0.190519193,0.2726022444,0.2768793357,0.3863267227,0.2710156884,0.2297124097,0.0755761162,0.1988625586,0.256374064,0.097725691,0.2711515298,0.010293604,0.1357653129,0.001463622,0.1508554924,0.3689236964,0.1358166993,0.3493838834,0.1825056832,0.1804659195,0.2621603305,0.3405784784,0.1228991469,0.1916659568,0.1696106463,0.16415043,0.3284650302,0.3550670317,0.1454344929,0.2957617734,0.0165384514,0.2659564414,0.3806559816,0.220730795,0.0953149116,0.2414580588,0.3581525675,0.0874358331,0.1253519951,0.263258537,0.289818255,0.0069769822,0.0528322299,0.2700741293,0.1468342089,0.3276785124,0.2946063202,0.30225406,0.303149789,0.1675204788,0.2957060826,0.2420093096,0.0892882519,0.0880491996,0.1942888611,0.145983043,0.0246517988,0.1049018678,0.2915091281,0.3259049936,0.1675482445,0.1811960885,0.0862507385,0.0574004106,0.2062629387,0.1304507992,0.2569667935,0.1344476594,0.0166311302,0.2092002572,0.1333828926,0.2570676455,0.0004500067,0.0851084429,0.0395090461,0.2502764411,0.0522851188,0.1856141851,0.278740284,0.2949812848,0.3041510633,0.0376730338,0.0560629704,0.1842931989,0.3365059985,0.3770312257,0.1015592144,0.1339050403,0.005798204,0.2226010539,0.1364451129,0.0483645285,0.3493443499,0.0694819884,0.0956448261,0.1791425914,0.0012350648,0.1946124277,0.2086141536,0.119554313,0.2145558337,0.3332367769,0.0883008098,-0.0361604928,0.0429427481,0.3807564432,0.3881958421,0.3359359576,0.1408009891,0.0366998603,0.3223432469,0.3534459056,0.3762002376,0.3769544587,0.0087046791,0.3079388827,0.3732601873,0.0844174824,0.3369326757,0.0235250403,0.0217007493,0.0818652039,0.0148367054,0.1379649132,0.1646836728,0.2762368513,0.1990366993,0.0391189475,0.3577692217,0.1506941403,0.1172584521,0.1083320163,0.1963475577,0.0738653644,0.1919869248,0.3807421582,0.231470221,0.2901010014,0.0658160866,0.1127188117,0.2213169557,0.2913531753,0.2124614951,0.3838952949,0.3766103425,0.2251023689,0.128362561,0.1916481794,0.0281284381,0.1050517088,0.2242974316,0.1729594131,0.0674436813,0.1118099096,0.2306839982,0.1349944935,0.3558470803,0.183932947,0.1082750224,0.2770816269,0.09731155,0.3732527746,0.0281227994,0.0944904434,0.3194735668,0.3172980083,0.0621323218,0.2546886461,0.2529652596,0.2560218885,0.3351083761,0.3633639586,0.2501139297,0.2051543448,0.0840981826,0.3566734628,0.1318629164,-0.0626360867,0.2232096589,0.1304760056,0.1443346595,0.136565621,0.2766396444,0.2597843028,0.2097562171,0.2474067355,0.1153629148,0.1611973824,0.0186920761,0.3198106867,0.309565911,0.2592822276,0.1629559964,0.3454034903,0.3332407528,0.0875364015,0.3287479854,0.0550122559,0.3616229357,0.3114184065,0.0891597067,0.0697009077,0.1834755011,0.1134038631,0.3791535607,0.3667201778,0.1324071966,0.1791920339,0.2722079852,0.0991501706,0.0474805464,0.3414245472,0.1260021979,0.2207914525,0.2655581258,0.149004459,0.2810051123,0.2210813355,0.1059726581,0.3437818936,0.3858442288,0.2327865772,0.2710357937,0.3297303759,0.2313702087,0.3337076838,0.2985440621,0.1434883713,0.0574564944,0.3034515456,0.2537868662,0.1374268829,0.1474054135,0.3756320471,0.0030358221,0.3749200684,0.3199967552,0.2348566677,0.0336679867,0.0542659477,0.0570020793,0.1304333703,0.2877478532,0.266110603,0.2409825204,0.0524962411,0.0119904469,0.0815113417,0.0585521953,0.3396764024,0.0378373385,0.3703840521,0.164540338,0.3503529755,0.2419940164,0.2756066345,0.0812968703,0.0537988266,0.2635512597,0.1043720919,0.2255539805,0.3549609918,0.0025089889,0.3110924277,0.3236925516,0.0024940987,0.3199533178,0.2215342001,0.0704230423,0.0439952301,0.0165010349,0.15893846,0.3449135429,0.1189364063,0.151644873,0.3002569254,0.137838146,0.3266484688,0.1204819424,0.1830303727,0.3177685164,0.0287363056,0.2521237208,0.102687094,0.2905495572,0.049632018,0.0429334543,0.2194995927,0.2847120264
biasActivation=0,1,1
[BASIC:ACTIVATION]
"ActivationTANH"
"ActivationTANH"
"ActivationLinear"
