encog,BasicNetwork,java,3.2.0,1,1362429633432
[BASIC]
[BASIC:PARAMS]
[BASIC:NETWORK]
beginTraining=0
connectionLimit=0
contextTargetOffset=0,0,0
contextTargetSize=0,0,0
endTraining=2
hasContext=f
inputCount=16
layerCounts=1,31,17
layerFeedCounts=1,30,16
layerContextCount=0,0,0
layerIndex=0,1,32
output=0,0,0,0,0,0,0,0,0,0,0,0,0,0,0,0,0,0,0,0,0,0,0,0,0,0,0,0,0,0,0,1,0,0,0,0,0,0,0,0,0,0,0,0,0,0,0,0,1
outputCount=1
weightIndex=0,31,541
weights=0.3274829605,0.1920594288,0.3160585306,0.192318035,0.0952335537,0.2025638597,0.1665999414,0.0083559624,0.0591892618,0.1405991411,0.1080895589,0.2171820007,0.0923086855,0.3468595406,0.2870213328,0.3111271722,0.2708563321,0.3485503554,0.0600998306,0.0654262031,0.1755920651,0.344915503,0.0658804835,0.3250176761,0.1547815269,0.195560106,0.2950341408,0.0752968245,0.121059586,0.1772891241,-0.0757167029,0.1185702699,0.233908394,0.3439168028,0.0839838511,0.0335011247,0.0989834313,0.2519218352,0.4254159739,0.3858213217,0.1705327589,0.2777485843,0.0368058328,0.0892958446,0.1579219639,0.3417186158,0.0814239108,0.1726390528,0.1593863539,0.1106239011,0.020439543,0.0900445206,0.2003101451,0.4114525424,0.3371487374,0.0950618287,0.1384173185,0.213277798,0.0470218963,0.4295120141,0.2591887024,0.1613293035,0.3577522469,0.0298469213,0.1682081562,0.1323955388,0.2892485832,0.4266945042,0.1114452134,0.0174713474,0.2587513052,0.2011979114,0.2360124342,0.272264077,0.4294151929,0.3174622999,0.0781249755,0.1936677457,0.2369309054,0.0095287257,0.1389935185,0.1021942692,0.3549576749,0.3239390195,0.141360172,0.1220035972,0.0813399465,0.1581424432,0.3413551336,0.4149498583,0.2947150816,0.1582874024,0.0446522575,0.3373940281,0.2430089396,0.2035877949,0.0190337915,0.0542551836,-0.3903073355,0.2612943073,0.121163898,0.3512619276,0.122547308,0.3714228508,0.2374535922,0.3801427327,0.1883078483,0.1237652169,0.1054986797,0.0106410205,0.1655162108,0.0092050769,0.2185489354,0.1483190201,0.3367025273,0.227029404,0.2190806243,0.2588964334,0.1779804102,0.3082706252,0.2315299454,0.1832333165,0.3033725428,0.0654480074,0.269459745,0.18828124,0.235685086,0.4193679599,0.4083216917,0.2039453374,0.2232415055,0.2586190897,0.3718546169,0.3697885396,0.2789154253,0.004965479,0.044351908,0.358869562,0.0214659236,0.2817634821,0.3426616083,0.0431560575,0.2210293709,0.1671516642,0.3219849405,0.3011720707,0.2816708176,0.1809643818,0.074885174,0.3757092641,0.3423759547,0.4259784095,0.0822083685,0.000234896,0.2957079879,0.3252264489,0.3689786974,0.0960322387,0.1179349487,0.3538366308,0.352435716,0.09931984,0.1553958182,0.1341109612,0.2305891079,0.1323826474,-0.2318301603,0.2939608746,0.1131728048,0.1706896834,0.0021074401,0.3952164618,0.2604538724,0.4024213307,0.0613092541,0.0283899816,0.0936627287,0.2540779662,0.0479121603,0.2987352788,0.1820906064,0.362149028,0.4233715843,0.0245924983,0.3260106744,0.3501107029,0.3282942974,0.3379654097,0.1328729585,0.0533199411,0.1006402919,0.2507829642,0.239244001,0.0078174305,0.1204995952,0.2549556814,0.2683428212,0.1410937231,0.0953861556,0.2329757836,0.4261865352,0.2535939353,0.1000885896,0.3663101863,0.2642423338,0.3708236772,0.058915581,0.4053741575,0.2617553859,0.2604923224,0.026888249,0.4266861763,0.4089745013,0.1523830614,0.1095372028,0.3768732578,0.3479468754,0.0196495413,0.0112773189,0.252456282,0.0268187679,0.3267505831,0.1237517652,0.4007253342,0.3146501664,0.216364833,0.1000492272,0.3756241567,0.3358669477,0.0829948521,0.3849328747,0.2382092708,0.0706614199,0.1689274395,0.1922239771,0.2405064516,0.3381471202,0.4180442208,0.2226824016,0.3142896163,0.2137512587,0.3771198776,0.0785544003,0.2219298217,0.42166021,0.0987218157,0.0422799905,0.2427127349,0.4169817605,0.1606623798,0.0679169757,0.3443608373,0.3237444146,0.0638878491,0.1306565642,0.2958252464,0.0438112801,0.4095049723,0.3508615941,0.2132412726,0.2913350759,0.2781166007,0.1231593682,0.2472115429,0.357855387,0.387527051,0.0605706023,0.1596170826,0.4311001756,0.4292944861,0.0932977078,0.080184373,0.0091877791,0.3290558074,0.3062684649,0.3900776024,0.1952269544,0.3863314096,0.0068782225,0.2369791807,0.2626206501,0.1708015492,0.1062486485,0.1628940331,0.3432950386,-0.2405106308,0.0178706326,0.0575290312,0.1779843127,0.0215514718,0.0695928053,0.1311797251,0.1651155895,0.2053023765,0.2954652784,0.0913306343,0.1558977412,0.2879791861,0.0160406025,0.4231033176,0.2403991273,0.2062804907,0.2421145472,0.2213200419,0.33610773,0.348953246,0.2083226492,0.3926423767,0.2001445269,0.2038285612,0.2620439363,0.3655199292,0.3571236718,0.4066603527,0.3950745427,0.3672439922,0.3969257214,0.371668793,0.1258565681,-0.341280808,0.167691781,0.4285703063,0.0615868881,0.199276989,0.4003189969,0.1665925542,0.0357460558,0.4092847122,0.3901761135,0.1592074854,0.363566955,0.3588987501,0.2309598875,0.0763917737,0.1029559025,0.0088475857,0.0487645546,0.392813846,0.1022031999,0.158771075,0.3982315324,0.3275783355,0.3803075501,0.0990957821,0.2756412373,0.1785065987,0.2849759019,0.3634000133,0.3780155142,0.3695184292,0.1064644897,0.0151688646,0.0131178801,0.3895755709,0.3231432704,0.2280783952,0.0370675764,0.029530132,0.2827959911,0.2057552478,0.0931703876,0.2809819826,0.1938962771,0.3327610929,0.393695261,0.3114141338,0.155416623,0.030812825,0.317399035,0.3298045129,0.2114556959,0.1736004198,0.2126398235,0.1865102246,0.3611302462,0.3150920778,0.194878576,0.2081206982,0.2007546135,0.3623198708,0.1918086448,0.1203151141,0.0631007494,0.215427026,0.0582270481,0.2824768689,0.3294124697,-0.3135564452,0.1997967289,0.2421940261,0.1856272949,0.1459122749,0.121732429,0.1126533507,0.059450285,0.4026448806,0.2395921515,0.2215668716,0.2902967233,0.1024813819,0.41883496,0.2402992677,0.2487750406,0.3761361163,0.2555113248,0.2299656315,0.1206394079,0.1526484857,0.3354825924,0.1400404125,0.2788957128,0.1760545287,0.293580945,0.3120818923,0.0675195994,0.0076877777,0.0273066804,0.0999045324,0.2963181428,0.3752505132,0.3334722638,0.24243185,0.1105223617,0.3304578452,0.0561823404,0.1875154555,0.2330002826,0.3800008036,0.3557869614,0.3880688879,0.3620290845,0.3151923767,0.0189687885,0.3892457297,0.085373889,0.0311582812,0.3277838861,0.0747652656,0.2852083512,0.0366214422,0.0797533942,0.0571354097,0.4119565568,0.1989612382,0.1705286459,0.0563789767,0.2177405818,0.1566926412,0.3342375323,0.1014157349,0.3862014388,0.2086905197,0.1757398166,0.2724564908,0.4273058295,0.343680931,0.4024362626,0.2192883185,0.3732684354,0.4322008217,0.0757659068,0.2420241194,0.1044047057,0.0289346099,0.0224867948,0.009055116,0.0903063461,0.3067551411,0.1910040318,0.2237058463,0.2485512588,0.0478658413,0.2538940288,0.3728049271,0.401181225,0.33263894,0.3950867199,0.1490086622,0.3712904535,0.3409304775,0.0367851113,0.4203848672,0.0216906246,0.2590354444,0.1056972616,0.2536274007,0.4038416844,0.2738366014,0.1404534621,0.0228687679,0.1645551865,0.0615861954,0.0196963565,0.0805373925,0.2166288248,0.003451678,0.0779414013,0.0868221737,0.3915672493,0.0336734253,0.358860081,0.4290777561,0.4185144085,0.1333439621,0.167622752,0.0997983816,0.2613592202,0.3177905686,0.0245662841,0.3783378751,0.4195708279,0.0391535425,0.0939224658,0.3747342968,0.3380994748,0.3115925022,0.3021906085,0.2361077015,0.239059396,0.1144030115,0.0086154726,0.324370279,0.0645918532,0.0017793664,0.4139780434,0.1607516715,0.0943978741,0.3085668137,0.1575844426,0.1991627805,0.2005158103,0.2309044696,0.0330152507,0.3289104163,0.1402322369,0.4244595713,0.3469573917,0.4220675264,0.3697937671,0.1743103438,0.0131882761
biasActivation=0,1,1
[BASIC:ACTIVATION]
"ActivationTANH"
"ActivationTANH"
"ActivationLinear"
