encog,BasicNetwork,java,3.2.0,1,1360542098565
[BASIC]
[BASIC:PARAMS]
[BASIC:NETWORK]
beginTraining=0
connectionLimit=0
contextTargetOffset=0,0,0
contextTargetSize=0,0,0
endTraining=2
hasContext=f
inputCount=36
layerCounts=1,43,37
layerFeedCounts=1,42,36
layerContextCount=0,0,0
layerIndex=0,1,44
output=0,0,0,0,0,0,0,0,0,0,0,0,0,0,0,0,0,0,0,0,0,0,0,0,0,0,0,0,0,0,0,0,0,0,0,0,0,0,0,0,0,0,0,1,0,0,0,0,0,0,0,0,0,0,0,0,0,0,0,0,0,0,0,0,0,0,0,0,0,0,0,0,0,0,0,0,0,0,0,0,1
outputCount=1
weightIndex=0,43,1597
weights=0.2056566433,0.3167498379,0.3230101099,0.240468157,0.1565856389,0.0389308691,0.1968741842,0.0995168232,0.0834246656,0.2074003862,0.003570406,0.0636996557,0.339266834,0.1403794551,0.3480403632,0.1870398935,0.1268690237,0.0206712128,0.2140889719,0.0002608709,0.1301949421,0.0235159745,0.0889376206,0.0605992772,0.2074021992,0.2928239441,0.1139789277,0.0288343035,0.3142294585,0.2835085574,0.093750613,0.2502158432,0.2680969972,0.1551728273,0.0607220919,0.2264725985,0.1405291205,0.1433679334,0.0200012938,0.1250170065,0.3287390515,0.299047459,-0.1059787382,0.3069615269,0.3403104881,0.0961384196,0.1702694336,0.3566670771,0.2813684028,0.313512736,0.3404740379,0.3263047468,0.0574887937,0.1931062934,0.2289659863,0.338308986,0.1815834813,0.0519017474,0.1720191817,0.3226382142,0.1284040496,0.2252530482,0.0393524165,0.3226718047,0.1514462757,0.2195049791,0.120052717,0.1566452755,0.305866837,0.1022474074,0.365457302,0.3061339847,0.1382083399,0.1714592971,0.1531454136,0.3126786717,0.0833504292,0.3782289987,0.2633398804,-0.2939628823,0.1915992561,0.0164879122,0.0470983603,0.1255261325,0.0907439356,0.1562673664,0.3726632675,0.0620950865,0.0536931125,0.2644187522,0.0760342372,0.2001073867,0.2821708403,0.3055041019,0.0096515485,0.2339610723,0.2435707385,0.0648413428,0.3168098033,0.0463696176,0.0743912323,0.3194705152,0.039324867,0.0776646268,0.1365355018,0.2753571133,0.1092996826,0.2984396506,0.2552926794,0.1503665904,0.3044673721,0.2129399482,0.2834697667,0.2218168535,0.0887583097,0.3461540784,-0.1073826923,0.2014419429,0.2887412889,0.210621351,0.0047332352,0.0192324502,0.3728268178,0.1655877971,0.1153191259,0.1342381969,0.1396772621,0.2177567539,0.0280875034,0.2279455507,0.2315806984,0.0888911722,0.2698075459,0.350859923,0.0509276558,0.2437034525,0.2343183024,0.0357137957,0.0065846424,0.1166566583,0.1341478219,0.0129256925,0.3714533065,0.3121308526,0.1444345005,0.3012426682,0.3176159032,0.0848166446,0.0676087447,0.3110149412,0.2468844719,0.1214254257,0.1720987091,0.3444632549,0.2937520943,0.1536880204,0.1274605295,0.0511543435,0.0729154712,0.0594010343,0.2088502473,0.1918955523,0.1572195245,0.0189761958,0.3835114449,0.2321428339,0.3240335479,0.0792045057,0.3608829743,0.1444309665,0.3835470562,0.0011268638,0.0056050741,0.2149023273,0.2901279295,0.0296331151,0.2107928803,0.386207815,0.2425243291,0.277232949,0.0884505924,0.0220481641,0.3505980881,0.0823590608,0.0640364626,0.2001542116,0.1747035091,0.0528634321,0.1318481977,0.105433283,-0.327616784,0.3839211354,0.3593686402,0.2178594302,0.1299168074,0.1214212398,0.3240815949,0.1120824864,0.3206517242,0.3222921607,0.1791042672,0.2211417318,0.069862236,0.3186621128,0.128977623,0.2174648574,0.2080667802,0.2246549407,0.1633308999,0.0698823517,0.003170355,0.1736301755,0.0824645343,0.1497046437,0.3586092536,0.2459634174,0.0858903392,0.0931380276,0.1247722131,0.2821661415,0.2113180779,0.0561166357,0.2121581879,0.2356513473,0.0850295763,0.0956601655,0.175294559,0.1160857022,0.2326135019,0.0829796664,0.0758456793,0.1957135054,0.2718949604,0.111940811,0.3396161802,0.2529159704,0.1885128644,0.2960371539,0.1005044524,0.2638735675,0.1380788372,0.3126001607,0.2764140932,0.1239035773,0.268089975,0.3365354077,0.3799244803,0.0292093354,0.057084081,0.2830466162,0.3451469061,0.1353166422,0.2181355923,0.2461428322,0.0752325988,0.1910142545,0.2823914553,0.3211644983,0.2632825835,0.2817817014,0.0068344287,0.1082471394,0.1647435591,0.3497420004,-0.2187761252,0.1203120478,0.2309475804,0.0799106392,0.0066512056,0.13311974,0.1499050355,0.017877386,0.0926826863,0.0082818389,0.3382423235,0.1886387791,0.2247119924,0.1934660508,0.1127928442,0.328353541,0.1549283438,0.3026523505,0.3802110827,0.1047672297,0.1474990662,0.2437047503,0.2030921538,0.1322887649,0.2243408049,0.2644099245,0.3600676425,0.0408192269,0.0871669665,0.0470570914,0.2134540267,0.0777757851,0.0915069,0.1702532332,0.1168921103,0.0460099077,0.3543578207,0.2505748478,0.0577299766,0.013221651,0.046432182,0.0254762301,0.1057135833,0.0120827024,0.1155532433,0.149564384,0.1222013392,0.0064898592,0.0140414716,0.1851549292,0.0188806813,0.0316276829,0.2198242165,0.2987234379,0.1687005957,0.224785977,0.1784080325,0.3177232343,0.1888237692,0.285278444,0.0101142503,0.1643534387,0.2250981337,0.0650953619,0.1486368105,0.2313495567,0.3255053687,0.1195489162,0.3639005415,0.2865626393,0.0064463476,0.1283896133,0.0290700114,0.3562211523,0.0641622469,0.3453549752,0.0661794092,0.069129819,0.1081083396,0.2440107631,0.2525943612,0.1612075547,0.2930147673,0.0707071126,0.2835179027,0.1783516494,0.1551418952,0.0496387668,0.2392375319,0.2579934139,0.252391146,0.0576023273,0.1650531968,0.1847695164,0.0614548876,0.186899769,0.3105245553,0.0643362263,0.2453506197,0.2278286511,0.0864950448,0.0645185499,0.1654405835,0.3282861034,0.1266739386,0.0800202281,0.195559824,0.0072297495,0.0283695505,0.2956070101,0.3770849631,0.2807417196,0.2127096326,0.0647241671,0.3016885041,0.1994612236,0.0914085729,0.0410097943,0.1217786836,0.1634155162,0.0347143855,0.0357686847,0.2349848605,0.1295489974,0.1534738197,0.3850782258,0.1865553257,0.1214589122,0.1630305307,0.2286097225,0.2461026722,0.2028916455,0.0406880729,0.2722477841,0.294005244,0.3309283354,0.2363200652,0.1429358293,0.3847171261,0.3195361955,0.129351299,0.074529264,0.3046944098,0.0574006187,0.0691443314,0.0006353174,0.3452091313,0.2123044799,-0.2774341738,0.2426191573,0.2323591475,0.2601799585,0.0823316343,0.273134665,0.2190197353,0.1085830957,0.3516264988,0.0656719259,0.177598347,0.0603388266,0.0505176791,0.0804770215,0.2015978115,0.2126624365,0.0812297702,0.1086827353,0.2179824296,0.1477935218,0.3061108889,0.0210849196,0.1169805074,0.3206268815,0.3415252022,0.3447456016,0.0012792655,0.1211532321,0.317002543,0.3331332156,0.10841051,0.2002870386,0.1995877703,0.0750325283,0.215321378,0.1486671324,0.136295406,-0.2632088577,0.0575487261,0.300842522,0.075615367,0.0020341037,0.0509826235,0.3508242977,0.2238086831,0.1396883833,0.0514160742,0.1242853934,0.3064784962,0.317712942,0.0151883397,0.3329475204,0.2839844983,0.305586082,0.0420608583,0.2300485846,0.2492621135,0.0257588846,0.1333624097,0.2283192401,0.1916452845,0.2178223036,0.0473556694,0.3512609692,0.2682016529,0.0961646325,0.3743381207,0.0499485172,0.3497462841,0.3789835531,0.0086499779,0.1765513203,0.1147752741,0.3337815089,-0.1070471331,0.0705388334,0.0852161222,0.2818325035,0.0712446816,0.1294111615,0.1214191081,0.1307657168,0.2979107666,0.3877871426,0.1635967205,0.3367850679,0.2092685614,0.3507834631,0.0776491458,0.1679744413,0.288953395,0.2589686796,0.0685921345,0.1138614725,0.155069138,0.0705356765,0.0734511063,0.2859848825,0.3661832698,0.215586435,0.2043022397,0.2053690216,0.3020111692,0.0388405466,0.3143273413,0.1039466992,0.2464822245,0.3586400828,0.248688676,0.3575558809,0.0754387052,-0.123803801,0.115797428,0.1308379435,0.262728318,0.3691903292,0.1272762096,0.2067639925,0.0709261921,0.0685633088,0.2651410809,0.0458922234,0.1579709125,0.2650059454,0.0775771106,0.121968701,0.3775098294,0.3049412249,0.2216130566,0.2410425596,0.0171307067,0.2545695138,0.2547177635,0.1409580356,0.0260030834,0.0715988873,0.3614425283,0.0016686552,0.1707358142,0.0782507253,0.0375279069,0.1322714189,0.2698223317,0.2512807171,0.1564088593,0.1658064357,0.1086132517,0.2649881653,0.2150690206,0.1408803279,0.1360217398,0.0545917009,0.3567010287,0.3376257834,0.0331545012,0.0640559629,0.3668449873,0.3609579609,0.3500330629,0.1395866443,0.2609985341,0.2426486327,0.2364260896,0.1104885955,0.0876971886,0.2761581848,0.383036804,0.260980136,0.2800862198,0.1541618872,0.1834306027,0.118383641,0.1269722485,0.0995236924,0.2601036055,0.041451572,0.2945031539,0.0768543989,0.0574803761,0.2430935213,0.0221304768,0.3646707804,0.2263078476,0.2941285057,0.3237652738,-0.3693542451,0.2431735117,0.0952988967,0.299644965,0.2764735555,0.007509378,0.0926529377,0.0261857555,0.0923793299,0.1439129103,0.359201946,0.2606996995,0.1860457493,0.2761563386,0.0256916493,0.2463520747,0.3455098233,0.1577331742,0.027102431,0.2360597173,0.061676009,0.098821594,0.0371873994,0.2170946267,0.1356789522,0.2483926809,0.2211189382,0.0240256338,0.2912443661,0.1592253561,0.1536067416,0.0398217268,0.1980446161,0.2945173102,0.0426266111,0.0775485628,0.3765485713,-0.0106436785,0.0711728812,0.3027424619,0.3744039035,0.1191095736,0.2738220959,0.0666067498,0.1077546116,0.1468336114,0.2741070724,0.1125769932,0.3325311664,0.3051450144,0.1778412763,0.0228985152,0.1374216278,0.2644908357,0.0744292885,0.3485128159,0.0256041989,0.3405480749,0.3096512786,0.0519742295,0.1354996918,0.1396078617,0.0979899291,0.0179369849,0.0631128852,0.0519176912,0.2729151813,0.1310891871,0.1813176534,0.0716839884,0.14192692,0.0943943515,0.3202585532,0.2878569937,0.1947405786,0.0549648679,0.2734788026,0.0854583148,0.1223657919,0.1934046201,0.2577191705,0.074710217,0.1498789356,0.0770105959,0.313200498,0.1846513308,0.2794973624,0.3309830266,0.2495184088,0.378214694,0.1877236315,0.1725878805,0.2956639936,0.0835837137,0.010575466,0.3038969742,0.2074740312,0.2392605992,0.2650354548,0.2191829067,0.1527214256,0.1533686169,0.2345363827,0.1999364267,0.0419038564,0.2709147848,0.1049894665,0.3790908893,0.3405479927,0.3686519252,0.3105071894,0.1276807712,0.3826701887,0.2556311617,0.3122207375,0.2907051437,0.0916889083,0.3506182784,0.0441367956,0.3203229196,0.1402573987,0.1995716934,0.1285277715,0.0427872315,0.0553213339,0.204426472,0.3279141743,0.2430042815,0.0089902328,0.319527617,0.2422714735,0.1787895453,0.2266570403,0.0048516855,0.3299215404,0.2862554807,0.1438121181,0.194506021,0.0720328304,0.0168338328,0.0834516012,0.1521953747,0.1147160059,0.2575714777,0.1420014035,0.1291627593,0.0099267028,0.2689843027,0.0266331082,0.2580942813,0.2039716745,0.048960904,0.2392714221,0.1074986158,0.1807401701,0.1205596682,0.2654326214,0.1423109764,0.1654677817,0.285407909,0.0087299529,0.3547292738,0.183768844,0.3833549902,0.3836610295,0.0176996241,0.3575407951,0.3296362016,0.2672519858,0.244767475,0.1100866981,0.3596204345,0.1829358402,0.1439483919,0.181018862,0.354860758,0.0123846989,0.15366595,0.1187231729,0.2248138313,0.3849675803,0.3277731376,0.2662375592,0.3157786084,0.1128625862,-0.0306488571,0.2235047083,0.2547469774,0.29905033,0.1326016708,0.1998418485,0.0055871401,0.3339114284,0.2448680631,0.0979316136,0.3568670304,0.1517895893,0.3695690779,0.1897027699,0.2126807885,0.0613973907,0.3192728381,0.3557014018,0.356152357,0.0058387499,0.3260474664,0.0199673844,0.0399556806,0.3723184271,0.0872316553,0.2606012486,0.0300073421,0.3412233508,0.0400979447,0.0057976055,0.3018158874,0.1484139553,0.2682001566,0.1184884341,0.313365269,0.150900687,0.3297545196,-0.2197513308,0.1018272279,0.3827946563,0.2288502035,0.0046003062,0.2030273146,0.1480311032,0.3723770369,0.1212433299,0.1948853661,0.2515093384,0.1639207786,0.1667239166,0.2955976289,0.1415007156,0.1039280433,0.2578968945,0.0426980734,0.0706803337,0.3137126894,0.3876987826,0.3046427814,0.3127773192,0.0500108718,0.3816478493,0.0308429532,0.3413566231,0.3624812592,0.3473020266,0.1324141761,0.3042875396,0.2282919463,0.2222107379,0.2215573443,0.1598139397,0.3175946265,0.0143028878,0.0357190405,0.2221648166,0.247295313,0.2813998686,0.3154137186,0.30956388,0.3834796855,0.3614223844,0.2517688008,0.3757454032,0.1055871264,0.325755527,0.1560206497,0.1401478154,0.159493657,0.1335040776,0.1089251636,0.1678891105,0.1275653413,0.2792849532,0.2089625517,0.3440854124,0.3059754188,0.0279502873,0.3383427634,0.1419016235,0.1223100852,0.168817804,0.3783884481,0.1546158602,0.2125068416,0.1162868671,0.0441628544,0.0274437348,0.2787747182,0.1427586057,0.2812358262,-0.0082180852,0.0545785627,0.1185973494,0.1775416099,0.0916849977,0.1950001716,0.1279250458,0.3132294973,0.2301454637,0.1902525479,0.2025919389,0.1682083914,0.3854007642,0.3019460655,0.3394005464,0.2198255867,0.0002393793,0.264491943,0.0761498025,0.1612533459,0.3366216911,0.3323077343,0.0724846248,0.1364727915,0.1532946078,0.0976095739,0.0636242694,0.2818372911,0.0766423182,0.065642309,0.0687342143,0.2289231913,0.0986035551,0.2601489887,0.1874359997,0.0963465217,0.3207657833,-0.1785483598,0.2549471904,0.2091919693,0.1846600679,0.3335847179,0.3628058442,0.3707120163,0.0529859281,0.1611028091,0.2826867456,0.0998385506,0.364347179,0.3308473045,0.2510496818,0.0046808578,0.2915940853,0.1407964425,0.2974298172,0.2216877056,0.0881596189,0.3638706608,0.131973467,0.1442024095,0.1771340912,0.1990228197,0.240079293,0.0303495606,0.0822202681,0.3433943953,0.3700612117,0.002441489,0.066508732,0.1762772631,0.3518635617,0.1834731518,0.16396094,0.0401591537,0.2130161978,0.0803539851,0.0102664074,0.1899163778,0.2146333483,0.280692633,0.1590428858,0.3219977953,0.1809439605,0.2295264009,0.3368878874,0.319610387,0.3566008662,0.3469735893,0.2079925343,0.2657283362,0.0339545096,0.2882310494,0.2927934086,0.1544143098,0.0667586978,0.2486322027,0.3427281417,0.0832104982,0.2074886167,0.2465494107,0.102868527,0.0352271256,0.301671628,0.2590860269,0.0868096116,0.0951152467,0.2851914271,0.0998239887,0.2646235787,0.0991026684,0.0859386426,0.1168204767,0.0951923228,0.0615370325,0.0977651598,0.0350637515,0.140304226,0.3182030399,0.143666676,0.2410798693,0.1805013294,0.1693163606,0.260348683,0.1388339421,0.3380945877,0.1637555371,0.0266480638,0.0848110555,0.2069633106,0.0252192434,0.1509484379,0.0771093446,0.268703783,0.1170739772,0.3409780494,0.0548982164,0.3346179785,0.2553219287,0.3206911537,0.0712271591,0.222125849,0.3575246206,0.0265769241,0.1115872043,0.299838554,0.1475583134,0.1154832102,0.3199376107,0.1398884641,0.2085192485,0.097207313,0.3860920263,0.2333069838,0.0148433941,0.0237441793,0.3858343267,0.0692840148,0.0782312822,0.1066784371,0.0811034126,0.177576329,0.3567083305,0.1122372273,0.1615192846,0.3539470659,0.3512585544,0.1078493772,0.3482793147,0.2229282857,0.0900446873,0.375891233,0.2450114259,0.1804047891,0.3269503156,0.0003552389,0.0900496768,0.170971626,0.0995468143,0.3821612156,0.03927293,0.2808273079,0.0088971622,0.2971012455,0.1339885,0.0622517011,0.2548952877,0.3470491168,0.1419292897,0.2375008399,0.2696100384,0.2825132728,0.2617290685,0.2831708741,0.2669354593,0.0526019458,0.1566576496,0.3062641627,0.1178223428,0.1164869643,0.0753186119,0.0645928933,0.3069775584,0.2669064912,0.23963284,0.200561017,0.376802748,0.3331268527,0.0258905891,0.2708306768,0.0969716174,0.1642084589,0.0364028277,0.0067608462,0.2699187777,0.0462773463,0.1914811765,0.166531466,0.2654664598,0.2598237604,0.0221021494,0.3443437661,0.2989034313,0.0233011124,0.3122677608,0.0786829297,0.1225487533,0.2804050924,0.2593964122,0.1464943949,0.0466701571,0.2226398099,0.0290776978,0.2236919838,0.292429211,0.1252100253,0.2280450699,0.2410187567,0.2130638475,0.0083264131,0.30954779,0.0450683135,0.0969076043,0.1340414494,0.3707076613,0.0408105677,0.0392903323,0.2675829351,0.1541344495,0.1745664962,0.3085891567,0.0809394758,0.2723135076,0.3774295585,0.0118498138,0.0542740365,0.2443815309,0.2960004716,0.2454532382,0.2926953628,0.2491373059,0.3694558173,0.0309870174,0.1275498215,0.053954137,0.2665243415,0.0197927087,0.2342017804,0.279802557,0.000161434,0.0222945616,0.1073724738,0.2789914903,0.2984905524,0.2136059082,0.095315383,0.07227819,0.3732279592,0.3598818577,0.1733468365,0.0204760532,0.3732797279,0.2803086428,0.1388081374,0.160140807,0.3132732597,0.3431789804,0.1735087544,0.3810262429,0.3204454587,0.1760421817,0.0436024509,0.2792131869,0.1120721451,0.0557711443,0.3672618405,0.2200369099,-0.1160035842,0.1136288273,0.1862663082,0.1885284598,0.0209158832,0.1595604637,0.3578892311,0.1949316593,0.3317833999,0.0302617646,0.2998554885,0.099986835,0.2129304835,0.0990023072,0.2446852129,0.2500132994,0.2281131962,0.0687969496,0.3652682541,0.1805340959,0.1055332839,0.33503113,0.355987127,0.2738604553,0.0355394181,0.3632526785,0.1449292996,0.3539248909,0.0780750933,0.3468560777,0.2926716653,0.1530753877,0.3490124799,0.0693629825,0.0783629198,0.1730393386,0.1743664435,-0.0860311298,0.0502118782,0.2067634418,0.2231068525,0.3376065442,0.1436182234,0.1839618446,0.1841566984,0.0288769012,0.2600861051,0.3651548025,0.1064524319,0.1032387838,0.3748359933,0.0874340049,0.1586212988,0.0768268581,0.2415705627,0.0474785665,0.2116745315,0.0687753633,0.2223578179,0.3608308686,0.123693501,0.0638383605,0.0295658353,0.0146887756,0.1224691336,0.0646819807,0.2515212007,0.1223753307,0.1819012875,0.1582961254,0.2158405065,0.1921691782,0.1004267552,0.3100702279,-0.0745988153,0.0363450533,0.3489837315,0.0149438004,0.1391100461,0.3682483607,0.3800807025,0.1074297125,0.0293209261,0.1287977993,0.3452176476,0.2475832826,0.1042364447,0.2875493407,0.2738145424,0.0278396856,0.0867708036,0.3418397843,0.0467503755,0.3612887582,0.205983069,0.0264811209,0.170212397,0.1499606349,0.3508259092,0.1027788662,0.2344318529,0.1227717882,0.0785888958,0.0820853681,0.2875035124,0.2151031632,0.051954237,0.270830771,0.2683770462,0.1841424245,0.1065799014,-0.2561711794,0.2364143306,0.2801986916,0.0995149003,0.0489471205,0.2857352733,0.2021356493,0.0698064716,0.0845680889,0.049187365,0.1592777626,0.2260630243,0.1834170233,0.0845410494,0.1694908469,0.2234812028,0.0912291637,0.3222641294,0.3123451123,0.035642186,0.1851626525,0.1555176538,0.2883644836,0.2037681159,0.2827425803,0.3820780176,0.3366520064,0.1717354233,0.3129425783,0.3251888528,0.248815415,0.1772598737,0.3686518494,0.0814378532,0.243152214,0.305910617,0.1294480114,0.2401727509,0.0373506271,0.2073317925,0.2224761883,0.058883207,0.0907042552,0.0642740387,0.2934412052,0.3439087071,0.2263819166,0.1201039821,0.28772697,0.0499682829,0.2486173075,0.1752056898,0.3696506213,0.214731566,0.1808084587,0.308356874,0.2533189317,0.372590065,0.3840004964,0.0540475092,0.2903019106,0.0378944593,0.0925591566,0.1258994266,0.1861644944,0.1567934293,0.0269508522,0.1745363733,0.3856046436,0.170019631,0.0373694651,0.3292591911,0.2516835283,0.3533581234,-0.161994681,0.2007126983,0.0453822764,0.3283927893,0.2173131567,0.2006695407,0.2978279291,0.2379517415,0.0117160271,0.2583669524,0.2188999151,0.0966387502,0.0487202173,0.2745798046,0.2870015376,0.2988020417,0.1625588467,0.0085275921,0.3019264335,0.3543203427,0.064855394,0.3309338635,0.3275779035,0.0305269139,0.3780750103,0.3781556505,0.2483177913,0.0260133993,0.2159241072,0.2769620974,0.3186665239,0.2215943013,0.2384844567,0.0866522058,0.202471444,0.1156180154,0.2830933614,-0.0501694682,0.0954352812,0.0053637976,0.3660392069,0.1716192824,0.141663433,0.2965997746,0.0661592431,0.0956831291,0.2827859716,0.0094957929,0.341726089,0.3042052282,0.1728933091,0.2180670906,0.2079002423,0.3855066881,0.2793338399,0.1263663506,0.0563286384,0.2916208975,0.2844756878,0.310529402,0.3440181518,0.3033446269,0.3745958103,0.3270845612,0.0684106923,0.0703086537,0.0028577285,0.0785887283,0.2953543869,0.3748478381,0.3442738031,0.2251504747,0.1334841028,0.1327403246,0.3633881577,0.1190197917,0.0205536132,0.3070751306,0.1675161352,0.1821179478,0.2134904028,0.1566825143,0.0826591179,0.2212590307,0.3570898116,0.1353161239,0.0646918675,0.2437383278,0.2186696644,0.3038027676,0.1314991363,0.3711954127,0.0746807983,0.3876429262,0.2576208365,0.2813873408,0.2670491559,0.0442657549,0.1662156945,0.3157644031,0.0055733452,0.0552950331,0.1746913037,0.1511480406,0.2375223469,0.3332146336,0.0873097354,0.043881373,0.2625741352,0.1847883704,0.0267052747,-0.2775276082,0.2076048919,0.3070140341,0.1255771788,0.1416968261,0.3385789524,0.0369508773,0.0105267927,0.1163168169,0.357692156,0.3436736437,0.0235863858,0.3006449324,0.3296693535,0.0355913283,0.2605191574,0.1976733819,0.1855914977,0.1314318457,0.1730479607,0.1782081446,0.067751459,0.1983172982,0.1053274389,0.3549195039,0.0785104787,0.2894374422,0.2078347477,0.3074315406,0.0350383396,0.3122254985,0.3324299171,0.0319657945,0.2326257288,0.2615734506,0.3567797083,0.0717099529,0.2780345861,0.0601313854,0.2229070456,0.0676448345,0.1615595597,0.0566315269,0.0852797938,0.3423244117,0.1237422534,0.1181209601,0.2422513036,0.0115941286,0.1907050853,0.3031942888,0.3005632246,0.2235593429,0.0518309722,0.2944861648,0.0140612102,0.3235778223,0.218743391,0.2324506556,0.3491673425,0.3565254656,0.1700981302,0.1961836374,0.3268374663,0.2115634892,0.0554826006,0.2884956772,0.1585491486,0.0909146083,0.1451476857,0.2401915137,0.1597461588,0.2106616773,0.3061353142,0.139533743,0.1103972991,0.0050816316,0.0869668762,0.1476286534,0.001464163,0.0640987433,0.1511806347,0.0946468046,0.2610003418,0.3841605951,0.0488118304,0.3097027391,0.3123662962,0.0376008589,0.1167864422,0.265000685,0.2328072999,0.34150259,0.0591222129,0.2511623667,0.3856454278,0.3054244388,0.1664140872,0.0165650286,0.0335137881,0.0360446011,0.3836286467,0.1627575661,0.2419865066,0.1325949533,0.2378513871,0.1210262534,0.214620619,0.3811619992,0.2597222475,0.3108215155,0.0972534071
biasActivation=0,1,1
[BASIC:ACTIVATION]
"ActivationTANH"
"ActivationTANH"
"ActivationLinear"
