encog,BasicNetwork,java,3.2.0,1,1361840924199
[BASIC]
[BASIC:PARAMS]
[BASIC:NETWORK]
beginTraining=0
connectionLimit=0
contextTargetOffset=0,0,0
contextTargetSize=0,0,0
endTraining=2
hasContext=f
inputCount=36
layerCounts=1,43,37
layerFeedCounts=1,42,36
layerContextCount=0,0,0
layerIndex=0,1,44
output=0,0,0,0,0,0,0,0,0,0,0,0,0,0,0,0,0,0,0,0,0,0,0,0,0,0,0,0,0,0,0,0,0,0,0,0,0,0,0,0,0,0,0,1,0,0,0,0,0,0,0,0,0,0,0,0,0,0,0,0,0,0,0,0,0,0,0,0,0,0,0,0,0,0,0,0,0,0,0,0,1
outputCount=1
weightIndex=0,43,1597
weights=0.0196279374,0.2956206669,0.0599447534,0.1489240063,0.2212726683,0.2924870172,0.0961829719,0.1915703435,0.2420818742,0.1396566576,0.0513116314,0.3462006728,0.342799656,0.2204192709,0.2836702552,0.3006239966,0.0888480678,0.2017131777,0.2990868449,0.0616853757,0.0584718671,0.2555003122,0.0059069639,0.0733594965,0.0527661616,0.2980348116,0.156340969,0.0727382924,0.0932421169,0.3181661557,0.0650336246,0.0437010423,0.1433184396,0.2177223275,0.1707115262,0.322928574,0.0767961104,0.212360005,0.2426524214,0.1062336778,0.1889814565,0.1400483297,0.0618723671,0.1158256395,0.3161175005,0.0770543893,0.1449498931,0.1707479239,0.0803723988,0.3582854862,0.1297857424,0.0756663834,0.2780758209,0.0047659833,0.2104743329,0.1616823449,0.0398855652,0.1751822591,0.2025196836,0.2849925548,0.3537604789,0.3246900434,0.1475968613,0.1539239352,0.0871147274,0.2110053604,0.2279079574,0.0585720347,0.2516548558,0.260638694,0.298995056,0.1713715921,0.0148582264,0.3627803244,0.3352965349,0.0485648414,0.0268456359,0.3833664527,0.2073258534,-0.0504953498,0.2318696475,0.1924449389,0.0733834468,0.083305041,0.3563842456,0.2472490513,0.011719263,0.3275940316,0.1693867884,0.2397046235,0.2132174097,0.2115998192,0.3787470852,0.0852807254,0.22780337,0.3079654736,0.3620479183,0.1377602575,0.223510067,0.3430965414,0.2944452594,0.0357495099,0.3374715637,0.0908356937,0.3053991202,0.2557281262,0.0471386219,0.1850115057,0.1019404661,0.1783199918,0.2063029295,0.0704531822,0.2092367155,0.0984294157,0.1496975027,0.1077114428,0.2716469054,0.0948235806,0.2894900795,0.1921201194,0.1080100181,0.3815149233,0.1207005845,0.1740849264,0.0559841707,0.2617558845,0.1788289699,0.114693944,0.3704637126,0.2652886061,0.0880272952,0.100800042,0.2805929137,0.3010084416,0.1881920111,0.2693313268,0.3702261573,0.3539689071,0.3725656102,0.2985745974,0.1182527141,0.0846073683,0.2880987523,0.127218293,0.3302524273,0.0315622403,0.3431643674,0.3527392282,0.2156508491,0.0790075344,0.1160758337,0.1816923002,0.1906395273,0.2255000879,0.2471232583,0.333159977,0.2103246675,0.129607159,0.0036525242,0.2687274202,0.3185765055,0.2729520524,0.1812250905,0.3240711048,0.3061276966,0.254431043,0.3398678154,0.1487503857,0.0455522627,0.1560704482,0.1726845719,0.2624037117,0.2580845652,0.1237501978,0.1828648072,0.2156990507,0.2096053506,0.108217801,0.0003748416,0.3288093146,0.0514963303,0.2121482468,0.0111401701,0.2963076248,0.0575063369,0.3016826841,0.2018087794,0.2911912753,0.0562687084,0.3290726487,0.2587583751,0.0357623615,0.314889295,0.3714436743,0.3723390876,0.1805484054,0.0876763731,0.2616946256,0.1639247683,0.1917336522,0.2553257616,0.153123337,0.27911899,0.1165059386,0.0081843744,0.3717210648,0.2880359289,0.3729447655,0.3822116886,0.0116289225,0.0904333051,0.3033165615,0.3308099141,0.084874565,0.3312959714,0.1159747275,0.3017743607,0.3009000185,0.0010015836,0.3727282302,0.2167054121,0.0746682654,0.0151376739,0.1954771565,0.1005887244,0.3688398229,0.0192195447,-0.362545223,0.0640133196,0.0606675789,0.2355328605,0.383486004,0.047850444,0.3366232471,0.0027945597,0.231935698,0.0621493397,0.1584707389,0.1307096166,0.0661409536,0.140687375,0.047934533,0.1263036981,0.1300662422,0.1612512399,0.2254976242,0.145044823,0.0691086618,0.3312807235,0.1646408524,0.1198164705,0.2840622092,0.0143495855,0.2861701528,0.1578059469,0.2571305153,0.0418886316,0.3868924782,0.3743000485,0.09016108,0.2649328658,0.169346577,0.0922066346,0.3838321323,-0.2578292251,0.3565937664,0.3407599254,0.018890024,0.0486905145,0.0825714598,0.0334333783,0.1162467391,0.1293956545,0.3578409753,0.2310228002,0.1172429453,0.0420897468,0.0618576777,0.0877081584,0.0799556016,0.2102678577,0.1898713093,0.0880932296,0.1996095457,0.2963375635,0.2157082163,0.3115251878,0.043443491,0.2779872713,0.1212270303,0.0983854446,0.2243422964,0.0537784501,0.2845318273,0.3606890636,0.1646370865,0.3236031571,0.1650739711,0.2908265478,0.2265037065,0.2398895524,0.272589262,0.1590218839,0.0592027388,0.3760651296,0.2253563394,0.1946515465,0.0509929635,0.1021027899,0.251454555,0.2656370476,0.254549886,0.2684372654,0.2659164944,0.2896593139,0.0039081498,0.1432260737,0.3846026148,0.3284583508,0.2066787838,0.3543893063,0.1400724726,0.1905177184,0.142445725,0.2967959613,0.1073264448,0.3214059639,0.3560079141,0.3249632259,0.3683871082,0.2525353573,0.2919229999,0.2501933916,0.1032479169,0.0407389447,0.2637143291,0.3619401316,0.2016408062,0.091737042,0.2575391238,0.3760060284,0.0608566947,0.1989543438,0.1105764945,0.0304925303,0.2752657444,0.3640385662,0.1838546563,0.276025925,0.181186991,0.0092946324,0.1237499586,0.1181764737,0.1737294598,0.0842017044,0.3354594507,0.1934737564,0.2657088884,0.2294958021,0.3598170359,0.2990514429,0.3467310458,0.0891100944,0.0576630202,0.1622332022,0.0504554392,0.1510118595,0.2631892545,0.3538797375,0.0547193877,0.3693501714,0.0443253963,0.0130812884,0.2782693535,0.0262453327,-0.0253583872,0.3490903014,0.2031588238,0.0349841694,0.0999712828,0.3476386403,0.2152071311,0.3322084593,0.1596141867,0.3220592595,0.2191545722,0.0533738155,0.2120781961,0.028333847,0.2278432849,0.2382856833,0.0549254207,0.1173322167,0.353760428,0.0045267354,0.0328704454,0.1965487476,0.2738643211,0.0725918882,0.291083051,0.1154865487,0.3108945137,0.2979587406,0.1211532474,0.0775041493,0.0105059228,0.2531539739,0.1501944511,0.1987779751,0.3442452349,0.0360845768,0.2376645471,0.0798237087,0.1097901353,0.1193888888,0.1448192492,0.2191665998,0.1884499546,0.2208168134,0.1800842178,0.1368772634,0.1953815658,0.1964240055,0.0463113015,0.2835965705,0.2186148651,0.352780317,0.1984918568,0.0900939295,0.1734187242,0.2614144513,0.1952744924,0.0450597964,0.0103127805,0.255427074,0.0705965941,0.2330745506,0.1779938889,0.0448844943,0.1741981231,0.1679662369,0.0531489311,0.0271074008,0.2843462257,0.1391300597,0.2734052975,0.178187641,0.2798747789,0.3027029084,0.0402778389,0.0519394539,0.3301744312,0.3568942362,0.3757953205,0.3186698109,0.069812409,0.0383849642,0.0864795305,0.3793490037,0.0743905517,0.1249826429,0.1772769863,0.0236137272,0.0026813533,0.0808700202,0.3839828781,0.0440998141,0.1867003197,0.1845228958,0.1176001918,0.275278537,0.252862053,0.2235964322,0.08673283,0.1020431638,0.0216704671,0.3163994758,0.2742710388,0.1617944336,0.1952370144,0.0948837125,0.0229881566,0.2753803413,0.3817359883,0.3534311645,0.3517807636,-0.3028561377,0.2119843361,0.2199854976,0.0913431094,0.1660662416,0.0484120018,0.312848427,0.1647551055,0.2491125461,0.1926573324,0.2566743765,0.0854451583,0.173088247,0.3044167918,0.0510134286,0.1069075892,0.0720033798,0.0680803105,0.2909240469,0.3839339184,0.0644707392,0.3148438347,0.1042741351,0.0298779838,0.1864878271,0.0498259883,0.3041548312,0.2016349932,0.2411822438,0.1139868057,0.0408304915,0.1009040485,0.2951911309,0.2855725066,0.0098351633,0.1258286371,0.3433145382,-0.363700268,0.0645687861,0.316094373,0.0296153607,0.1260025782,0.1894291833,0.2268111081,0.0415648477,0.279282837,0.0601368764,0.1026452232,0.0597749432,0.0140237155,0.1537914078,0.2724224412,0.3531632814,0.3160896216,0.0729029913,0.3170012524,0.2162077584,0.173448159,0.0316902247,0.1308665159,0.0355418827,0.2824808838,0.1018435791,0.3357358782,0.0983672007,0.0786408568,0.375955842,0.0963892916,0.3461247658,0.0809282445,0.2868138378,0.1178426834,0.362927881,0.0656740272,-0.2193335299,0.192870732,0.1020495868,0.1758778173,0.3389760691,0.1293597186,0.2645676018,0.3299293952,0.22855708,0.3255016508,0.3467239949,0.2012713085,0.2665692782,0.2724506745,0.320784822,0.0297081886,0.2876327546,0.1414550136,0.3628814749,0.1380597673,0.2740652997,0.2230158948,0.0430820531,0.0890653213,0.2359177401,0.2755770461,0.2619752705,0.3259173905,0.1395816136,0.1833518507,0.1885122415,0.1882337441,0.3046511471,0.1532348448,0.2378503587,0.1650627607,0.0256607564,0.0461940045,0.0563563083,0.3299632606,0.1053469872,0.044869873,0.2599217544,0.1206702753,0.1160972935,0.0386884117,0.2546587379,0.3823288077,0.2268622974,0.020496905,0.1952419053,0.0906712565,0.0631928277,0.247684488,0.1023677044,0.0263490879,0.0944213602,0.1982168752,0.057620865,0.1084490752,0.1034763897,0.2874291956,0.2859525075,0.0806620671,0.2098396013,0.1769233774,0.1790358903,0.1300006757,0.3609141168,0.2299034554,0.1303910027,0.059906739,0.2927135378,0.2999579953,0.3654427981,0.0234202965,0.0014997091,0.0118925973,0.2975454365,0.1224573272,0.0827987419,0.1159969332,0.3431271082,0.1990505621,0.3299411898,0.1261931538,0.0776735867,0.128553939,0.3418662102,0.3726969995,0.0678703684,0.3093840908,0.0962655515,0.2161052001,0.2812396063,0.2757031298,0.1372326394,0.2206105125,0.0154815108,0.1458334555,0.1108348046,0.112888217,0.3143334764,0.1094570934,0.1764489251,0.0399619075,0.246105984,0.3555986217,0.1936546943,0.187094058,0.2507177172,-0.3267625575,0.3153591302,0.20877412,0.1341675797,0.3106419053,0.314529224,0.3115146707,0.172582986,0.2465532688,0.0382843698,0.2064133741,0.0282696876,0.2651504798,0.0162607143,0.3251822999,0.0213396113,0.001364591,0.322278662,0.2139426503,0.0304041821,0.2798481212,0.0174650397,0.3254300435,0.190510223,0.3567250656,0.346682051,0.0922015483,0.0579880804,0.1373470263,0.281347862,0.3769696021,0.0835264103,0.1682769209,0.0794040895,0.0346081571,0.0132349947,0.2985930178,-0.0236941664,0.1005994272,0.1104349013,0.1902337698,0.0655576213,0.2994977828,0.1463171194,0.1646116168,0.3827717978,0.2543972033,0.2692514495,0.0752846975,0.3250167667,0.241929472,0.2426786375,0.1004240949,0.3571779154,0.3631940658,0.2035301983,0.3629730097,0.3625458798,0.0682992216,0.2448535663,0.1848601257,0.2485547273,0.1394165553,0.2887025879,0.1390613781,0.0614678295,0.2917506262,0.3567111131,0.0075308423,0.2439362174,0.1101153095,0.2904782799,0.1717699972,0.1640375545,0.0003577742,0.3282923898,0.0483803979,0.3555909426,0.0684075095,0.0015105992,0.0717942047,0.3621757592,0.0478241264,0.0462264431,0.2245128111,0.1493052203,0.2773028992,0.1469324163,0.2527178764,0.1085446903,0.0269334119,0.1571596042,0.2167766969,0.0956286167,0.3553676481,0.0049815277,0.1509180729,0.3657667195,0.2508823702,0.3838295632,0.0729938586,0.0923762492,0.1897580608,0.3230560672,0.181096354,0.3374492894,0.3840517407,0.2797423249,0.0700820857,0.1227600747,0.3299755626,-0.0360591494,0.2455537622,0.0183029437,0.1862439652,0.2762293229,0.0792716046,0.3447569113,0.1893509416,0.0766577402,0.1377396292,0.0831186225,0.292206093,0.1961512428,0.3288545886,0.3341452838,0.2441764372,0.2845940134,0.2884233325,0.0504483504,0.1216462875,0.2714256315,0.1198943115,0.0187590259,0.150677754,0.379905412,0.2350357503,0.0251169103,0.0318556947,0.0913313723,0.0781062608,0.2790762988,0.3287660311,0.032486593,0.0576373979,0.1603009251,0.167029183,0.3246210514,-0.3574203894,0.1224598511,0.2917836087,0.1567180187,0.0264545446,0.2311137311,0.2042075392,0.1184972484,0.2359673094,0.2490692484,0.3004538092,0.0802849573,0.0156676741,0.2555404418,0.0216262036,0.2594240557,0.1643883864,0.0153182021,0.2026863084,0.3117795132,0.3352093973,0.08930498,0.2474527713,0.1451813554,0.0710155953,0.1367948124,0.2901350919,0.1699052413,0.2933158203,0.2895348822,0.1908013034,0.0121548382,0.1224088524,0.2721232673,0.1687657383,0.2136463365,0.2186533293,-0.3243296489,0.0729889181,0.1560419479,0.164341181,0.1409118857,0.2801830385,0.0952425159,0.3425756234,0.0504271065,0.2072743875,0.2416915814,0.171359971,0.1123739562,0.3236624229,0.0280180892,0.1347276225,0.2401305013,0.3562714237,0.34170046,0.3617356653,0.0163234306,0.1863657842,0.1796792486,0.2291183627,0.2622234245,0.2635515895,0.0043761388,0.0571213157,0.0731152877,0.1555823142,0.1646040003,0.2441447259,0.2755334522,0.1232730124,0.2911706858,0.2876978262,0.1703355565,-0.3118906672,0.1291383101,0.2639203346,0.1442355255,0.2370363864,0.2305463534,0.0972692973,0.0237891051,0.114321295,0.3614827267,0.2551212395,0.0521747999,0.3691179471,0.2000689115,0.2856502463,0.1393631812,0.1981437723,0.3377452246,0.3330540994,0.1654430287,0.1848860573,0.3832091329,0.0774528364,0.0947905673,0.077069096,0.1542685399,0.228223307,0.1819796992,0.3128215644,0.0175401146,0.2604697761,0.0764144859,0.2452523384,0.0158674392,0.2846650132,0.0923337929,0.1730082257,-0.3843898591,0.030074477,0.0543738933,0.3032248197,0.1476464031,0.2057189596,0.0781682792,0.0724966431,0.2206732683,0.1121045862,0.0074138663,0.1082305029,0.1005140946,0.0141115705,0.2902054689,0.0216354148,0.0921998111,0.3713799115,0.046096512,0.0245755574,0.0122110286,0.0244590503,0.1795087581,0.247875629,0.1393408452,0.0129645096,0.1568442645,0.2512396525,0.2700696542,0.2179990699,0.2594041827,0.3264989889,0.0649029726,0.0379342318,0.1629042646,0.077654163,0.0017178726,-0.104779119,0.3417051041,0.1574622433,0.2382786606,0.3349384923,0.2071036962,0.3453768058,0.3530962174,0.1283339923,0.0367325762,0.2902460674,0.3617509097,0.1941766062,0.2168793717,0.0651251418,0.360513796,0.3860191461,0.0261512792,0.3605445216,0.0081305614,0.2553097383,0.015472986,0.3683411301,0.1126803045,0.1867823393,0.3849625104,0.3240827627,0.2425252055,0.1149835128,0.2870888542,0.3359333811,0.368460878,0.0724919311,0.0919063986,0.3392103497,0.2020252811,0.2835086688,0.1777411509,0.0189744756,0.3185132494,0.1458811676,0.0231389695,0.2947847276,0.0773003423,0.1924779257,0.2982201243,0.0476485458,0.3238342702,0.3511441752,0.1723663785,0.076932682,0.292826348,0.3604284481,0.124948568,0.1354486133,0.2530568184,0.1688947186,0.1874098652,0.2121828092,0.3697536148,0.2241821007,0.377316984,0.0475723045,0.0573782352,0.1538287071,0.3731996315,0.2917839424,0.2759140615,0.3254108997,0.3055755487,0.0985751795,0.0000691916,0.0746668642,0.0199771201,-0.3055290835,0.1752857365,0.1659136914,0.2413027652,0.282873693,0.3843361752,0.1617833484,0.1081468295,0.3535502314,0.022391854,0.2270056382,0.3801039905,0.3450973439,0.3320918635,0.027950662,0.0651572899,0.1055612393,0.1558924902,0.0489443547,0.1391877529,0.0880279778,0.3110551241,0.0202932338,0.0912089922,0.2915609708,0.2597815771,0.2833564114,0.3361488577,0.0895204577,0.0027512853,0.151317935,0.0881904225,0.0115627764,0.370344527,0.0321503368,0.0484798802,0.3788292705,-0.275006181,0.0080922245,0.3018240951,0.0981263982,0.3265593495,0.2980687613,0.3015830187,0.1559243674,0.3453182409,0.0293785203,0.3416559268,0.3211735535,0.371367026,0.006717479,0.0379878313,0.1812853585,0.0398621915,0.3663958346,0.3298481911,0.0163555961,0.2722235721,0.2788724976,0.2043197246,0.241730989,0.2868282779,0.2409144925,0.2609716741,0.0271531563,0.2507974935,0.1124219427,0.0497031211,0.1148806776,0.1417370728,0.0348789237,0.3530275963,0.0650416218,0.119495297,0.1835066351,0.1131226223,0.1265779534,0.2216273579,0.2886972204,0.2192082704,0.0559286435,0.1088246376,0.0298815647,0.0704907992,0.2107215525,0.0844448167,0.0365384978,0.2230649417,0.1596354425,0.3657157752,0.1199085947,0.2887136493,0.3609418685,0.1833972651,0.1103868494,0.3226945935,0.0706447821,0.0829135323,0.3492586353,0.1111509697,0.0245470002,0.0859201808,0.0568314765,0.3490519183,0.2468706498,0.0346683018,0.1257976768,0.362740924,0.2989057114,0.2756444332,0.316865922,-0.1413448315,0.0444404624,0.3539793304,0.3851819627,0.1869971024,0.0738755916,0.1977396643,0.0599893093,0.3012040315,0.2588931618,0.2388077483,0.3386828176,0.1685039181,0.2701784467,0.0601709945,0.1872772562,0.0732101038,0.1971356477,0.1590798201,0.009579795,0.1058051358,0.1339316182,0.021972314,0.1474019209,0.3768376484,0.0810418429,0.2441200944,0.3569728584,0.0878305231,0.3196749449,0.2040091899,0.2158741119,0.3032859415,0.2660583597,0.2759833439,0.2604833105,0.0338631436,0.2606666371,0.0069829501,0.0170923728,0.1100652823,0.1157177507,0.2102652647,0.2202664886,0.3316682722,0.3683050575,0.3662950127,0.0858233808,0.0775075338,0.2466171296,0.2430449642,0.2029033903,0.0928080334,0.3503932804,0.2451232889,0.159887654,0.1320251265,0.3067368546,0.3162687267,0.1285730319,0.1251192717,0.0476579305,0.1201888344,0.0299453663,0.0070870461,0.0787216172,0.2158336435,0.3315154413,0.3462709043,0.3235995019,0.072791742,0.3269288852,0.1982450176,0.1480632673,-0.3431259264,0.1994522144,0.0973999307,0.3441873893,0.3859459367,0.3364497819,0.1826974804,0.0263649926,0.2771107411,0.2839582454,0.2056013526,0.1717063662,0.2201754867,0.1221696232,0.1782487505,0.2593608632,0.3356605014,0.0689272348,0.3050338973,0.2577900977,0.1331965643,0.3586895964,0.3882535727,0.0030544168,0.1123489399,0.3778976519,0.1668598199,0.2397142814,0.3272750048,0.3608404315,0.3186318541,0.2864230139,0.0883220597,0.0834843833,0.2950939719,0.3176790572,0.1953376628,0.3093608131,0.0735270824,0.3669870913,0.021521222,0.1767474222,0.2488457099,0.0454616665,0.174486446,0.3402314979,0.1971691396,0.3098800488,0.17833536,0.0060946348,0.2377636038,0.3360662476,0.0233830068,0.3492852474,0.2212017514,0.1089069149,0.3549708743,0.1025711744,0.3741017262,0.2142707184,0.1623852289,0.1476522223,0.0567266352,0.1319522897,0.2696216313,0.0899056498,0.2160286024,0.1362217657,0.3870492917,0.2384416818,0.3132600396,0.0043334865,0.3440922564,0.0776414812,0.2705352143,0.1074969683,0.0699812689,0.0455843831,0.0536215169,0.1300215023,0.0491409971,0.054247543,0.1963965162,0.3427203016,0.1801762729,0.0569450278,0.2981446118,0.0521368302,0.0155950172,0.0483044608,0.31849496,0.2698417038,0.1685104171,0.2345098727,0.3326190828,0.3765397609,0.2318560851,0.0400171503,0.0982056514,0.3216859458,0.3382585388,0.3233983465,0.3752946942,0.3243169334,0.3357034509,0.2555446252,0.2336641497,0.1822762432,0.2254055823,0.0226832064,0.1812531914,-0.050297747,0.3395360805,0.2439599282,0.1556698088,0.0661430832,0.3071437297,0.1844114766,0.3443709052,0.3733395795,0.2252693324,0.2815202378,0.3802095761,0.0571453314,0.0872203894,0.0916217045,0.3405350188,0.0487411465,0.0485092389,0.2025790357,0.2136371463,0.0079493783,0.0706749839,0.3300250685,0.2664819,0.1092176801,0.3472411314,0.1725501395,0.1431633388,0.2686336872,0.094191929,0.2856217541,0.1237747187,0.0722691662,0.0292990184,0.2495688835,0.092668393,0.1153323665,-0.0665297187,0.3653580494,0.3018075701,0.0107326384,0.2704198348,0.3380711547,0.3525948859,0.1659091273,0.3557128349,0.1087008254,0.0215426369,0.0694559001,0.1425385742,0.2931247061,0.0527048705,0.0233431021,0.2660869359,0.151629483,0.306056535,0.0883580448,0.0758199074,0.0314200198,0.1806057851,0.3460069749,0.2457343214,0.1816518485,0.2796189872,0.0371726298,0.233104013,0.3784846692,0.3845965453,0.0030809572,0.0269125888,0.2629062603,0.1564877271,0.1227828689,0.3871112053,-0.057119715,0.2525112595,0.0381804323,0.2537055283,0.1938533371,0.303580642,0.3037149967,0.2219852729,0.1235155025,0.3236359952,0.2457922635,0.0492299577,0.1995552637,0.2250581494,0.2083043773,0.2427041624,0.0903863003,0.1293063088,0.2777434788,0.1725249894,0.1449430796,0.2490463976,0.1618303124,0.0783326525,0.3278225258,0.3621631808,0.2091564654,0.0572136425,0.3769238964,0.2513834498,0.2420693581,0.3811696984,0.0371139522,0.0628592223,0.2499203493,0.0303202655,0.0227070286,-0.3029475497,0.204168495,0.2541166418,0.3485682861,0.0012573131,0.1613648208,0.3038146614,0.3175574707,0.3042840534,0.1064769524,0.0970917692,0.0750254159,0.2287246329,0.1997713327,0.0772829194,0.0527885684,0.3846580674,0.0128814604,0.0575040009,0.3678586333,0.0663750907,0.0693434341,0.187198095,0.2303531628,0.1431440934,0.3505972728,0.2868383877,0.0757981597,0.3487652819,0.2301681912,0.0217047056,0.1611967475,0.2346106651,0.3282299007,0.3717658727,0.2034211153,0.0737843024,0.2761567044,0.0963737152,0.3464183539,0.2795640654,0.0701247469,0.0647652582,0.240372945,0.286020183,0.2297597333,0.0391122347,0.0086349457,0.3326469101,0.1830466026,0.0416915026,0.2928078412,0.1609437034,0.0327690407,0.0792036583,0.1472385743,0.2739506291,0.3341416392,0.3459216654,0.1363885955,0.252797662,0.3484894709,0.25401912,0.1790877754,0.0975181509,0.06937472,0.1001609828,0.3857661432,0.0091376036,0.2525451662,0.1864355502,0.0090524021,0.2855676135,0.150913781,0.204662246,0.2003601336,0.0495555327,0.2733521666,0.0533172387,0.0573097536,0.0008730189,0.0709625284,0.1090559264,0.021841883,0.0003055418,0.133383035,0.3561558433,0.0214928395,0.2458161126,0.310247772,0.3074189301,0.0743680352,0.2467573842,0.2165781522,0.1434960714,0.3551990315,0.2073945179,0.1450144302,0.0105780475,0.2107774393,0.1427104562,0.3323366195,0.0328091876,0.0575599782,0.3435163153,0.1531721951,0.0350525052,0.1840746364,0.0677646472,0.3157645412,0.1682905311,0.0569186141,0.2357200932,0.0293009178,0.3055756555,0.2971804742,0.0659262057,0.1116781566,0.0446811446,0.1241951621,0.2982941352,0.2767209822,0.3773987641,0.1512516471,0.3210399184,0.1932668598,0.2350324818,0.3733642215,0.2225823724,0.1336491458,0.3647323435,0.299197982,0.2792905173,0.1570596167,0.3330282389,0.022727061,0.3342614025,0.1075001658,0.1291023902,0.0593429234,0.3153428558,0.0338724743,0.3311820812,0.0668177253,0.10139796,0.1153331016,0.1145580852,0.3729204892,0.3829352649
biasActivation=0,1,1
[BASIC:ACTIVATION]
"ActivationTANH"
"ActivationTANH"
"ActivationLinear"
