encog,BasicNetwork,java,3.2.0,1,1362094656599
[BASIC]
[BASIC:PARAMS]
[BASIC:NETWORK]
beginTraining=0
connectionLimit=0
contextTargetOffset=0,0,0
contextTargetSize=0,0,0
endTraining=2
hasContext=f
inputCount=36
layerCounts=1,43,37
layerFeedCounts=1,42,36
layerContextCount=0,0,0
layerIndex=0,1,44
output=0,0,0,0,0,0,0,0,0,0,0,0,0,0,0,0,0,0,0,0,0,0,0,0,0,0,0,0,0,0,0,0,0,0,0,0,0,0,0,0,0,0,0,1,0,0,0,0,0,0,0,0,0,0,0,0,0,0,0,0,0,0,0,0,0,0,0,0,0,0,0,0,0,0,0,0,0,0,0,0,1
outputCount=1
weightIndex=0,43,1597
weights=0.2347738786,0.1344427964,0.2442897835,0.1551048963,0.3463795639,0.3333597017,0.2249010938,0.1008486167,0.2270795796,0.1973441036,0.0697471091,0.3270731747,0.2138401977,0.0428246046,0.2151673314,0.0848110164,0.3050361812,0.0161269153,0.2815459072,0.225645442,0.3331848706,0.2454862428,0.1770311385,0.1298857097,0.2922502823,0.2720021552,0.0328628237,0.0694516751,0.1157680101,0.0182257814,0.1288384877,0.041086482,0.1793369196,0.2440359903,0.1439634662,0.2644515138,0.0142557371,0.2538655159,0.154780857,0.0470307298,0.3182528273,0.1571799031,-0.2084514635,0.1958234078,0.0849708046,0.1926417835,0.0400617688,0.0103346073,0.3466568157,0.3716933943,0.3395548949,0.0713417547,0.1595300485,0.0441138084,0.2306438355,0.1015341296,0.0148399844,0.0549469162,0.1228531405,0.3721532358,0.2029636588,0.228229629,0.1630352533,0.1095062783,0.2161891438,0.0485494962,0.2299162543,0.3110805656,0.0260314565,0.3732831536,0.3045211951,0.2752326878,0.1134954476,0.0906449016,0.104796952,0.3037418202,0.2556152186,0.0920184543,0.1978786799,-0.2514432548,0.3057225364,0.1565197461,0.3363386906,0.0835613165,0.2292208958,0.2008959969,0.1326773459,0.0817656734,0.1091786882,0.3089062154,0.161038436,0.3188252669,0.1265880295,0.0308684268,0.2892940109,0.0383425999,0.3081678464,0.2322525847,0.3811639867,0.3557534381,0.1201208811,0.1744559072,0.0630667772,0.1779238935,0.3224517797,0.0784505333,0.0872884971,0.3403057884,0.2951016783,0.3080983176,0.3730874412,0.1184816557,0.1919821583,0.0773705027,0.1338663211,0.1485494115,0.3827588026,0.0755528695,0.2084476793,0.1548115031,0.0150074643,0.3455481838,0.009699626,0.0778238946,0.3865807504,0.2430058685,0.1178805288,0.009482815,0.0566139983,0.0936870067,0.0811898895,0.1938868971,0.3714019101,0.2687650807,0.2068397629,0.062775621,0.1823299624,0.1902166963,0.3155805549,0.3740889448,0.1031072954,0.1762280299,0.1060185557,0.160936107,0.0865382292,0.3215893914,0.2786851615,0.077364726,0.0140163033,0.349095414,0.3182520587,0.1298686163,0.329348596,-0.1084428007,0.2508743463,0.0752357024,0.0097805966,0.3424171469,0.176611249,0.0057850078,0.0214428513,0.3171925852,0.2958327996,0.3209628535,0.3066477516,0.2298831286,0.168908049,0.0328647524,0.2954024438,0.2227597219,0.038048373,0.2681091905,0.041378949,0.3390058215,0.1726462275,0.1867599298,0.2781731022,0.0624100945,0.0606093107,0.2810073019,0.2198970644,0.3707096418,0.3849083578,0.2447282594,0.3334084014,0.080590968,0.1075801981,0.1586569036,0.1946799936,0.1617901401,0.285279377,0.3553742551,0.2590761812,0.1606285655,0.2444728112,0.2096554768,0.2554995628,0.1745688486,0.3202232408,0.2165925492,0.0256703273,0.0723758913,0.3552285222,0.3172492222,0.1059586905,0.2834341277,0.0641038472,0.1151744787,0.2535625698,0.3472562468,0.0521636946,0.2965019929,0.1801950045,0.1845340475,0.22729012,0.189358438,0.1133940647,0.1662510784,0.0075269308,0.2831503798,0.037560075,0.1924575988,0.0518678909,0.1970554887,0.1377761828,0.0039182438,0.3763036038,-0.0283194631,0.2072046875,0.119938162,0.2985246785,0.2280954039,0.0565085652,0.1720489811,0.2311057477,0.0412906983,0.3613577894,0.2463557739,0.222775045,0.1778680321,0.1143136353,0.0938606517,0.0855985432,0.1280980404,0.3833753844,0.3237586941,0.267518285,0.1680186486,0.0603603567,0.1303600465,0.3609830011,0.1294000367,0.1215361705,0.04374299,0.2686493888,0.3140099983,0.191511632,0.1117477691,0.0075916121,0.2898919759,0.31759543,0.2143915959,0.15235955,0.2778961346,0.3698641552,0.0842714065,0.367310349,0.1813562997,0.3069280783,0.1106281527,0.10424699,0.306601896,0.1496160084,0.3375868944,0.0450199404,0.1323741156,0.2212126645,0.1486298512,0.0054747031,0.1169882824,0.0788374045,0.2045118336,0.0474231291,0.3721056745,0.3782981708,0.1057142717,0.3580360611,0.240186689,0.1879782965,0.2699217797,0.1038024143,0.2194080144,0.3482651351,0.2890310093,0.0290084401,0.0508769855,0.3600916368,0.2972733367,0.1851347324,0.1339223906,0.2817656812,0.3834714295,0.2192555037,0.0061813343,0.1176745579,0.0334025715,0.3673015854,0.2238325896,0.1945461887,0.1644462958,0.0850153958,0.1842436008,0.0574070898,0.0537308458,0.0470432329,0.1625320544,0.3766750917,0.2026756183,0.2129433641,0.1232689304,0.0117354438,0.2953755682,0.3344220701,0.1274248307,0.3676928796,0.2827330096,0.3477757834,0.0110768153,0.3577666271,0.2354060349,0.3407091984,0.1414069965,0.2486445334,0.2919964608,0.0014924252,0.265958819,0.1773823303,0.1090550161,0.2913676114,0.3424423899,0.3331900988,0.1654179697,0.1860462037,0.1413320331,0.0480605078,0.3300186316,0.1800945525,0.1442171318,0.0965644763,0.2851915587,0.3375919719,0.3549629665,0.2561234269,0.2549685611,0.1077701346,0.1723084761,0.3845654867,0.3760034993,0.1288938384,0.0855181516,0.0762953632,0.2495168726,0.2894563254,0.0852039757,0.2281904376,0.1250578797,0.0436966524,0.1323239959,0.3638990125,0.2377741704,0.201170338,0.2416710327,0.2660837528,0.1936407748,0.1200064623,0.2323443699,0.1543365623,0.0517629144,0.2145014383,0.129667115,0.0233510308,0.0543083677,0.2492165438,0.1334838517,0.1942111253,0.0047668411,0.0911774859,0.1592690786,0.078172534,0.0570295002,0.0790021899,0.3865665884,0.0216697876,0.2097705314,0.218828949,0.3172495043,0.053544296,0.0813032469,0.159607454,0.3675204187,0.161302317,0.3675511524,0.2868563074,0.1501734717,0.165098797,0.0419767476,0.245841784,0.2924806456,0.1282416096,0.2928896265,0.2939682796,0.3687513125,-0.2739016107,0.2360160064,0.0831823998,0.0060329279,0.1180269861,0.3795662238,0.3336103067,0.2505860534,0.1790418233,0.0028471492,0.3376139262,0.089903809,0.377357428,0.1370024478,0.3600779954,0.258910272,0.3869739001,0.2572124086,0.2610339407,0.2162814492,0.113771792,0.0177383097,0.0703075071,0.3656781906,0.2327517578,0.0188829089,0.0415905017,0.0377601612,0.2291177318,0.2032503371,0.2982837968,0.196126765,0.3882347236,0.0698642134,0.353715828,0.2371377801,0.2802361364,-0.0392466845,0.0385345033,0.2197389176,0.0637290586,0.1746638797,0.2621142114,0.2924922383,0.3585386603,0.1545615317,0.0088013465,0.2032796852,0.338931937,0.0820677665,0.1671218098,0.0939172737,0.0392186373,0.0024737038,0.0732490782,0.1693625673,0.2869895798,0.2571455615,0.2676699749,0.2200303016,0.2381245831,0.1153364543,0.0772820876,0.2703628278,0.3206563229,0.3307379007,0.258539882,0.0506488643,0.3211823634,0.0273475196,0.1518961875,0.3557784406,0.1061829997,0.3400047793,0.0282634721,0.3666508849,0.3814600217,0.1489339749,0.1371926616,0.1082119569,0.2319811766,0.2233905038,0.2872768995,0.1002642582,0.0580317052,0.3682596401,0.2015061887,0.3319280739,0.2196319007,0.1196875302,0.1794414179,0.2936168381,0.1229617054,0.0885639267,0.1701685006,0.2506361606,0.3169720405,0.2350354122,0.3517936866,0.0751440378,0.3461705392,0.066872587,0.2227970817,0.1350196213,0.243264823,0.3036401409,0.1713127524,0.2355822243,0.0586499216,0.3040237548,0.278984913,0.1142904197,0.1905821385,0.3182391156,0.0714103753,0.1838747718,0.1657288805,0.3700736626,0.1488427789,0.2806622211,0.1635943748,0.0321996232,0.2729340207,0.1759462505,0.0230800816,0.1037982977,0.2921671914,0.0651255742,0.0497063848,0.2682979393,0.2662304548,0.2269036935,0.1583626779,0.275247595,0.0207453169,0.096142568,0.1905079915,0.2355858865,0.2085281773,0.0279289429,0.1741260143,0.1793386399,0.1709695242,0.3234149621,0.3811211612,0.2962078025,0.0518837963,0.0149881352,-0.3090983243,0.0977199633,0.2861650815,0.0230758615,0.3688931795,0.3065101271,0.0798476205,0.3389308046,0.3319666303,0.3549528911,0.2479929416,0.1116042069,0.360455758,0.0621175614,0.0271152416,0.019710006,0.141914403,0.05259369,0.085103613,0.3177394946,0.1432429113,0.3195932397,0.2661743598,0.2176955201,0.0961730729,0.2150003889,0.326712704,0.2416996642,0.184135826,0.2463303254,0.0996084071,0.1204500807,0.0623710864,0.2577943734,0.3180469521,0.2261542713,0.0108467471,0.1936548863,0.330838979,0.0559672381,0.3233342015,0.0844922786,0.1658121706,0.0019372083,0.1508991373,0.2510369201,0.2983201019,0.1365947957,0.3007250701,0.0227193302,0.0418591536,0.1578103059,0.0216270946,0.1104195241,0.234739402,0.3080752772,0.3349882166,0.2274929236,0.3775936431,0.3201973989,0.1816564757,0.381056847,0.1069686531,0.0093702911,0.2255083962,0.1112629973,0.3660793297,0.062929763,0.3665611833,0.1211729002,0.1680866335,0.0172190598,0.3690113609,0.0106358011,-0.2662375186,0.1216954554,0.3601354547,0.1553113021,0.0074491033,0.2157416169,0.1708445686,0.0192353739,0.1238014662,0.0317905354,0.3659157738,0.3179231427,0.3593989562,0.3303935348,0.1496046782,0.3322347248,0.228958727,0.05359948,0.3587019609,0.3207199719,0.3795267492,0.2787715552,0.2741442658,0.1676162645,0.2078333409,0.2039217819,0.3226511501,0.1925123983,0.2793069042,0.3824692955,0.3709864913,0.1921313416,0.2177132006,0.1805073018,0.2732564293,0.2202461626,0.2807062305,-0.284905458,0.383120591,0.2750781213,0.0697301114,0.1813172469,0.2224705127,0.0287290406,0.1513579973,0.1103724707,0.2996830185,0.0217648208,0.1484730715,0.3873490343,0.3433077152,0.0282412717,0.1833408888,0.1568094691,0.0613939615,0.3165934814,0.1660638728,0.081271745,0.1341630008,0.0138744397,0.304464656,0.0959218398,0.2319841044,0.3198534873,0.253970609,0.1892345148,0.1396624127,0.2813970059,0.3207069893,0.0105396165,0.0517083107,0.3793541022,0.0621947319,0.316651643,0.0678836041,0.2376371342,0.1143087899,0.1846364333,0.069997038,0.0590448774,0.1749613385,0.0838508801,0.1319186879,0.0643269791,0.2722751542,0.1908594229,0.3431101923,0.3867315931,0.1535266965,0.2977453284,0.2327766328,0.2192532454,0.2224758448,0.1809945563,0.0348223746,0.1054745824,0.0391299061,0.3693455587,0.0055323962,0.2565934705,0.3706166333,0.0611370586,0.08403102,0.2727172135,0.2091405729,0.1327584044,0.0345983506,0.0985580842,0.0733348632,0.0962471686,0.2163709493,-0.0390216085,0.0126133778,0.3398838162,0.1352714858,0.3865692469,0.0762961324,0.3731741171,0.3120021653,0.0244031738,0.3680361342,0.0850132121,0.1320802128,0.1904482603,0.2818155244,0.1429314869,0.3188435624,0.1555006352,0.0714556218,0.3827780591,0.196534538,0.158452665,0.1158589145,0.1015390351,0.3751438798,0.1749431436,0.1226269391,0.3107498906,0.1269562817,0.2617757795,0.3189311579,0.2819387939,0.1843112229,0.0992091737,0.1871384226,0.1820808692,0.1564738669,0.0222040452,0.0049553363,0.3050733625,0.2766220366,0.2230948487,0.143136243,0.2950911988,0.1479610618,0.2779874839,0.2516150393,0.2928663156,0.1236661665,0.224337064,0.3437517911,0.2120418216,0.3444421223,0.2039653983,0.2892328042,0.0663337579,0.2055055656,0.2212849746,0.1477861878,0.1217763955,0.3395966828,0.0956128166,0.1300539122,0.173507067,0.0842140532,0.3633145636,0.1926572994,0.1136118233,0.0193246855,0.3325688982,0.1431151966,0.2347906227,0.166213644,0.2902562337,0.0021800163,-0.3190180673,0.1097344575,0.2362050556,0.3229997152,0.2860399359,0.1778044665,0.2824705392,0.0919581089,0.3608110259,0.063989998,0.2445717587,0.1018915314,0.0245460889,0.2889903809,0.1959016851,0.359104371,0.1757837564,0.0482398353,0.0529633053,0.2771623838,0.2791903233,0.0456025747,0.1393490235,0.2302944785,0.0335607192,0.2937068417,0.2205042974,0.1516921118,0.2509331605,0.0740936454,0.3473080709,0.3148546623,0.2816833483,0.1098048068,0.0851430332,0.1660401466,0.0868422411,0.1640744833,0.1285563498,0.3588622352,0.210129959,0.1150958841,0.069893232,0.2074808328,0.198217888,0.2584708421,0.1389433888,0.042066762,0.2195496076,0.0795118706,0.2519798432,0.1862472014,0.0909128048,0.0567289404,0.2868687525,0.325799921,0.3597111793,0.0117181591,0.3655411221,0.2473955482,0.3495989194,0.1215218442,0.0438045824,0.0507798524,0.0933327038,0.1855241839,0.2929424105,0.0252357806,0.2543432114,0.3638581276,0.2634542422,0.0539231456,0.3546105508,0.1675277419,0.3316738232,0.327263977,0.3014776396,0.1313920473,0.2741258234,0.3782113131,0.1381275232,0.1115885021,0.3187092206,0.2477261233,0.35981152,0.2895412673,0.0259386605,0.3208277142,0.1420698,0.3052533606,0.1786154382,0.2811492314,0.2102744214,0.0303525981,0.0867118988,0.2896814272,0.0711996567,0.0981237559,0.1138477088,0.358904054,0.3834374995,0.0715229727,0.1432942172,0.2642968335,0.376200333,0.1572709742,0.0376871178,0.0786546795,0.1415585988,0.3192513719,0.2567940203,0.0053678717,0.2767804218,0.0548304664,0.1033846555,0.3394939585,0.0327499013,0.3568479058,0.2865289979,0.3495795113,0.3212568705,0.3748215664,0.2899425036,0.2565502586,0.2336813667,0.3459267133,0.3721326458,0.062800607,0.3592743429,0.3735939305,0.2944951872,0.0224749277,0.3611052007,0.024082296,0.0242421218,0.1205137494,0.2096502859,0.1868011675,0.0482944711,0.2891149544,0.3168899757,0.1809837999,0.0722264654,0.2249008544,0.3068194616,0.3646163861,0.1054993191,0.0002129892,0.0877109393,0.2197221891,0.1657311519,0.2476452885,0.0947162582,0.1563985689,0.0861694285,0.139135866,0.3469448534,0.2624094393,0.1555627856,0.057213638,0.188135787,0.3343023381,0.052895865,0.3732365188,0.1665779966,0.0478432011,0.1862950769,0.1367748376,0.0518880633,0.1341378188,0.0902783174,0.1359151957,0.2942179344,0.1680469608,0.2544284457,0.2155600671,0.1299752186,0.1214972403,0.0544932811,0.2528438859,0.0485251003,0.0271044934,0.0830083654,0.2227927709,0.3692520728,0.1620243546,0.0041031768,0.1510150971,0.0707102656,0.2047039202,0.2606808707,0.2045543825,0.3810271653,0.1106036276,0.3671615461,0.1531487573,0.1568702246,0.3073292134,0.2541499173,0.2122342298,0.3684642931,0.1355548981,0.2201589871,0.207345473,0.0774264149,0.1836604857,0.2605390408,0.1034101363,0.1032581508,0.2562182597,0.3055566727,0.0891632561,0.3273848761,0.0524773384,0.3730168575,0.0696622442,0.3213845501,0.319430083,0.0385929205,0.3859896129,0.2365005886,0.2362269868,0.3463260759,0.0848530931,0.1326258242,0.0314790706,0.3720500161,0.1760268274,0.2845072588,0.125616187,0.168312017,0.0591062668,0.0556123995,0.0004886464,0.0223532964,0.2249134332,0.0319715643,0.3688695214,0.0486460566,0.2510380605,0.1960163564,0.2708519154,0.2261707608,0.0406080259,0.2592463694,0.3393214968,0.3637918108,0.0347018971,0.2674488203,0.1006793296,0.2889446622,0.1334556363,0.1416441959,0.1169254272,0.1000066891,0.2040318191,0.0975562587,0.1122491057,0.0652532685,0.2865398547,0.1889105933,0.0080761597,0.0884015778,0.1161372418,0.1354676723,0.2766859241,0.369001315,0.3572421408,0.0298054179,0.0442218259,0.199506396,0.0981755477,0.020650057,0.1047981976,0.174348862,0.0218145586,0.0225581613,0.0553532505,0.2700494685,0.2250085961,0.3595561503,0.1355316,0.0492413514,0.0174220183,0.2373618701,0.2349489654,0.2738428498,0.2621378048,0.1398898778,0.0276508043,0.0044236671,0.2674309294,0.1614396728,0.2685673669,0.0052409032,0.2293989782,0.303628339,0.3060904978,0.2290716547,0.3012895953,0.2445400192,0.2431448074,0.1938801096,0.3613876053,0.125274697,0.1563985229,0.0793234031,0.3775658257,0.2871192672,0.0501696192,0.0772271704,0.1142416653,0.1552117884,0.066025746,0.1020709216,0.3496824535,0.254424285,0.3056449974,0.1447511729,0.2366930017,0.2860526943,0.3468638529,0.3246892984,0.3407982334,0.2660472978,0.1409890584,0.2265984208,0.3716146566,0.2129879172,0.2607210193,0.1755017157,0.0138086929,0.1022251094,-0.0466644895,0.2815641582,0.2830398248,0.2771220239,0.2367469929,0.0607652492,0.3087683749,0.2183953954,0.0738802589,0.0757638683,0.0870689495,0.2254652327,0.0595953265,0.0615330386,0.3566444612,0.1439255945,0.1090855717,0.25314988,0.00994903,0.2216384868,0.3709826654,0.2415342394,0.2368109987,0.3335917552,0.0942442463,0.0185463652,0.2936820403,0.1288171894,0.1692870251,0.1650326765,0.1515883076,0.0472419591,0.114524855,0.3411643119,0.025132947,0.172765321,0.1737421149,-0.1288410901,0.278421007,0.2384107151,0.3640230121,0.327578012,0.3626427915,0.3655065354,0.2725129292,0.0845292993,0.2212744695,0.3385461919,0.3246674786,0.1374812537,0.2580907516,0.0501705444,0.338772078,0.3687948354,0.1862378122,0.0532219184,0.3613567836,0.226810072,0.0498533975,0.1895017886,0.2057534943,0.1331606432,0.2790161301,0.2989351295,0.0196721654,0.0018154754,0.0538753838,0.2454176744,0.1249195729,0.2543754498,0.2434458499,0.2242100489,0.223217387,0.2296183464,0.3486927324,0.2320868595,0.0221156225,0.3493752408,0.1157808155,0.1694291417,0.3564501868,0.0576360296,0.3311777815,0.3723526835,0.2348691679,0.0859346544,0.0368181613,0.3257109582,0.3422450155,0.1708122059,0.2316965292,0.2034049658,0.2983946344,0.2978688728,0.279049397,0.0936091403,0.0590734772,0.0268507218,0.2330369051,0.2395519338,0.2107743055,0.0476524193,0.3133436089,0.1331453118,0.1885179116,0.1159471447,0.362639008,0.07801201,0.1624383085,0.2431934274,0.1079535343,-0.3579940117,0.138485575,0.0974076129,0.1130777553,0.1326419016,0.2482254755,0.0501867169,0.3487460175,0.0543604784,0.0450279308,0.0708761319,0.3576693913,0.2990829397,0.2242125044,0.0072654274,0.3080911326,0.1299330061,0.3625270495,0.2999163805,0.1792508041,0.2123448907,0.2451554847,0.2209797127,0.3410461701,0.3369430217,0.0266297862,0.2388531507,0.2988066835,0.0305413926,0.1208338923,0.3644225946,0.1645770543,0.3756466782,0.0957612158,0.1406030446,0.0370131424,0.387272188,0.1378046378,0.1462662305,0.0925995839,0.0222313965,0.0712366282,0.0778754728,0.0778107821,0.2522203662,0.1887205127,0.1789207323,0.0713556299,0.0636234441,0.2086193098,0.2379113416,0.1026810388,0.0790269343,0.3393182084,0.1652654852,0.3874258984,0.1113854143,0.320824417,0.2353295048,0.2642579236,0.2434437478,0.0794606945,0.3511892011,0.2519159145,0.042791555,0.0373410173,0.3325187816,0.0333054803,0.0152219285,0.0098806184,0.2511994157,0.2687220893,0.2654859399,0.1449313656,-0.0627985881,0.0872121687,0.0745144293,0.3379241913,0.0118999409,0.1367662329,0.3704116643,0.0727369272,0.0775830737,0.1915947487,0.0318884147,0.0498807164,0.1679105531,0.1180023588,0.1059832776,0.2720092043,0.2437920511,0.1021843212,0.3695420608,0.1475078923,0.3013787588,0.1449815023,0.1025854366,0.0880382132,0.0853219678,0.1273599849,0.068675455,0.0416950203,0.3196415248,0.2461299373,0.2618457163,0.0686427791,0.1858362625,0.0302274621,0.3113399415,0.3673750333,0.0085382904,-0.0352112984,0.0348724716,0.27752509,0.3177372625,0.0940077643,0.2797752278,0.3418976519,0.3817872191,0.2381812573,0.2512192752,0.256372666,0.1764112541,0.1174443329,0.2952070762,0.0187858034,0.3483207936,0.1104556089,0.0447399849,0.1639938132,0.2868396641,0.3581394399,0.0664283116,0.0244438604,0.177976019,0.0228719598,0.3809983312,0.3880942098,0.2447087804,0.3846744627,0.106736289,0.0048809391,0.0454950361,0.0139031499,0.1607045173,0.128710523,0.0936447558,0.0495706073,0.0908902889,0.2129200741,0.2795830978,0.1426477529,0.0926154398,0.2088920813,0.2533927485,0.291258125,0.1953400393,0.2795565985,0.3335467891,0.1335193577,0.1162251982,0.3219117726,0.1703347717,0.0171273068,0.20874348,0.1823745747,0.1920703606,0.2537103651,0.3257420779,0.047661976,0.2300242713,0.1718987712,0.0249697353,0.3668735142,0.2599234538,0.2094050394,0.3005378022,0.2543325468,0.3080240176,0.1770680541,0.1421030372,0.0150902706,0.1466771103,0.3213350823,0.3867492891,-0.1721445988,0.0811632873,0.3695591848,0.2971365159,0.3188111709,0.3532047736,0.0183389455,0.029364684,0.040491526,0.1057331298,0.0906987605,0.1946538093,0.2971487638,0.0906455079,0.0451234434,0.3882466268,0.3555786468,0.0481683258,0.1999967739,0.3096662263,0.3640538087,0.0912545093,0.1224080362,0.3189005141,0.3815445664,0.2581346301,0.2472835496,0.0480791775,0.214807106,0.3413373578,0.202963765,0.1348404359,0.1815637889,0.1573809865,0.0484187924,0.3526313483,0.2185376457,-0.2975452128,0.3622079745,0.0967551944,0.3169765831,0.2167128412,0.36347847,0.0777967476,0.0692114804,0.2154695445,0.2834674338,0.0853435916,0.1154961451,0.023716731,0.1914416986,0.0166009819,0.1933649037,0.1380965505,0.1716785199,0.0225074895,0.316823555,0.184321956,0.3295203921,0.2140691838,0.2494642468,0.2636999994,0.3668643403,0.3143719929,0.2078787838,0.3666834697,0.0331273265,0.3731921295,0.0230198018,0.2871123374,0.1321360521,0.1335078273,0.0363979722,0.2597422916,0.085050876,0.0544463446,0.3528172236,0.1505812111,0.0709577009,0.3855169597,0.1741268067,0.2203039321,0.2789932259,0.1264796591,0.2675349125,0.2292892351,0.30014668,0.0524973271,0.2466687238,0.032715918,0.3703201436,0.0333925533,0.1993045934,0.1398642256,0.1923706327,0.3302393511,0.3792441495,0.1266765382,0.0880134929,0.2962100815,0.2700840521,0.1776567193,0.1628882927,0.0097297823,0.2037281888,0.37677484,0.0687032634,0.3486183929,0.2169183193,0.1666294982,0.2479765009,-0.1614953561,0.3001199502,0.246856241,0.2689288166,0.1538307921,0.2416929279,0.3100736035,0.0268557161,0.1556992983,0.3587894309,0.2564622527,0.2575460226,0.1680139506,0.2265963261,0.1850171161,0.2647884226,0.3873500385,0.0956767523,0.1841632626,0.2896714555,0.1371557732,0.2896681649,0.2743953007,0.1511360687,0.3000789589,0.1189786876,0.0035570965,0.1908205525,0.0293727419,0.3157962504,0.0442430887,0.023200105,0.0117289189,0.0429300857,0.325773696,0.1662236515,0.2890572887,0.0288847953
biasActivation=0,1,1
[BASIC:ACTIVATION]
"ActivationTANH"
"ActivationTANH"
"ActivationLinear"
