encog,BasicNetwork,java,3.2.0,1,1363306796339
[BASIC]
[BASIC:PARAMS]
[BASIC:NETWORK]
beginTraining=0
connectionLimit=0
contextTargetOffset=0,0,0,0
contextTargetSize=0,0,0,0
endTraining=3
hasContext=f
inputCount=11
layerCounts=1,11,21,12
layerFeedCounts=1,10,20,11
layerContextCount=0,0,0,0
layerIndex=0,1,12,33
output=0,0,0,0,0,0,0,0,0,0,0,1,0,0,0,0,0,0,0,0,0,0,0,0,0,0,0,0,0,0,0,0,1,0,0,0,0,0,0,0,0,0,0,0,1
outputCount=1
weightIndex=0,11,221,461
weights=0.1075514052,0.3136563278,0.1147879915,0.1634061487,0.0025178227,0.2104986113,0.1675332697,0.2084685103,0.1044176758,0.2976697385,0.1420952819,0.0352577018,0.3425218936,0.3191026406,0.0885968407,0.2789626281,0.3257843578,0.1490661622,0.1653428052,0.3794489507,0.3319338534,0.3393622884,0.2588811705,0.3000244604,0.3866593293,0.2595007093,0.2488589786,0.2991142159,0.1628679492,0.1774886702,0.06543414,-0.1633836539,0.0600979929,0.0196376618,0.0577994593,0.2670027492,0.3214425623,0.1246097761,0.3372155719,0.0465539941,0.3504700693,0.1229437966,0.1420058217,0.2104399263,0.298970756,0.3174516685,0.1499771127,0.0729150383,0.3391400056,0.3281556711,0.281937599,0.0108934129,0.266725582,0.3903704307,0.2054969861,0.1276750518,0.0781457724,0.3219446738,0.3728524573,0.390709012,0.3519400847,0.2543297291,0.211710715,0.1807376481,0.1604697962,0.015748294,0.1765276886,0.2123972477,0.3247084447,0.0162818672,0.0215727634,0.2912143863,0.0915053894,0.0708255273,0.2860238016,0.0587544585,0.2531877106,0.292237875,0.2492284667,0.014380701,0.040737301,0.1488773605,0.0711576819,0.0687172174,0.124663597,0.3384247824,0.1437841944,0.3242396825,0.0477572967,0.2424604497,0.2517231609,0.1300546596,0.068373816,0.1626464525,-0.2161893443,0.1009221357,0.2798672891,0.1253610981,0.1718829218,0.0251057627,0.358669307,0.3095346132,0.3606180792,0.1437698638,0.1461022475,0.2659163632,0.3680679716,0.3655968147,0.1955938518,0.1802694108,0.2916158479,0.2796741061,0.0612787594,0.3738595693,0.3074553964,-0.3445153404,0.2836954175,0.1652965333,0.0300259207,0.3676304007,0.3268964089,0.0008614329,0.1221815434,0.1916253283,0.1906267607,0.0074315065,0.3269658021,0.3903900692,0.3334381771,0.3546886049,0.3397791754,0.2890873026,0.0224730591,0.0483507505,0.1101770077,0.0274486829,-0.1015727475,0.2843413313,0.3845133758,0.2449766512,0.3426624902,0.3284518227,0.1898839885,0.165320783,0.0660250712,0.3051512331,0.2568258395,0.3242183657,0.2500892619,0.0696649331,0.2092823232,0.2596849355,0.3520829581,0.3561315621,0.0786122165,0.1278765249,0.3062649901,0.0246398116,0.07014035,0.0922984804,0.2144960093,0.249729981,0.1443631758,0.1856543161,0.2131131551,0.0400944913,0.2757974746,0.0336191558,0.334627652,0.0911169277,0.2893115885,0.0299753391,0.0911080641,0.2669638828,0.05179009,0.303550647,0.2738481146,0.0058513537,-0.0547586666,0.3618677354,0.1682038636,0.2466034121,0.0566416449,0.2136122847,0.1158448886,0.1837681314,0.2974228825,0.1306716369,0.0714790123,0.1251230244,0.0998589539,0.0428354046,0.184542101,0.3815758456,0.0377332922,0.2612095217,0.1897176676,0.3278472246,0.0541439693,0.0729942176,0.1768192088,0.0883623907,0.2674279641,0.3343156583,0.2119034156,0.3295551952,0.0731066585,0.2634905235,0.3255153591,0.263676192,0.323851999,0.150717272,0.2551450979,0.3725358539,0.2510058856,0.0469083909,0.2376661448,0.1946045394,0.1814504421,0.1419398213,-0.2906464297,0.1142108151,0.0932122921,0.4223846209,0.1047692495,0.0475262038,0.3893471265,0.1768294463,0.037789225,0.2820632882,0.1505299403,0.0022360892,-0.2348710159,0.1586812621,0.2571200571,0.0927778798,0.3418641535,0.187610278,0.3518133416,0.127464405,0.2170692901,0.1376816932,0.0429040538,0.3791245869,-0.2107658607,0.371908548,0.3884199241,0.4269374042,0.3532743055,0.3166808554,0.2374003031,0.4110133012,0.1238337023,0.2347843703,0.3372258513,0.1710451949,0.1254057628,0.4130049191,0.162101627,0.1815974831,0.1561171817,0.0506951674,0.2001640018,0.0075236164,0.039459664,0.3513582927,0.2561147873,0.4405206343,0.1141186576,0.1668888372,0.4185627356,0.4240531316,0.1756648514,0.0643858429,0.4486611671,0.4504697268,0.4560516709,0.3153593777,0.046622069,0.3574157531,0.2570002267,0.341413066,0.0907033308,0.055959063,0.3429351275,0.2467427537,0.4127267162,0.4030059112,0.3345855375,0.0166555954,0.4384216723,0.0056743697,-0.0800323527,0.2518187682,0.1532407995,0.027856636,0.3881447533,0.0686041919,0.2262448779,0.0993336517,0.3619783193,0.2511752542,0.2471755877,0.3641777916,-0.0452491356,0.0413076054,0.2579023189,0.359647561,0.422163755,0.384533419,0.1109807902,0.3781031494,0.3087002344,0.3464081828,0.4300010768,0.4345030388,0.4570503552,0.1718258033,0.3947019252,0.0586690653,0.2379393619,0.2224854327,0.2912017173,0.3619269413,0.4272291494,0.3264290632,0.2023940139,0.0301862633,0.2236268229,0.0851683454,0.1085551834,0.4305407168,0.3168365152,0.3863716742,0.0122011836,0.4333356841,0.1442748809,0.1125976343,0.4465763805,0.2809142156,-0.0092055298,0.1501900871,0.0870185671,0.1969644941,0.287199293,0.3529885899,0.2177658501,0.2654851096,0.1822287884,0.1512795447,0.3661904992,0.2352551748,0.019930287,0.4029540153,0.1716012867,0.3870579206,0.0469780566,0.1959669266,0.131046418,0.4329905843,0.1716764433,0.0370664178,0.0618958481,0.0633297016,-0.1124942833,0.1605978689,0.4475797118,0.1576662905,0.0023276855,0.4457835805,0.3658164494,0.2415347036,0.2322170095,0.0048397208,0.096308559,0.2034966981,0.2095531487,0.3390158425,0.2411692355,0.3109633088,0.2207119712,0.2093437313,0.1709998433,0.0511995641,0.3220409759,0.1295191221,0.0676580392,0.2988938001,0.0570792614,0.2843098399,0.0139716349,0.0674199257,0.4229695199,0.4110681228,0.0289420861,0.1083504164,0.0755293003,0.0038079712,0.3589972083,0.0000906646,0.2204311859,0.3628317219,0.0940502484,0.0791478277,0.4270771051,0.3230568748,0.2557975357,0.4064418841,0.3550114682,0.4475782907,0.4377402652,0.3751524881,-0.3242135757,0.1316295657,0.2004353506,0.4379823563,0.3408467747,0.0993888911,0.0755978841,0.0325108553,0.433370648,0.2759689164,0.1136235727,0.2276300611,-0.2493221205,0.0534618118,0.3362268526,0.2949757935,0.1028289729,0.2044907001,0.2254283162,0.1544116356,0.0912161454,0.2434669354,0.1466327315,0.4331441267,0.0404227852,0.2771224071,0.1720191126,0.4055135361,0.26894957,0.391446127,0.0932819049,0.0947442571,0.1871766828,0.3775106022,0.4566748614,0.2343057378,-0.2587929435,0.4197961815,0.1669128559,0.2890582709,0.1265339404,0.2869829908,0.4317948124,0.1043400681,0.3729371268,0.2275682978,0.1112572394,0.2786283036,0.201026405
biasActivation=0,1,1,1
[BASIC:ACTIVATION]
"ActivationTANH"
"ActivationTANH"
"ActivationTANH"
"ActivationLinear"
