encog,BasicNetwork,java,3.2.0,1,1363536066364
[BASIC]
[BASIC:PARAMS]
[BASIC:NETWORK]
beginTraining=0
connectionLimit=0
contextTargetOffset=0,0,0,0
contextTargetSize=0,0,0,0
endTraining=3
hasContext=f
inputCount=11
layerCounts=1,11,21,12
layerFeedCounts=1,10,20,11
layerContextCount=0,0,0,0
layerIndex=0,1,12,33
output=0,0,0,0,0,0,0,0,0,0,0,1,0,0,0,0,0,0,0,0,0,0,0,0,0,0,0,0,0,0,0,0,1,0,0,0,0,0,0,0,0,0,0,0,1
outputCount=1
weightIndex=0,11,221,461
weights=0.0661826966,0.341141232,0.0087343572,0.0424455137,0.0449843542,0.189157914,0.3229396638,0.1887240854,0.1612499613,0.0101013209,-0.0127512682,0.3156479982,0.1810006653,0.2080533622,0.2916145912,0.0601900046,0.1702386401,0.0305656299,0.2420163098,0.3817239867,0.2745344432,0.1389656199,0.1255887934,0.1913141353,0.0925658624,0.1355647845,0.2418617666,0.3749987488,0.2340909303,0.3469692147,0.3045741246,0.2452207592,0.2152553414,0.1512877044,0.313869556,0.1313751388,0.3390894958,0.0163640596,0.2106147127,0.1411993004,0.3735091297,0.040351048,0.3370735558,0.1198146132,0.0563697759,0.3866817207,0.2615188352,0.1362221018,0.3276061277,0.2160022963,0.3602921424,0.1384234241,0.2518394747,0.0231424058,0.0217654395,0.0872538162,0.1193649997,0.3805992082,0.0694945763,0.2653652088,0.286967052,0.3836001869,0.0176842459,0.3410702973,0.0712067303,0.1690673164,0.2237093556,0.2372458699,0.2174742458,0.2073759403,0.2756319151,0.1278854455,0.3434464113,-0.1268069744,0.3054041845,0.2018033592,0.3634472576,0.1545581466,0.0885502753,0.2351123728,0.0636203584,0.2705314105,0.0814640174,0.3920208926,0.118663058,0.3445889788,0.0801114758,0.1730952449,0.0668957426,0.1729565417,0.3024630531,0.1159040935,0.3395270315,0.2451688487,0.006998864,0.09380215,0.0327671378,0.0614564798,0.2223424371,0.0886972874,0.1947300163,0.2503212133,0.1352267575,0.1498551091,0.1440373889,0.154722304,0.321855862,0.0585905581,0.1026463349,0.0648651157,0.0170983813,0.2898181233,0.2131724767,0.0429031424,0.2601188716,0.1521105882,0.2162929703,0.1065003153,0.3148673897,0.0494822793,0.3150779282,0.3258449312,0.2412709589,0.0816645979,0.1148112288,0.0609863871,0.3345589098,0.3533028345,0.3875106271,0.3743355826,0.3367103703,0.1474161024,0.3534250506,0.2125608224,0.07264343,0.0133641315,0.1449275954,0.2418289206,0.2556671427,0.069269452,0.338703238,0.2741372355,0.390833329,0.1321613732,0.3041549772,0.3221570977,0.1915243725,0.1071373533,0.0534427802,0.3576627036,0.2973778194,0.2606799343,0.316596025,0.3010474914,0.3278225488,0.2458506485,0.2943538339,0.1784565028,0.3563667258,0.1071205868,0.0962622105,0.2255553832,0.220416626,0.2618342263,0.1109681226,0.1884821486,0.1385813703,0.2690599742,0.3436644438,0.3303977208,0.1558448431,0.2007296413,0.0500307214,0.0394896368,0.1098758062,0.2724892853,0.1133309376,0.2854139079,-0.0254108742,0.3839090505,0.2724886123,0.3762213554,0.3867507888,0.1534804289,0.1773124652,0.1973823117,0.2467022435,0.1600015065,0.38015698,0.3426420146,0.275447237,0.1352114745,0.3615877287,0.299707273,0.0284955724,0.2136197104,0.0331914279,0.0667130453,0.2528233693,-0.3764356021,0.1959535456,0.288732625,0.3650642257,0.3823388983,0.3230838431,0.0629681438,0.2913274426,0.0285658614,0.1422605139,0.1490272396,0.0326256428,0.346707921,0.0734795267,0.2349279717,0.309748277,0.1540569991,0.37132541,0.0883937428,0.266282455,0.0531748511,-0.1527541508,0.0629424391,0.2200491857,0.0837052392,0.0159437294,0.1271140791,0.2558369482,0.433874223,0.2793726043,0.1361444124,0.2940374476,0.0831177535,-0.0324688664,0.3209976364,0.1422325146,0.4191280213,0.1030108321,0.0541086543,0.0947755921,0.0514307574,0.4467299697,0.2084869363,0.3124724257,0.0736336662,-0.0408840332,0.2680595698,0.3829843953,0.1401879912,0.0173525036,0.3671602041,0.3319332546,0.3468269367,0.150609986,0.2022684507,0.3267920292,0.1040425034,-0.295748756,0.2483970621,0.229548123,0.2404544572,0.0959174181,0.3189876091,0.0612246448,0.4526336848,0.1060493865,0.3496996586,0.179891721,0.2132802586,0.3467106833,0.219471406,0.1394027454,0.3750163188,0.0467302469,0.2373016699,0.0865595545,0.3486611126,0.028424655,0.0209708024,0.2468518691,0.1648120626,0.4199496011,0.1759580507,0.1170107406,0.1514833166,0.3685351993,0.4158829483,0.1247875878,0.3640580798,0.1195459119,0.4508582307,0.1370050207,0.0624239467,-0.2488274315,0.1510573321,0.2483889285,0.0689677139,0.3862134343,0.3940389338,0.2437064569,0.2967763187,0.2991441268,0.3500613135,0.3805262579,0.1726377239,-0.0389463751,0.161685693,0.11580392,0.0829513278,0.1876794561,0.399785337,0.2105972745,0.4308572672,0.1209217634,0.1514982287,0.0690629517,0.0310953415,-0.3661180716,0.1091461247,0.4287177758,0.0323245163,0.1482666592,0.4171666299,0.3867555307,0.3668059669,0.1011471731,0.4440304232,0.4025972266,0.439995161,0.27158745,0.2540892089,0.2049177794,0.2879737919,0.345836381,0.3126871319,0.2283534695,0.1939498983,0.377188475,0.0835983638,0.1046442616,0.1411777635,-0.4050007959,0.3179448541,0.3354479077,0.4334240209,0.3751320218,0.0653080947,0.270361462,0.4164092016,0.368929652,0.1507710994,0.2129171622,0.0286943482,-0.4044391912,0.0924372548,0.4343148705,0.4054554526,0.2714066309,0.3117694167,0.2367742841,0.2293700134,0.0000597131,0.425116335,0.1298520408,0.4032872755,0.3591929557,0.1200863627,0.1234320223,0.2473698675,0.3959042307,0.0337693178,0.1887805561,0.41721192,0.0782484806,0.1687369945,0.0570470766,0.2344227174,0.3175149588,0.4094637235,0.099111633,0.4120393367,0.0319140572,0.0369174753,0.0836641367,0.1955743325,0.3097101351,0.19450574,0.2007919513,0.3409790467,0.0012943066,0.1076555419,0.373348396,0.0392840695,0.1707218805,0.108988025,0.3485858706,0.1651208619,0.4324150854,0.3693934547,0.0112113679,0.1052869402,-0.3491949051,0.0798570192,0.1134388648,0.1792431048,0.2559771088,0.2244600759,0.3652289874,0.2476031586,0.1151743169,0.0058835826,0.1938081289,0.2383369006,0.3689737993,0.2253501479,0.3516262441,0.2605808322,0.3266334494,0.0817252146,0.2277221439,0.2706160382,0.1349667763,0.340759985,0.4454192428,0.4146960588,-0.4528178731,0.3956489334,0.2598173522,0.4416204443,0.0081509326,0.0381302655,0.2293013808,0.0646019543,0.1215993788,0.08993615,0.3647718668,0.3680340493,0.4479181292,0.0696008121,0.1243863932,0.2193515454,0.4362524966,0.1643714075,0.3964285963,0.1116577551,0.395058696,0.4484362176,0.1383184953,0.4545241185,-0.1796761413,0.3312670594,0.108544805,0.2841322683,0.1186202726,0.2473440511,0.0701842201,0.4220125502,0.2414764766,0.2065043463,0.007995706,0.0865800964,-0.3990996806
biasActivation=0,1,1,1
[BASIC:ACTIVATION]
"ActivationTANH"
"ActivationTANH"
"ActivationTANH"
"ActivationLinear"
