encog,BasicNetwork,java,3.2.0,1,1362019050814
[BASIC]
[BASIC:PARAMS]
[BASIC:NETWORK]
beginTraining=0
connectionLimit=0
contextTargetOffset=0,0,0
contextTargetSize=0,0,0
endTraining=2
hasContext=f
inputCount=36
layerCounts=1,43,37
layerFeedCounts=1,42,36
layerContextCount=0,0,0
layerIndex=0,1,44
output=0,0,0,0,0,0,0,0,0,0,0,0,0,0,0,0,0,0,0,0,0,0,0,0,0,0,0,0,0,0,0,0,0,0,0,0,0,0,0,0,0,0,0,1,0,0,0,0,0,0,0,0,0,0,0,0,0,0,0,0,0,0,0,0,0,0,0,0,0,0,0,0,0,0,0,0,0,0,0,0,1
outputCount=1
weightIndex=0,43,1597
weights=0.1833475874,0.0629994273,0.2203312446,0.1462934298,0.0309248446,0.2456553033,0.2009480264,0.112263789,0.2399296783,0.2203724679,0.19177437,0.2805962759,0.2501045424,0.3344032892,0.0684808041,0.2939936502,0.2849779209,0.210480296,0.0541047279,0.058906076,0.055346869,0.1933546096,0.0344456989,0.2394243386,0.2753876813,0.0502904228,0.2166665697,0.1451004137,0.1951162596,0.2436295057,0.2041338463,0.0960190656,0.0567772639,0.1235684659,0.0386064251,0.2714421424,0.0225360856,0.1427588141,0.299895743,0.0197828663,0.0465798765,0.2212437278,-0.0599984317,0.0161243746,0.0013976236,0.0771132855,0.236756831,0.0561809658,0.2626683727,0.3150657133,0.1487411269,0.1883970854,0.0300721589,0.1987354101,0.01895493,0.0519060846,0.2504123787,0.1604002917,0.0943060014,0.0516074884,0.1697057265,0.1201149649,0.085384597,0.1983919207,0.1268566637,0.1750473496,0.0890943137,0.1347865231,0.0789537359,0.2948871976,0.0668429304,0.0303559577,0.2524073999,0.2064151055,0.2092888143,0.2266227023,0.0308606052,0.1623015823,0.0657950571,-0.1060858129,0.043023872,0.2894233176,0.2628420384,0.1639493001,0.0189611647,0.019443594,0.1885502556,0.3168339273,0.2666575359,0.0118085219,0.1156907317,0.1961297653,0.1147369034,0.385698612,0.1824976925,0.3507507677,0.2274579169,0.1047370601,0.0813190414,0.1017379068,0.245691731,0.0015821728,0.2841236896,0.1928684346,0.0925943681,0.0718408372,0.1981772443,0.2139211486,0.378427605,0.3020954481,0.2093945336,0.161686219,0.0756058112,0.1336632035,0.0345793597,0.2303623693,0.3683798322,0.2277417393,0.3044158046,0.1826015243,0.3243115724,0.3299002732,0.3694836948,0.3232501629,0.1913725953,0.2796814046,0.0406387401,0.1797984928,0.0223031655,0.2027765229,0.040504147,0.2310272343,0.1163564198,0.2645986751,0.0081300164,0.3071936699,0.1344880825,0.2522154825,0.3738750001,0.264888854,0.2634634206,0.1226069935,0.0672782011,0.3404445977,0.3457218889,0.2378688867,0.1979821969,0.1059469901,0.2276191957,0.1266684177,0.006599206,0.367143509,0.2532318871,0.1051370583,0.2619997721,0.2967618303,0.1093082204,0.3337027683,0.2206625463,0.3498886211,0.2155171614,0.2863334418,0.2553904222,0.1675509644,0.0319556168,0.0412187306,0.019233283,0.1169172777,0.0755259728,0.0632829285,0.0664091974,0.0129668913,0.173515899,0.0418315822,0.2065108405,0.2671826142,0.2856544669,0.3590536515,0.3182714193,0.2890236349,0.0639711192,0.0812244007,0.3581596876,0.3026176177,0.3518866939,0.2744089668,0.0367623168,0.0158308049,0.2687243113,0.330441573,0.3563351974,0.104700427,0.0953495805,0.285943316,0.272311006,0.163493697,0.3559420063,0.248801137,0.2352409648,0.0973351716,0.0076243931,0.1658629508,0.0756960244,0.0341844222,0.3448964284,0.3478337785,0.1200994199,0.1946379301,0.1795643278,0.1675752076,0.0572209537,0.3777260303,0.1157991041,0.0383890973,0.0748690681,0.0590420341,0.0984838587,0.260931177,0.1226732878,0.2829648963,0.2894035416,0.3717979755,0.022140354,0.1858743178,0.1524908623,0.0638768696,0.2090891837,0.3061122944,0.0275983635,0.0035831138,0.2608448022,0.3212924299,0.3417195531,0.2728815551,0.1267880556,0.0456208841,0.1169172005,0.3740063171,0.353876962,0.3599672958,0.3357160865,0.278915162,0.147300186,0.204920618,0.3793705242,0.0856693451,0.0061152391,0.035254532,0.0655076379,0.343034951,0.1909645554,0.2744286293,0.354963767,0.1026888882,0.2234470043,0.0243419157,0.1359584447,0.1061641082,0.224549773,0.122014141,0.2602902107,0.3341005709,0.0341419631,0.1986789381,0.05821187,0.0598092322,0.3051132798,0.3072761313,0.1012445413,0.101153318,0.0709569798,0.1660725681,0.3557765709,0.2761965056,0.3565543725,0.2936153166,0.3510616476,0.3301373309,0.3353328695,0.3586526562,0.0484097699,0.1123843082,0.2506814788,0.1555255256,0.3244129183,0.3616676016,0.1415854573,0.0765236504,0.3123910581,0.37023202,0.085103492,0.2979984211,0.1826619421,0.2258438134,0.1819372708,0.2544572405,0.2454142631,0.1721722297,0.2590358002,0.014678655,0.1771145989,0.1641359202,0.1493470384,0.1780428233,0.0543536888,0.32440086,0.268601066,0.0796899564,0.1531765272,0.0979578354,0.2072583784,0.3820068614,0.009416502,0.185492172,0.2880720439,0.2983264849,0.105652371,0.2691139293,0.3256629513,0.3746804041,0.1043728327,0.0061989776,0.3815718,0.1237188824,0.3427435061,0.1405318234,0.1423671501,0.1208447734,0.1938322974,0.2238017111,0.052657053,0.0597772754,0.3016651219,0.0736054923,0.1639653244,0.3337506967,0.0873164128,0.1636156642,0.2186658196,0.1146184788,0.2036713963,0.3373233984,0.1703010113,0.2188060861,0.3418249995,0.250506028,0.0030488947,0.2081792559,0.1260533438,0.2368754512,0.1022755599,0.3392138596,0.3204572059,0.2815771235,0.3484578102,0.1572445539,0.0964600601,0.1963733291,0.2675152876,0.1211957944,0.2773092108,0.3867828531,0.3391061909,0.0645277179,0.2524645387,0.2690438778,0.1252327136,0.1929810183,0.3474364083,0.1408136416,0.031434083,0.0940533905,0.2063682929,0.2940843017,0.0564843697,-0.0688926745,0.2899131747,0.317401589,0.195891868,0.2653340219,0.3469387454,0.0271872843,0.139220363,0.2412072817,0.0461775981,0.2255020821,0.0515008081,0.2193203582,0.1410088882,0.3868601575,0.1401825471,0.2329132405,0.1080458493,0.3604337344,0.3011522929,0.1710547032,0.2436978369,0.0664815225,0.3732783843,0.0602162537,0.010270227,0.0089539777,0.2936369484,0.089818309,0.1797009959,0.1088297089,0.0647958709,0.279947577,0.3488414022,0.123790063,0.368104713,0.0690150343,-0.2964420401,0.0149998998,0.0584863942,0.0439961358,0.2330929295,0.1358731473,0.3425524765,0.2856041719,0.0975149909,0.1200498021,0.0940648094,0.3123091809,0.0381652742,0.3788165667,0.3483918762,0.2108438177,0.0862578682,0.2141064304,0.0160508972,0.2630354674,0.0068656595,0.1529077783,0.2146341223,0.3258058887,0.0293664749,0.0164148237,0.0001498998,0.2973973194,0.1021245739,0.1909658842,0.3032636181,0.3731921378,0.2725767231,0.2176286344,0.0292371635,0.2832710665,0.0073604579,-0.0848483583,0.1934830324,0.3111013097,0.0736783944,0.1846722781,0.1129606788,0.028246318,0.2105968989,0.3738625409,0.2520070293,0.1358820062,0.386368967,0.1683337356,0.1240048136,0.1392943945,0.1574547931,0.1944133252,0.3514820055,0.2743649798,0.3829248579,0.030852986,0.1625913282,0.3583738148,0.0390959538,0.258984257,0.1917710593,0.0716308698,0.1546805778,0.1980598864,0.1281150194,0.3262107074,0.0646353501,0.3801222083,0.339830193,0.1516718611,0.3820349489,0.1538073603,-0.1167477958,0.0577280997,0.0953256091,0.0121533746,0.0946395782,0.158579154,0.3466567324,0.3753996495,0.0326064404,0.2277135112,0.2851388294,0.023855548,0.0294829877,0.1795120318,0.026845615,0.115572513,0.0038208227,0.1326366347,0.3631089446,0.1485629876,0.0760990145,0.2692692804,0.0770296459,0.2302059511,0.1849102337,0.2223143367,0.3376650657,0.1945453822,0.0322675093,0.3591948575,0.1904146457,0.1568454743,0.3720957628,0.2722268355,0.0641731317,0.3819433335,0.1524625588,0.3721474288,0.3237931816,0.3788177836,0.3428744672,0.2843284057,0.2617702496,0.1525347402,0.3548601968,0.3474641871,0.0415884212,0.0624547064,0.3754199399,0.0408048392,0.2851037617,0.3317653227,0.1696888218,0.2965383138,0.2639945017,0.2314815448,0.1135950523,0.3215562682,0.0907080507,0.0293342683,0.0978155753,0.3557622527,0.1523914827,0.0304783907,0.3779254433,0.350835982,0.3446093171,0.3411680037,0.0977409632,0.284826182,0.2120043752,0.1302433729,0.1946154753,0.1140562798,0.0360659648,0.2205488506,0.3352514967,0.1459534983,0.2679196681,0.2445285203,0.0497711098,0.3628782362,0.1322901244,0.2700045713,0.1080483551,0.0334252428,0.0939477395,0.3456208145,0.3404305951,0.2130294111,0.0524846451,0.0158713442,0.2737481131,0.1995726852,0.0870120173,0.1199304497,0.0110433289,0.1022035596,0.0706362818,0.3400715736,0.2399248564,0.0741238823,0.2534021557,0.232534928,0.0728185834,0.1110435176,0.0595531563,0.3197918827,0.0865301417,0.2069490997,0.1415124091,-0.0864761149,0.1038880722,0.0555397877,0.0592761262,0.3437485535,0.2383816469,0.0008587229,0.1230078694,0.0693998075,0.3876874862,0.0904131329,0.3749904243,0.1732880869,0.1331978981,0.1181470406,0.2502237494,0.2358032805,0.3113979671,0.271830373,0.313664438,0.1282371807,0.1457722209,0.2919301551,0.0039295067,0.3384294266,0.0516206509,0.3429187442,0.0869592742,0.0842739768,0.2537797098,0.0669498205,0.0129112692,0.0356117657,0.2461899204,0.3260334511,0.0211455906,0.38467015,-0.1163178074,0.3842912563,0.3229374159,0.1944750445,0.2724824074,0.2730546406,0.2425499951,0.3239053441,0.1078356545,0.1386169419,0.373625232,0.2611610979,0.1208622847,0.3401062407,0.2212075752,0.053317059,0.0745880193,0.1833097702,0.1144220264,0.3643336256,0.0768037655,0.1204107106,0.3705133059,0.2072657734,0.3644663645,0.1755604342,0.2348190104,0.1692269819,0.2881424357,0.1489856381,0.231900409,0.2463301304,0.0727548959,0.1543546036,0.3575733581,0.1867925403,0.0612284298,0.1882045656,0.2959868721,0.1057466122,0.2778706737,0.2033780912,0.3534565874,0.0791051333,0.3214546066,0.300337922,0.2419047786,0.1270843684,0.1807849002,0.1903529317,0.325823615,0.2480208162,0.3453657188,0.3820822824,0.0638157473,0.1725969372,0.3850190249,0.1182221265,0.3464560427,0.2775186907,0.1598049754,0.0344289963,0.1668082064,0.0836412213,0.2988204564,0.1675068975,0.3446224266,0.3225723222,0.2977419069,0.1009626383,0.1060719453,0.2469999822,0.0357081235,0.3828165923,-0.2932126666,0.3740048484,0.0165032359,0.2040987726,0.0115289704,0.3534336933,0.2018087706,0.0535645119,0.2795182483,0.1916924349,0.2289959535,0.3517592695,0.2947516806,0.3542383064,0.0447313806,0.0423508722,0.2964523878,0.0775105058,0.0224502565,0.0685210607,0.3798662204,0.3411130737,0.3601783614,0.1510827654,0.1613618492,0.0384471514,0.1986711962,0.0034763595,0.0152555295,0.0546342194,0.1764306255,0.0202325629,0.0562372298,0.0351751914,0.1864296057,0.1919432337,0.2189872713,0.1318667865,0.0197211114,0.1166612105,0.0364428283,0.2255289078,0.0126676079,0.1174103603,0.2313812129,0.3300382486,0.1981961097,0.2390894844,0.209644965,0.2094042431,0.0899652507,0.3810870648,0.147127409,0.2850028816,0.112371129,0.0566270109,0.012288742,0.2615929468,0.2172088884,0.0591240453,0.3584293219,0.0478822732,0.0375583766,0.0801718103,0.1889739054,0.2585887051,0.064058776,0.232902411,0.2981836194,0.00465862,0.3198541985,0.0103986852,0.3049811535,0.2566053333,0.3654495691,0.2007649957,0.2341566481,0.0105751149,0.0136015523,0.0455488499,0.2509479737,0.1741585258,0.1590332404,0.1570683219,0.2548940241,0.1271657314,0.1916502282,0.3454256545,0.3172586177,0.0125541034,0.0443746057,0.1474102602,0.0041774873,0.0292952053,0.1719685131,0.1577441477,0.3371640068,0.2032394094,0.207964847,0.349344532,0.0998731503,0.2143292694,0.2402043916,0.1515146386,0.0478877434,0.2148801058,0.1775422854,0.0591286128,0.0574181744,0.0884989086,0.0824793958,-0.3637731018,0.1980042855,0.2510591452,0.0129724591,0.239670348,0.0606059457,0.1396429537,0.1011976313,0.0413586855,0.1435294764,0.094395445,0.2019975363,0.2151119709,0.0408951628,0.3592040497,0.0700931041,0.2445172041,0.1975767624,0.1221251858,0.2368029839,0.1623245621,0.1074220496,0.3753487924,0.1656926273,0.2324099628,0.0106627156,0.2962565385,0.1805311705,0.1788977168,0.254297622,0.2551946722,0.1904391514,0.3022549241,0.2757854753,0.0177354175,0.3109397049,0.0062058791,0.2892060795,0.2546153211,0.2773391566,0.3169120386,0.0060894265,0.2779653797,0.2381451382,0.0885788245,0.1824342367,0.2209197741,0.2504006316,0.2617319564,0.3680124639,0.3190926009,0.155341369,0.0871743512,0.1964728425,0.2273583856,0.3482874085,0.1376540525,0.1343296469,0.1378418101,0.3774930598,0.3832292141,0.1840682271,0.2325620052,0.291310538,0.1142638277,0.1468054391,0.0735846214,0.0795799719,0.1653889918,0.0531691819,0.1497210886,0.3699119837,0.0221331527,0.1055547777,-0.2145154294,0.1259597743,0.159690199,0.318616558,0.2542166618,0.1757399357,0.078883095,0.2211769486,0.202754618,0.2243985862,0.2964144694,0.0448501925,0.0140289073,0.0124925334,0.1809793809,0.1716214413,0.0317382994,0.149985269,0.1782420119,0.3877780498,0.1252837115,0.0251913565,0.2381380007,0.3281581763,0.3656424784,0.1261272327,0.2156159067,0.110706384,0.2070307606,0.3377482608,0.2413726539,0.2163086244,0.019744916,0.2064008365,0.2274258567,0.2213606567,0.2380944474,-0.2305742334,0.0176642626,0.1468396649,0.1555244359,0.1512701962,0.168030858,0.0278315031,0.325696496,0.052534683,0.2744733816,0.0119472288,0.2944484316,0.2258852297,0.3611672858,0.0131619705,0.0935837655,0.275027729,0.0334272645,0.2110017938,0.1646940427,0.3359081013,0.271529408,0.2332262602,0.2393435395,0.0880642184,0.0163858378,0.0600042388,0.2717247852,0.0631842168,0.3779688524,0.12446523,0.3652401531,0.2035626415,0.2881105821,0.0081459342,0.0050954726,0.3186877482,-0.0889402154,0.2690311416,0.0976117417,0.0022459129,0.359718935,0.1034322939,0.3450607008,0.0496989621,0.0660691387,0.1610047439,0.1230581675,0.1607648034,0.3468829769,0.0600340677,0.0799170842,0.1732535717,0.2696131137,0.0929285447,0.255016175,0.3777978136,0.3206365544,0.1644333608,0.1693457759,0.212837818,0.0204221682,0.2355899569,0.2838117698,0.2455664324,0.1335223436,0.0247534648,0.3110373138,0.0045156377,0.2907147592,0.1766495296,0.141348144,0.1498134086,0.1594240941,-0.0671403164,0.2102598804,0.2977368628,0.1193083415,0.3393233181,0.279870725,0.3432403553,0.3761669319,0.0037060903,0.287679506,0.0560673879,0.0474424345,0.1984393447,0.1549891196,0.3173925597,0.3648364647,0.1014242848,0.1524400603,0.0089113931,0.1259332028,0.3453092834,0.1777541942,0.3067601067,0.1787966105,0.1998743201,0.2538378886,0.3580235669,0.2610140784,0.0182544722,0.1723216399,0.2549753751,0.1910003564,0.2952909681,0.1849507854,0.0542761854,0.2794089309,0.0624164801,-0.3271487904,0.2124814729,0.0667194826,0.2863844925,0.0222855458,0.1094243103,0.2965923045,0.0235021167,0.3034694027,0.0194485972,0.2122273915,0.316439792,0.3104093021,0.3027617104,0.1278050184,0.3098229154,0.002728821,0.1077077865,0.2163292973,0.2326817604,0.2805210619,0.0956861931,0.0730931021,0.2628843607,0.205593692,0.3047493038,0.1591708665,0.3121633493,0.2016631931,0.2974665517,0.0686247004,0.1586955909,0.3590626736,0.2208684996,0.2759493303,0.0644190752,0.270129747,0.1845840492,0.1179909251,0.1156604263,0.2542271148,0.2381118072,0.3846015575,0.1723293436,0.1884579111,0.3770327041,0.3547668509,0.2424474645,0.3722835223,0.2752896464,0.1953252524,0.3043737057,0.187834658,0.2247690387,0.3495576222,0.2436404577,0.1072880379,0.2013574758,0.1636945941,0.3836156304,0.0736134723,0.1047627377,0.089870541,0.2926695573,0.2011810919,0.0421613551,0.3164532313,0.1822022246,0.348254105,0.3425674742,0.1104328135,0.0308030125,0.2920079817,0.1640764829,-0.0260579714,0.3613648104,0.2440667485,0.0240028706,0.2901068857,0.0255972049,0.0464688253,0.1619728438,0.1433056771,0.0198499347,0.020554638,0.3215659652,0.0349631515,0.023687235,0.0196640836,0.3238093291,0.0627041843,0.2775824428,0.2231310153,0.3329761134,0.3343917269,0.0786295989,0.0351423448,0.32222571,0.2558111154,0.2209231399,0.0160642405,0.3219366013,0.120078521,0.2477005847,0.3529757604,0.3644553676,0.1286420423,0.3665548625,0.2942048414,0.1678381606,0.0342130619,-0.36383734,0.1184888677,0.0333660142,0.1846884503,0.1645052536,0.2902784705,0.3427959932,0.0182292179,0.0295743878,0.1066795698,0.2450972907,0.0979924255,0.2319837655,0.177406412,0.0178533687,0.1396736992,0.2914070643,0.1778934127,0.2556214637,0.2071191847,0.3038975541,0.1309511901,0.1991812535,0.1933623291,0.2966968329,0.2071032728,0.3836363917,0.0732648538,0.2912428617,0.0010733985,0.0892909876,0.3110193085,0.3178078539,0.1442959314,0.2465117758,0.2681496305,0.2868850913,-0.2188648631,0.2043217586,0.2511648444,0.0050480998,0.0083343224,0.2645087861,0.0642040904,0.114816283,0.2676476112,0.2482739166,0.1858841562,0.2912853762,0.3254451912,0.3070585958,0.1048879031,0.2809272512,0.2946510785,0.0333095232,0.0738053886,0.0918073984,0.1259282276,0.3241311416,0.2037514137,0.0677347122,0.231506563,0.1835584323,0.2417735276,0.2869534314,0.1936361371,0.1369603301,0.3793497491,0.2613327747,0.3593766471,0.2335247171,0.0704019246,0.0033946035,0.3335463166,0.311372266,0.128268332,0.2344851344,0.3189740348,0.3716826444,0.3181775357,0.205487537,0.0992871133,0.3704235054,0.354596612,0.1746082403,0.0913046483,0.3632923371,0.3490694132,0.1950162371,0.0942145774,0.1947450227,0.0459198744,0.3161670636,0.2422345277,0.1557109174,0.2636729144,0.283433451,0.2801249135,0.1092509466,0.0741493667,0.0062503838,0.2432534536,0.1655858203,0.1695690727,0.3119811404,0.3671819949,0.1563264963,0.192736523,0.305749273,0.3788430041,0.1209738844,0.2496441836,0.1004014941,0.0781666323,0.3546295093,0.2495699738,0.3354199621,0.0342979434,0.0880050147,0.2004563402,0.2361854763,0.2835623879,0.1324042059,0.0353764138,0.1941135929,0.0100139763,0.0312369741,0.0977778459,0.1602111807,0.2766873689,0.3298396756,0.050356913,0.0760163612,0.2970690415,0.1782985346,0.009036007,0.3089942377,0.1453701575,0.382310001,0.132776785,0.0659073394,0.377673566,0.2852807534,0.3564525416,0.0274623511,0.2088985664,0.0899566254,0.3678460259,-0.0200607902,0.2804246227,0.2676198618,0.2972754622,0.148081491,0.0699232669,0.3327635701,0.2498787725,0.0027666392,0.3290802134,0.0987853832,0.3086256436,0.2029323056,0.3163634546,0.293683692,0.3219226617,0.0202248443,0.3386859784,0.0824954117,0.3705251743,0.135294054,0.2981376102,0.1099119403,0.1302415225,0.3763482872,0.2748351565,0.3715025413,0.0583670566,0.1661074386,0.2557067733,0.1080480221,0.0183229406,0.285438679,0.2177050397,0.2562343079,0.3521971768,0.3335982154,-0.1068518586,0.3013039479,0.015356486,0.0072731747,0.2876291963,0.1733964751,0.0779985507,0.1565409381,0.1253104983,0.0410660968,0.0433732019,0.3346247977,0.1211621348,0.1627152364,0.1844183362,0.1335905172,0.0476583178,0.141945785,0.3282241608,0.1499644749,0.3017091551,0.2458237507,0.0335605868,0.2872206421,0.3466387547,0.1892282327,0.2200648819,0.1220520953,0.0917376697,0.1442419131,0.2683066511,0.3768859861,0.3340669001,0.1429616665,0.3270472664,0.1307274077,0.2774587546,0.1207554807,0.1235590293,0.2904279141,0.0060462293,0.3066181101,0.1493618973,0.2379215023,0.2310548914,0.1734836398,0.0550978993,0.3846923232,0.3513699995,0.0380004372,0.1943969912,0.3648913351,0.1369479113,0.3191386321,0.0773431704,0.0902335167,0.0638858136,0.3366455391,0.1777190595,0.1454227186,0.0110803862,0.1914414354,0.2183547581,0.1813046008,0.1392185767,0.0073717223,0.1550362997,0.1335282698,0.0528883957,0.0957865733,0.2784718091,0.2309008291,0.3645972112,0.0473711201,-0.1449276919,0.2051535593,0.36575505,0.3741261235,0.0589831218,0.3408290372,0.1529099137,0.3262630197,0.3111731978,0.0211907661,0.1202659877,0.276381232,0.1594187491,0.0255910744,0.349219211,0.294319858,0.0666757205,0.3035021386,0.2145802667,0.3572188171,0.0444983327,0.039573661,0.0169977116,0.0194757347,0.2244141672,0.2781017319,0.381378979,0.087837047,0.2744338725,0.2204782968,0.1698446973,0.280551606,0.3842490799,0.3269322004,0.0376451409,0.3309028076,0.3576824513,0.1455367638,0.107669181,0.1529121176,0.3800231628,0.3487367992,0.2335532179,0.2326795762,0.0905760822,0.2728313878,0.0704131305,0.327139225,0.0323822974,0.3465663066,0.2709008614,0.3160940377,0.3082807853,0.0244122162,0.3336568922,0.3072029756,0.2915458433,0.1492367275,0.1317228264,0.3580503336,0.2334855815,0.1445059257,0.1694458507,0.2526116631,0.2869203493,0.3189210179,0.1519142812,0.1459673841,0.3550512779,0.279509925,0.1927501561,0.0763783126,0.0409068037,0.181461106,-0.1698648386,0.0451234861,0.0630362571,0.2040298535,0.0622861704,0.1564698366,0.0633143911,0.2735236054,0.3165816709,0.3469246517,0.3313507597,0.2528350985,0.2980517485,0.3496404749,0.0120395504,0.2895371402,0.0602687144,0.0184535343,0.092019094,0.2080127514,0.3784499277,0.3062942428,0.2559090799,0.016680674,0.0219436139,0.230231513,0.2810739437,0.2952071516,0.1320398323,0.2991752685,0.1770707858,0.3593846406,0.1556214603,0.2747729203,0.1229976681,0.2740677425,0.2755620712,0.2995806921,0.3493114994,0.0987122508,0.0614194512,0.3777229765,0.2161724874,0.082646546,0.3767102182,0.3637355951,0.2940804641,0.0490280677,0.093257919,0.3731800538,0.2867353666,0.1564731651,0.3830304777,0.1852689672,0.3096195597,0.3558782971,0.3061428114,0.0084266178,0.1547755495,0.0284002111,0.3066481485,0.1616793292,0.0457080896,0.0735928362,0.0353940349,0.1394041584,0.1285457653,0.125055015,0.1291384315,0.1495722985,0.1838182357,0.1040625139,0.2206736666,0.2924218147,0.2568888483,0.1240500039,0.1464723459,0.0700284033,0.0893348314,0.1913374743,0.2008601525,0.2017092034,0.207922975,0.1468092572,0.1295823865,0.1538839541,0.3195327997,0.1783593283,0.2174813847,0.2158654685,0.0090824302,0.2867689999,0.0443760706,0.062733415,0.3300686497,0.297537529,0.3820231655,0.2228315862,0.1929276586,0.282452896,0.1243040184,0.0784439544,0.0695335824,0.0234562097,0.1614262136,0.3347131654,0.380520199,0.0771202193,0.127121705,0.2735001056,0.2701809207,0.1032400864
biasActivation=0,1,1
[BASIC:ACTIVATION]
"ActivationTANH"
"ActivationTANH"
"ActivationLinear"
