encog,BasicNetwork,java,3.2.0,1,1363464428785
[BASIC]
[BASIC:PARAMS]
[BASIC:NETWORK]
beginTraining=0
connectionLimit=0
contextTargetOffset=0,0,0,0
contextTargetSize=0,0,0,0
endTraining=3
hasContext=f
inputCount=11
layerCounts=1,11,21,12
layerFeedCounts=1,10,20,11
layerContextCount=0,0,0,0
layerIndex=0,1,12,33
output=0,0,0,0,0,0,0,0,0,0,0,1,0,0,0,0,0,0,0,0,0,0,0,0,0,0,0,0,0,0,0,0,1,0,0,0,0,0,0,0,0,0,0,0,1
outputCount=1
weightIndex=0,11,221,461
weights=0.1685124996,0.2841055936,0.2550857301,0.3276755839,0.0819056224,0.2962857483,0.1109711324,0.292009461,0.3295236528,0.1336922037,-0.0949041943,0.1844034565,0.1785262891,0.2120364267,0.2923110366,0.2482424736,0.0733334934,0.1440545706,0.1433339252,0.3218151407,0.3060305446,0.0080028734,0.2094798145,0.1065849948,0.2280524074,0.1649751783,0.1267050719,0.140503473,0.1861897289,0.2432401883,0.3731784338,0.2990941242,0.2388011635,0.1581816349,0.2058796254,0.2624334154,0.3558208557,0.1068163572,0.0112450001,0.0086716559,0.3329970556,0.0534799381,0.0984872913,0.3407479558,0.24672569,0.2391675378,0.1875883572,0.0771202292,0.2697416504,0.3663566678,0.2731730823,0.2890794872,-0.071388998,0.0786453183,0.2814836371,0.3079711422,0.0864974005,0.2838350224,0.0492024863,0.0717922964,0.2460424713,0.0434779686,0.0733133448,0.2914793538,0.2306502915,0.3410702279,0.3521932094,0.1183992524,0.3461614615,0.0338583631,0.0627698639,0.2080284397,0.2061751807,0.2205658404,0.2667196402,0.2038010937,0.2948722583,0.367186902,0.2051345205,0.0770235071,0.0689809255,0.1370874453,0.1871000028,0.2320638207,0.3259914952,0.361893344,0.0983702223,0.0142277177,0.1704405664,0.0605028382,0.1180526659,0.1763230498,0.1104813546,0.0938063225,-0.3039742174,0.370045183,0.1446787121,0.1096798876,0.232288027,0.059938863,0.3713155844,0.3441411711,0.357227068,0.326723534,0.1968972567,0.2109397767,0.2872047414,0.1767883117,0.118005176,0.1761246559,0.1791442641,0.3066354849,0.3867745819,0.3048687116,0.0989260323,0.042459717,0.1667522604,0.3149937943,0.1867003243,0.289956085,0.3751595839,0.3483436505,0.2284367624,0.0684395102,0.1479902392,0.183546599,0.365331748,0.3756611338,0.2369263824,0.0107388631,0.1692264208,0.3706350314,0.2563385853,0.1059869829,0.1113016726,0.2002877796,0.1591610167,0.201188671,0.0635615541,0.3692336307,0.2462673198,0.2629529443,0.0269858695,0.2103778393,0.3616732921,0.0224162351,0.291494443,0.3366198286,0.0561367335,0.2526943632,0.3685902007,0.0285722338,0.1312006202,0.1238992046,0.0509009071,0.3728839536,0.2581509294,0.1914671632,0.062626152,0.2472819767,0.0464530453,0.3556383126,0.0720813895,0.3794986467,0.23723411,0.2701290665,0.305647488,0.337312222,0.3009873922,0.1427077998,0.1784973941,0.2844051916,0.3468507426,0.3643416684,0.3662565947,0.3798373182,0.2853969622,0.2812813931,-0.252923826,0.0291605855,0.2505348749,0.0836032342,0.0106047037,0.2908694745,0.181144972,0.2425269474,0.0779342175,0.1050922305,0.2862092086,0.0059869755,0.2938124262,0.1232013492,0.1966490414,0.0917846322,0.1143523467,0.3819321596,0.2219449698,0.0989208818,0.0558038166,-0.0423423216,0.1101917088,0.1276556033,0.2405291266,0.1757632616,0.0803575718,0.326536051,0.0883629228,0.0935977646,0.3115821999,0.0833466509,0.1935226813,0.2450478054,0.345587439,0.1082575655,0.3343592178,0.1022155919,0.134781245,0.2234994155,0.0197783177,0.0402624058,-0.3451150074,0.4119936227,0.2885362901,0.4459947687,0.3710264168,0.4467350979,0.0327237115,0.0470132707,0.1492706668,0.2278069057,0.2277026873,0.4106236373,0.3407909486,0.2356202708,0.2566029044,0.3417167752,0.3092577952,0.0777104422,0.358763206,0.1736909379,0.1544915435,0.282666344,0.3427551796,0.1603575364,0.4129043151,0.3862209466,0.234675481,0.0806088208,0.4209541773,0.2345767689,0.3618461809,0.1882544054,0.0864492399,0.3184391287,0.0886859379,0.2901114506,-0.0334865648,0.1003923708,0.4034414574,0.2810405548,0.1505559251,0.1382683272,0.0662640203,0.3057743752,0.324111076,0.4408322387,0.1115614961,0.2365412368,-0.0615413009,0.3351459759,0.1832073454,0.3783446502,0.34374471,0.0594710135,0.1177504634,0.4277790927,0.0711658005,0.1635609399,0.1643966899,0.0988956103,-0.0198267989,0.3313295671,0.4475307079,0.4319339539,0.0533606392,0.1927653484,0.2708154075,0.1876216756,0.4111516862,0.143472135,0.2822322213,0.3388337288,-0.0301759051,0.2517007432,0.2012861798,0.2706994754,0.0864774566,0.0041946149,0.356147322,0.3462160645,0.3766054293,0.3536960757,0.1636885017,0.2584955409,-0.1695539039,0.4443004026,0.1926239611,0.3381883259,0.135041464,0.3517900795,0.0532064053,0.1855729664,0.0080549849,0.1695500509,0.4204942093,0.3390814304,0.3388160376,0.1647187188,0.1430278402,0.3812602065,0.18703493,0.4573839606,0.3064253106,0.0924146872,0.3383254587,0.2306918198,0.3739484602,0.2779448075,0.3726224136,0.3469627736,0.0552478505,0.2656320051,0.0266940282,0.1227278497,0.0398366639,0.2534424612,0.362786669,0.3748779761,0.0818743975,0.0836165918,0.2620616463,0.2676267614,0.2403680948,0.4487714382,0.0968516344,0.0949192282,0.143223685,0.0957225503,0.4201826759,0.3365169749,0.0982947058,0.2683407071,-0.3992677507,0.0110501133,0.4143326982,0.0539364062,0.074781128,0.3979595208,0.3719097366,0.0866441738,0.140058212,0.2851796984,0.2738707457,0.3771263675,0.0741536107,0.010010544,0.1750180334,0.3665843389,0.3742837494,0.1852420623,0.3299481119,0.1661410117,0.2817906787,0.1933215908,0.2052926265,0.4028596276,0.4275046933,0.0561788197,0.0047231784,0.014934516,0.125841235,0.0149687393,0.2613528357,0.3974240609,0.0544893668,0.3583290768,0.1149720807,0.0548929246,-0.0366107608,0.3078523848,0.0836121238,0.1190068951,0.3382676877,0.2451640579,0.2395373876,0.3286348443,0.234597013,0.0512804219,0.2606772517,0.3812883034,-0.4400141436,0.1054395946,0.0810391494,0.1345395573,0.4090956983,0.0056027092,0.0579711924,0.3619383208,0.3826172389,0.2015736219,0.3572817841,0.4511270818,-0.2005272711,0.2754130246,0.1696144737,0.4438250106,0.3501575329,0.0591022711,0.2513642564,0.3380262385,0.2612810261,0.1901081523,0.1270363208,0.1538889767,0.2782376053,0.160029637,0.0534255237,0.3841017248,0.4150105821,0.2738185969,0.4333765905,0.1916482789,0.2918613498,0.2547942615,0.2785159304,0.1932046014,-0.2232745039,0.2173183254,0.3060530467,0.1908568754,0.0836288979,0.2115002306,0.1490094202,0.4505298553,0.0792905615,0.2066901057,0.4072129915,0.0573771679,0.2420490659,0.2447235804,0.28310737,0.0067556296,0.0548635941,0.2106959862,0.2955404937,0.4330614695,0.2269011697,0.2384633237,0.2994728648,0.131412431,-0.0121148285
biasActivation=0,1,1,1
[BASIC:ACTIVATION]
"ActivationTANH"
"ActivationTANH"
"ActivationTANH"
"ActivationLinear"
