encog,BasicNetwork,java,3.2.0,1,1361178170242
[BASIC]
[BASIC:PARAMS]
[BASIC:NETWORK]
beginTraining=0
connectionLimit=0
contextTargetOffset=0,0,0
contextTargetSize=0,0,0
endTraining=2
hasContext=f
inputCount=36
layerCounts=1,43,37
layerFeedCounts=1,42,36
layerContextCount=0,0,0
layerIndex=0,1,44
output=0,0,0,0,0,0,0,0,0,0,0,0,0,0,0,0,0,0,0,0,0,0,0,0,0,0,0,0,0,0,0,0,0,0,0,0,0,0,0,0,0,0,0,1,0,0,0,0,0,0,0,0,0,0,0,0,0,0,0,0,0,0,0,0,0,0,0,0,0,0,0,0,0,0,0,0,0,0,0,0,1
outputCount=1
weightIndex=0,43,1597
weights=0.177319987,0.2140768233,0.3145538641,0.0727837443,0.2606639682,0.1280253278,0.2306821426,0.036503767,0.0897028692,0.2498523889,0.2883524298,0.01782521,0.1353980493,0.1397696513,0.2275817377,0.1652427461,0.2548804125,0.3261024975,0.2697734994,0.2436346743,0.1337233797,0.1284160409,0.1891449243,0.2537908759,0.3185768785,0.0926402008,0.1617093936,0.2861131328,0.0192256637,0.0421963014,0.2081575528,0.214419,0.3364304149,0.09009418,0.2234945566,0.3447157351,0.2851422941,0.2213735884,0.0737418479,0.1911840731,0.1818516726,0.0931047939,-0.1224691335,0.1376654791,0.2331368111,0.28213002,0.1849057702,0.3868239116,0.1555671693,0.0506429391,0.3609324027,0.2253792899,0.0214979596,0.1832850815,0.0673048458,0.0490034416,0.1306042403,0.0541892441,0.1486510671,0.2642964185,0.2224711674,0.1711805185,0.2354304703,0.040778787,0.1052436477,0.3730978132,0.1787784631,0.2582417652,0.0486089405,0.1722392933,0.2545971926,0.1839773612,0.2827532651,0.2412579193,0.1294152799,0.1814342929,0.1283893445,0.3645399622,0.2939596537,-0.04062425,0.1287824042,0.0678860576,0.0969401757,0.3576490734,0.3078163418,0.2140786846,0.1506790172,0.173144431,0.0613909975,0.0148835852,0.147643135,0.1722884889,0.2087645673,0.0821614759,0.0908184704,0.1431374549,0.1409411908,0.0782802383,0.3096236107,0.1666738997,0.3735774479,0.381917215,0.0017237609,0.0663309257,0.2388585192,0.1949176461,0.2662887459,0.2356016691,0.3693333275,0.3482489272,0.0486791408,0.2681614962,0.048673302,0.1574752447,0.0513195865,0.3364964523,-0.1865833332,0.1357810316,0.3013243449,0.1607210956,0.1178686106,0.3828899937,0.0357107763,0.1199784924,0.0126942116,0.3491364789,0.3870178356,0.1436490828,0.1283399999,0.0167913238,0.1477300526,0.2014049735,0.2832950614,0.1962044985,0.3254046282,0.0382919248,0.0693500658,0.2141104827,0.3051759025,0.1241806398,0.2671113771,0.2116349699,0.3008929613,0.0266344013,0.3366369651,0.341918605,0.2534662482,0.1997543002,0.2566856496,0.0631934768,0.3331523057,0.06799129,0.3830359478,-0.3291638926,0.206498747,0.13949107,0.2468471684,0.3004023336,0.1262340655,0.0761907558,0.3025483597,0.3767220648,0.2896695077,0.3043154229,0.2422454277,0.3054149186,0.2505734167,0.1307190851,0.1195686522,0.3194881895,0.3761369164,0.2346284226,0.3518016766,0.3348189272,0.0848253123,0.0923692414,0.1944743111,0.0345904697,0.0630306667,0.0922481235,0.2469012767,0.1064619401,0.0786088182,0.0324679802,0.0411863418,0.3297991659,0.184546875,0.2593144228,0.3752653226,0.0726812906,-0.0151060272,0.26378622,0.3269266587,0.1305132509,0.3666889807,0.2605507947,0.0419676133,0.3579289932,0.2784991323,0.2466022171,0.1078399989,0.3566479872,0.0391193284,0.213807581,0.3797677576,0.2016926835,0.3092813868,0.0116705167,0.0892305662,0.151447663,0.3210703429,0.3450471076,0.1368266279,0.0681030336,0.3870849035,0.0730853691,0.2753081295,0.0974901446,0.0241266778,0.0253818314,0.2639584751,0.1382695305,0.2889288046,0.1723106943,0.2732968956,0.3600838087,0.0795237293,-0.2396114974,0.3758375785,0.2589241999,0.3273982423,0.0097648751,0.1299525589,0.0450482391,0.1196230798,0.0907714428,0.156124431,0.3053553443,0.1693602522,0.1696271457,0.0638980578,0.2720243642,0.1621887246,0.0986205314,0.2355398488,0.013686936,0.3374815819,0.3757299435,0.2723045317,0.3596090654,0.2519835045,0.0606853027,0.2753230251,0.1526748353,0.0741883157,0.079311646,0.146057595,0.3014865293,0.330283293,0.1185776073,0.2397118513,0.0130105487,0.0998710619,0.2638074922,0.0409103776,0.2888726928,0.3702278607,0.3317468003,0.0659847388,0.2677036821,0.2562025582,0.0128429863,0.0866514417,0.168710548,0.1364169677,0.2942777877,0.0269292799,0.1630095518,0.372225782,0.1226770151,0.3145401789,0.2709592272,0.3539841203,0.2273355085,0.2947578936,0.229078483,0.3626033727,0.1218595073,0.2799554589,0.0875986132,0.1801998161,0.0541459581,0.2540224219,0.0522310569,0.3239948013,0.0086210371,0.3218324851,0.3137571017,0.3355284121,0.050730268,0.1496124413,0.026789405,0.3277249964,0.2521589314,0.108863933,0.2682277766,0.3803744404,0.1617195838,0.3754490588,0.1017537582,0.0922730872,0.3020189015,0.3089580966,0.2808451725,0.0768803604,0.2154457724,0.0192291114,0.3684107857,0.3693501825,0.2180550713,0.2817625196,0.0932583278,0.1171193256,0.2632409736,0.2585663802,0.107967686,0.2085708917,0.0349354318,0.1561793371,0.3366750932,0.3141428334,0.3649519304,0.0512311948,0.3819285298,0.2827627071,0.1146537354,0.2201965406,0.2687185963,-0.063430885,0.0163319642,0.0045697561,0.031683111,0.0321020749,0.013204258,0.3547290733,0.1919925509,0.0505620329,0.2290891546,0.1194911416,0.3747913972,0.1681428945,0.0856098918,0.0104855829,0.3774746456,0.3722716117,0.1109783142,0.1107036235,0.1213795898,0.043239584,0.0549791086,0.1005332181,0.0616862903,0.0880425664,0.0815745291,0.2297822933,0.048099713,0.0674090051,0.1288039769,0.1241765477,0.1836601322,0.3472494376,0.2706346921,0.2264311931,0.1764491124,0.0371548607,-0.2875364434,0.2430983698,0.034584015,0.1776315741,0.2161609158,0.0047541825,0.2563345178,0.257817963,0.1340833158,0.2663568071,0.2227098071,0.1106968844,0.251974353,0.1923355492,0.0860387751,0.0127488325,0.2014221907,0.0232462812,0.3790924791,0.0787066541,0.0238867773,0.1604204312,0.1797400421,0.0667200129,0.3472144749,0.2640164003,0.3179750484,0.2606545925,0.1545106565,0.0612714677,0.284471386,0.0681017889,0.3861565832,0.2191809749,0.2607843502,0.0615109485,0.3601896504,0.1061001359,0.3347351701,0.0611158731,0.1244413546,0.0822703479,0.1009861516,0.2133721615,0.2342364076,0.0724974269,0.3759305127,0.2731717302,0.2936413266,0.0814026523,0.1138723796,0.270597648,0.0770240875,0.1277092717,0.3560354297,0.0403247141,0.2195892548,0.3274624983,0.1763398247,0.1763471195,0.0271350802,0.3846420158,0.0054746863,0.3255953683,0.2362923897,0.2876624038,0.0948791894,0.3082053771,0.1160538276,0.2478468986,0.2870528291,0.0151626716,0.2554396743,0.3249619987,0.2995623143,0.332032624,0.0830447726,0.373358707,0.2290674164,0.3486131774,0.3659331411,0.0750556229,0.2487349072,0.0082943031,0.213680984,0.0095550179,0.1366330497,0.0965673319,0.1159429288,0.1784681739,0.1866091604,0.1444033676,0.2913509649,0.0175662681,0.1406825173,0.3072215423,0.2163119022,0.0038642821,0.2516973408,0.0422212158,0.0608144417,0.3729595024,0.22602737,0.2643976103,0.017328372,0.0157161399,0.0775263004,0.312276458,0.0404482816,0.073793783,0.2110952366,0.0965861424,0.1279250679,0.0634135301,0.0901161752,0.2204484382,0.0637290124,0.0996722977,0.1904938255,0.2105552669,0.2288418976,0.1093558792,0.0256864482,0.1859878591,0.0168254427,0.067900681,0.1071650281,0.2912752113,0.0897891686,0.3033422669,0.3160198144,0.3439349154,0.3469938024,0.297695161,0.3243005468,0.2271575076,0.2489646665,0.1256913318,0.1060624285,0.1605752433,0.0135410099,0.1226957612,0.1164690549,0.095010525,0.0752265976,0.3015147752,0.1322111985,0.3047285408,-0.0319778256,0.0856636352,0.0271909493,0.2275717575,0.3493023337,0.0251767729,0.1488021967,0.3089000619,0.3197817575,0.2146393329,0.1587623617,0.1995655219,0.1243515836,0.3807626454,0.1019805916,0.0181975494,0.0295109461,0.2671275807,0.1474184913,0.2007934641,0.2442042256,0.0907731926,0.3686981635,0.1083572651,0.2846875136,0.1601093963,0.0730375372,0.1261380703,0.3674022845,0.1091002535,0.358576174,0.1576307222,0.019257822,0.0656313097,0.0964920532,0.3518534948,0.1280529754,-0.1201417015,0.3095305146,0.2319023905,0.0739666358,0.1370858823,0.2094541196,0.1104617292,0.0181893833,0.1019380299,0.3329565698,0.002433439,0.372608883,0.3166628716,0.0253665774,0.3458174045,0.0031598082,0.2478784208,0.1803491891,0.3848719402,0.3773617646,0.3832314352,0.1905325897,0.165551577,0.1913095679,0.3311855552,0.1939711751,0.3599032349,0.2037437162,0.1086946598,0.1020955256,0.1792736176,0.2104546095,0.2703879344,0.1183378095,0.37099672,0.2611118652,0.2645147064,0.1683295138,0.0924281758,0.2533892867,0.1831848918,0.3121955283,0.1059743127,0.0997253525,0.2693852066,0.1914260609,0.1554134805,0.2507816473,0.0971211122,0.2904488499,0.3105434632,0.3488101516,0.0148569911,0.3061320196,0.2446738921,0.3278445776,0.0713281222,0.1064433098,0.1292927542,0.0783775236,0.3008722065,0.1304829997,0.1568489987,0.3621575941,0.2576189003,0.0864964062,0.2047307361,0.2643395193,0.2931538497,0.0385933297,0.1346323271,0.0517143295,0.1380027037,0.3500195337,0.2256466357,0.0594415762,0.2187673375,0.0181035964,0.351773668,0.2227595501,0.1556789794,0.0924794965,0.2054405383,0.2383282475,0.1401095578,0.2153870229,0.1231913848,0.3796746547,0.1229290923,0.2001479097,0.029866089,0.3251162506,0.1114530228,0.3236772733,0.0329854193,0.0215835321,0.1468618314,0.0490280202,0.2312041905,0.0830182302,0.1299920677,0.3637999871,0.1746257077,0.0869591161,0.2037448994,0.0168906793,0.2340306564,0.2226664684,0.3318702853,0.0681769156,0.220003858,-0.152937779,0.0258137625,0.3666630189,0.2884840396,0.0009022526,0.0392820892,0.0002226364,0.1418551651,0.3672544733,0.2849382765,0.0701182153,0.1189023738,0.3510417625,0.1861923247,0.2607812902,0.1228389564,0.1143555579,0.3302227795,0.0144714072,0.1392293055,0.3149412183,0.1570751846,0.1078691828,0.2230978313,0.2465836146,0.2590277458,0.3764685743,0.031168658,0.2715207332,0.3613241903,0.3598946961,0.0868972738,0.3052600937,0.0545914223,0.2953462804,0.0620196432,0.314507325,0.0277089682,0.0657193088,0.2308958325,0.0921638741,0.2692588446,0.3072756149,0.1323176103,0.0906569116,0.3546612763,0.37804955,0.3409989423,0.3052991507,0.2869773696,0.3351392397,0.1828991966,0.2941178732,0.0397078773,0.3184158046,0.1974112661,0.2084631946,0.0030877898,0.1030707823,0.2519976575,0.2852938567,0.0309658226,0.2824169032,0.0138621373,0.0534317835,0.3726323094,0.0115457225,0.1232145078,0.378143718,0.1026485452,0.1090917833,0.180386915,0.1506861482,0.3169331925,0.0491340228,0.1554540527,0.3520872115,0.0644209942,0.3796973885,0.1078277709,0.2304345482,0.0006086166,0.0329886273,0.3234779839,0.2085570966,0.3497715784,0.1765700822,0.2405014464,0.1147114494,0.0087961,0.2386274738,0.0308963024,0.3585985148,0.2951328759,0.1614956238,0.1400897449,0.1003669535,0.0299341938,0.1382299508,0.1896082969,0.0781566271,0.0933895942,0.1272003518,0.0076811865,0.3264162109,0.358234248,0.2978400006,0.2260669278,0.1540204175,0.0771451808,0.0755345505,0.0468962763,0.0494585194,0.3080420891,0.2703588771,0.2449476455,0.2087885667,0.0149046799,0.3827765413,0.3602658045,0.1777004918,0.1547022703,0.1159959304,0.039865396,0.3165979168,0.0355286452,0.2041856791,0.3462118281,0.0858503654,0.1116870201,0.2597996786,0.3280721436,0.3101695781,0.2338834486,0.3562594383,0.0336281199,0.0214010704,0.0464134881,0.1488826427,0.0343841261,0.3723891599,0.3788969359,0.3156717201,0.2163178604,0.3187152088,0.2396190824,0.1519448563,0.24321159,0.2003740338,0.0774257541,0.0387040965,0.1660258252,0.3831541921,0.0956108297,0.3686017656,0.2956646634,0.3038898446,0.2327053637,0.3172120375,0.0150308441,0.1162749853,0.350198831,0.2086837448,0.3393811554,0.2917558059,0.1322650241,0.1437435235,0.2792805669,0.3375207948,0.0533975342,0.3689961405,0.2734063947,0.1065808117,0.1289379515,0.1393811968,0.1616915682,0.0197807104,0.2805208148,0.0013888237,0.2709117743,0.0949082543,0.1727840971,0.2271909572,0.2552295459,0.2903143504,-0.384794064,0.2127750209,0.0054819169,0.3055880793,0.0804911241,0.0224101509,0.2190744771,0.0066386285,0.1051052281,0.2841324897,0.0164437183,0.0199769431,0.1483463745,0.0237010402,0.3479662777,0.0422724566,0.35622279,0.2730239728,0.2033616751,0.1319741597,0.0353619062,0.2337006704,0.1319330259,0.1212067806,0.2931794089,0.0754428075,0.2441944851,0.0311348687,0.1528775976,0.3117168889,0.2026002027,0.0940554742,0.3658969342,0.2632454063,0.2277183312,0.1537686603,0.1867434809,0.0487530483,0.1808450277,0.1727810042,0.2172355162,0.0149165976,0.2761874457,0.1079516091,0.3474278647,0.006222495,0.1810160858,0.174048234,0.1737104492,0.3681188465,0.3610268366,0.2368790008,0.1682983186,0.2764398486,0.2337956615,0.2480837792,0.2548049186,0.1517877076,0.0582571857,0.2152595132,0.2532761299,0.1573265493,0.140984676,0.2309050578,0.2091565305,0.009624325,0.028884706,0.0192809664,0.0467979746,0.3687467728,0.0428117346,0.290942563,0.3000494178,0.1254339106,-0.3434783671,0.1653294256,0.3277662115,0.2937328179,0.1339813966,0.2020653304,0.3299657953,0.2670530437,0.318328024,0.1511756263,0.1999406178,0.2591788565,0.0032092765,0.1081790922,0.3154016345,0.3788008932,0.0882601627,0.343085977,0.1926422077,0.1188745657,0.1095236945,0.3055530529,0.1075543244,0.0494623567,0.1151164589,0.2240480347,0.2734920048,0.2802607176,0.2398491963,0.3841475162,0.011065414,0.3276785532,0.2760499626,0.3821729798,0.3099909747,0.1528972693,0.3733408497,-0.153676769,0.2788641829,0.1932286609,0.0326408153,0.1837353431,0.1299391273,0.3541720965,0.1560062655,0.2385647876,0.1762735128,0.2809375369,0.2341437246,0.2572258231,0.3106840545,0.3497598447,0.2754787171,0.055893659,0.1226559769,0.1471690453,0.3480914978,0.37385609,0.264759301,0.3882562454,0.1921649964,0.0642004695,0.0320702291,0.316618086,0.3781056385,0.103577838,0.3821347718,0.3782272275,0.3702799463,0.2334247111,0.2734043972,0.2530095087,0.1292876813,0.0154546044,-0.1727980847,0.101741336,0.1645100601,0.131275073,0.1187701692,0.1909360323,0.2273939309,0.1234223057,0.0851385005,0.207732789,0.0882561681,0.0268482846,0.2947702632,0.1080488418,0.076064203,0.1413845642,0.2395078892,0.0309883937,0.2016353705,0.2005072275,0.0400662645,0.0860598286,0.0704965037,0.3842841747,0.2300282166,0.0283807952,0.0447111498,0.0632392225,0.1375080498,0.1934178776,0.3396491635,0.3074052956,0.1400885426,0.0244929819,0.20240726,0.3389555259,0.1886464203,0.2742743773,0.0348813083,0.3156554306,0.240453696,0.0875268163,0.2485478148,0.0115101332,0.2398686534,0.3611180845,0.1151399112,0.14630904,0.2642360923,0.0812889315,0.3388787134,0.0264661556,0.2699188689,0.3415901759,0.2505344515,0.0393995935,0.1296435671,0.2487901445,0.2297832018,0.2074475225,0.0763513751,0.0334880478,0.3660991126,0.1348472549,0.0370853588,0.232273371,0.0803576984,0.018082726,0.254078542,0.3128328501,0.3597725369,0.2334443206,0.2940423072,0.2442277851,-0.2661850743,0.3074049504,0.0084536313,0.3092437259,0.1681198122,0.2144340843,0.15330519,0.0468906511,0.203985945,0.1673105481,0.0677416162,0.2925437281,0.1206426041,0.3346161034,0.0950518778,0.0372324344,0.1271284589,0.2125936728,0.0306024583,0.0161089954,0.0674292936,0.3426919969,0.0432593052,0.2890726067,0.2201368374,0.0053431743,0.1607535056,0.0659013904,0.133180123,0.3225575943,0.082526456,0.1020082753,0.255999524,0.351781584,0.2649161536,0.2709819175,0.2233376303,-0.1582087687,0.2428688794,0.3156189454,0.337491234,0.3289377526,0.035981366,0.2005479598,0.164627709,0.0662031984,0.2883287637,0.2606031246,0.2952693322,0.3516708,0.2926071081,0.2686481606,0.1296387244,0.0087855799,0.1540258895,0.341877042,0.007808019,0.166707014,0.3723230682,0.1233427367,0.3155549976,0.3098779225,0.2201799712,0.3779779658,0.0501149391,0.172018643,0.2342148315,0.0248626357,0.1091098337,0.0869642008,0.3204162239,0.2264457425,0.233788873,0.1901463006,-0.2609913257,0.1422219987,0.1732311262,0.0570789114,0.3616575563,0.0029246329,0.2990115926,0.0167291646,0.2781882362,0.172356386,0.1157529218,0.3818100852,0.0938936166,0.0168434214,0.1268864531,0.3382016142,0.3781795537,0.2297651796,0.029314614,0.2533826947,0.3246923578,0.2553126675,0.0439442157,0.3799366556,0.016838749,0.1687904697,0.310134507,0.2911420676,0.2045551734,0.1205351603,0.334541869,0.0036540243,0.2042584971,0.0338241082,0.0847958959,0.3724082461,0.0613810078,-0.3795604068,0.3388292416,0.0914761129,0.1135614191,0.1585969854,0.1073429646,0.3738368478,0.333075848,0.1305891494,0.3290736536,0.1988824716,0.3046396205,0.3093611147,0.1660896702,0.136030157,0.0580488975,0.0895424224,0.1352015693,0.321723752,0.2828000596,0.0818914328,0.1629199796,0.1090099883,0.0335770934,0.3830271476,0.2362447535,0.1293136466,0.2103366785,0.141263938,0.1464230669,0.3503176263,0.3174178331,0.344852622,0.2592793741,0.3731544686,0.3778640123,0.1075209872,0.3876556815,0.3040819727,0.0948405783,0.2273449213,0.0201079598,0.0174608661,0.2934497716,0.2478720444,0.1017899455,0.3333022632,0.2644836616,0.3289940206,0.1828778053,0.207853135,0.1212402622,0.2546434567,0.0312052788,0.2502866766,0.262802448,0.1936022026,0.1011943054,0.2761093803,0.3090919393,0.1340202893,0.0073252853,0.2828498863,0.1585416381,0.2364699102,0.2076574003,0.197829012,0.0012978327,0.1735665549,0.3526641523,0.3036486436,0.1194357094,0.0960990222,0.1075636685,-0.1615593038,0.3656566564,0.1599184477,0.3331213688,0.236361124,0.3225868078,0.1440144155,0.3261401478,0.2337384801,0.0349037109,0.0565772453,0.0838265618,0.3782784186,0.205831926,0.2570377663,0.2240739542,0.0061021499,0.2463617393,0.1775911798,0.2390047039,0.0876572146,0.3256946492,0.149009175,0.2248496484,0.3276214478,0.0847229925,0.1548638619,0.0803646936,0.3705098123,0.0890010588,0.2199390368,0.2862206372,0.1682896413,0.3825503772,0.3651107219,0.1633815731,0.0786134218,0.2739658163,0.036186033,0.2354294968,0.1857541971,0.3721817226,0.2605526855,0.3345322676,0.3782739255,0.167497424,0.1947514533,0.3073192364,0.1120315089,0.0133928982,0.181557549,0.0695850079,0.0182263862,0.3814125636,0.2199292228,0.3215508239,0.2755159429,0.0504871724,0.1245885885,0.0059856853,0.1332720649,0.0324720417,0.3810070755,0.3034256015,0.0278636659,0.1036807486,0.2963574724,0.1448309485,0.1413046802,0.2110654429,0.2734042582,0.0137980601,0.3092042904,0.2445214079,0.1196827119,0.0022873578,0.1698446759,0.1792590958,0.3046277211,0.3867236757,0.2090718347,0.3416861767,0.3095955146,0.2630108818,0.3063014299,0.1875329786,0.2864537553,0.2632625577,0.386740058,0.1029978627,0.3828046292,0.1491078226,0.2651799092,0.2743888653,0.3039874128,0.1566508396,0.2961647923,0.1185303109,0.223289915,0.3469260921,0.0561864567,0.0617384998,0.198611809,0.0304444538,0.3319047775,0.0355344171,0.2391598746,0.0749856267,0.0045100162,0.3848428919,0.3115826584,0.0677520048,0.3065801399,0.1885789132,0.0333941545,0.2709422431,0.1247954283,0.3151011659,0.0194259679,0.2289486575,0.1342999448,0.2917406927,0.3405041633,0.1218722714,0.1122742765,0.3159030477,0.0083751568,0.3881257489,0.1491417008,0.1572171222,0.3547160763,0.2747936339,0.1467159774,0.2361947792,0.3536490504,0.0747378558,0.1380066033,0.1242599007,0.0371487354,0.1458568009,0.0838915975,0.3580754402,0.1566610004,0.0346994044,0.1471657339,0.1442786952,0.0016893042,0.1412240035,0.2136085999,0.2215975879,0.3191116034,0.0135958296,0.0062153433,0.0596625868,0.2187637652,0.2851348406,0.0781265272,0.1426081472,0.2578179707,0.1467902787,0.0463188448,0.2163136941,0.0381480336,0.0496527364,0.1482854801,0.3409494953,0.040674884,0.1604827957,0.1505996916,0.0937922731,0.1875789088,0.0064491437,0.274940667,0.0709594181,0.10662244,0.1589502595,0.1960002316,0.1115918726,0.1234516381,0.1936774893,0.1274866521,0.0198652129,0.1485725746,0.2693067616,0.3834925765,-0.1034874516,0.1269304152,0.2836501239,0.2227266703,0.0762759808,0.0001956585,0.006823682,0.0505999762,0.2285714006,0.1627370324,0.1331429916,0.3552759144,0.1997248617,0.0284549227,0.2623811804,0.2582223464,0.3667332342,0.0402957411,0.1718093416,0.3105303195,0.1822380757,0.184017097,0.0385232875,0.0091574676,0.1890601116,0.0778989491,0.0163811352,0.1436747488,0.0143585947,0.065075376,0.3488392989,0.12687867,0.3609529095,0.0144641837,0.0080797033,0.1233201185,0.3353739164,0.0484666103,0.2237438136,0.1866038337,0.2180096832,0.2231954378,0.3721416434,0.1471403742,0.2148193498,0.3079283091,0.149567308,0.00331938,0.0547979988,0.0595299972,0.1729842133,0.087120592,0.0932815578,0.0826259005,0.0196349127,0.1936532753,0.0980022938,0.3098732513,0.277067229,0.2893492511,0.3344658752,0.0241943665,0.1291373071,0.3084827278,0.2546620197,0.108145834,0.2657815866,0.3854849867,0.3043632766,0.2831906405,0.2524550095,0.1194891391,0.1637864175,0.1402940144,-0.1534062434,0.1061874458,0.2723825174,0.2745986804,0.0927996467,0.0326487424,0.3415807447,0.3681825276,0.0529302792,0.0594966319,0.3722567575,0.344849485,0.2198980763,0.1933475289,0.2597970163,0.0159558902,0.3603810478,0.1459263048,0.2766119358,0.3873230062,0.3787670406,0.2746328707,0.1659681197,0.2814816457,0.0540456752,0.3683635632,0.2298219484,0.1886923706,0.303828315,0.0957282046,0.3494330417,0.2369729439,0.3446122671,0.3495187293,0.2979301671,0.1728738137,0.115558016,0.2227666428,0.1965555063,0.1657656253,0.018036965,0.1794122918,0.2275758404,0.1415432598,0.1919796035,0.0548380045,0.2521948418,0.2754499686,0.3734235364,0.2646645091,0.0731857411,0.3082149539,0.1160914696,0.0184760608,0.1176801413,0.297765072,0.143072182,0.2781774113,0.2955968419,0.0892378742,0.2803115611,0.0394940737,0.2559952215,0.1466500678,0.3325752126,0.1229149944,0.1323488289,0.3077269082,0.1187975399,0.1848346657,0.3402794779,0.3497523891,0.1867228315,0.0961822769,-0.0880232707
biasActivation=0,1,1
[BASIC:ACTIVATION]
"ActivationTANH"
"ActivationTANH"
"ActivationLinear"
