encog,BasicNetwork,java,3.2.0,1,1360554847757
[BASIC]
[BASIC:PARAMS]
[BASIC:NETWORK]
beginTraining=0
connectionLimit=0
contextTargetOffset=0,0,0
contextTargetSize=0,0,0
endTraining=2
hasContext=f
inputCount=36
layerCounts=1,43,37
layerFeedCounts=1,42,36
layerContextCount=0,0,0
layerIndex=0,1,44
output=0,0,0,0,0,0,0,0,0,0,0,0,0,0,0,0,0,0,0,0,0,0,0,0,0,0,0,0,0,0,0,0,0,0,0,0,0,0,0,0,0,0,0,1,0,0,0,0,0,0,0,0,0,0,0,0,0,0,0,0,0,0,0,0,0,0,0,0,0,0,0,0,0,0,0,0,0,0,0,0,1
outputCount=1
weightIndex=0,43,1597
weights=0.1585435474,0.0043399626,0.2234822142,0.1617431055,0.2665482975,0.3422425784,0.1727308434,0.2811835628,0.0693294988,0.1487370213,0.2357226646,0.2441488092,0.2592883546,0.1074329279,0.0622596607,0.3169720048,0.1794996112,0.3076337633,0.3439622717,0.0681373539,0.2810130016,0.1682262606,0.0700740762,0.1534098067,0.0842256383,0.010777375,0.2716263053,0.329792074,0.0648439341,0.1636245574,0.1625420852,0.3140543418,0.1763108909,0.0962740835,0.2018367136,0.0120804265,0.1978696451,0.3243891746,0.2775838055,0.0042094196,0.1606665453,0.1900538604,-0.3266844028,0.1299902404,0.0473531021,0.2830266761,0.0076243983,0.2346678482,0.0878423147,0.1695452325,0.1660474779,0.0237560856,0.2371313895,0.044299489,0.1076766391,0.356632943,0.3270923456,0.0566827739,0.2002432668,0.2770539125,0.2025459859,0.0540190236,0.2242782547,0.0927266496,0.3116602078,0.2897078703,0.3306906104,0.1819422704,0.0085810505,0.24909126,0.1274107744,0.2017558605,0.1232932512,0.0675105068,0.182720997,0.1115426113,0.3431134283,0.0816554925,0.0527470554,-0.1800128937,0.2185176796,0.0833112218,0.3613023305,0.3318971198,0.3084526419,0.2545129261,0.2858713779,0.2725486678,0.2172738264,0.1666368535,0.1021537113,0.0995708532,0.3289533393,0.0376732089,0.1538472672,0.3280554149,0.1328086532,0.1516689232,0.3070209799,0.1043134763,0.189835405,0.2388564169,0.2478979381,0.1145156148,0.3191670294,0.1148310272,0.3037393286,0.1527045132,0.1808459674,0.2535155642,0.149280987,0.0731938843,0.0043231759,0.1044732405,0.0662949863,0.0057457905,-0.3635941297,0.237946682,0.3357707135,0.3505656905,0.1984449113,0.3591681649,0.3125769546,0.1199733781,0.0322137018,0.1315326017,0.3466837261,0.3511505013,0.1673054296,0.0018713136,0.3721284707,0.3036099901,0.2407776452,0.164871519,0.1365477767,0.1982695237,0.0554431073,0.0601089596,0.0259509358,0.220729803,0.0823975779,0.2100686006,0.3841222431,0.3183991206,0.2081056186,0.0628789349,0.3570214165,0.3373943671,0.0423684782,0.0860446499,0.3385950437,0.1213663005,0.2634278562,0.0388019398,0.3004255733,0.0593320599,0.3573046215,0.310745283,0.0359826509,0.3403325412,0.0184903966,0.3874452011,0.0458798739,0.0033949027,0.2008237325,0.171164349,0.2256177525,0.1023697071,0.287059441,0.2756291369,0.021561575,0.2987168761,0.0832801043,0.1747566802,0.044643539,0.0886820471,0.1224228059,0.1097301894,0.2052044347,0.1124940736,0.0045790771,0.122921595,0.3413442356,0.331380758,0.0777332401,0.1577123883,0.3342806319,0.197753537,0.3629774673,0.0642783219,-0.2223887688,0.3170924944,0.305582046,0.0596604591,0.1309949443,0.2619616487,0.2945075309,0.2220630815,0.0351273986,0.2340427992,0.257025297,0.1084276022,0.3080573367,0.1372384208,0.2517831931,0.3582612081,0.1338700205,0.3548693548,0.2363958178,0.1961951063,0.1704792142,0.2398014361,0.196345221,0.2990363235,0.1781985273,0.3039951959,0.1175129776,0.1415014892,0.1510511193,0.0096711029,0.0191580557,0.3367563776,0.0184042164,0.0554649615,0.3312719209,0.1605776597,0.2410984665,-0.2568016857,0.358522822,0.3209896009,0.3725469091,0.333009904,0.2360783032,0.3438973668,0.1302761471,0.2679196909,0.1402845664,0.2308348446,0.1583499273,0.1811799312,0.3401317739,0.0373848651,0.3652737275,0.3236683238,0.0759166845,0.0702296191,0.16557616,0.0573348693,0.1865432157,0.0662535947,0.0514575157,0.0025432444,0.0950852168,0.1312869478,0.0990267285,0.2533500198,0.1176025882,0.3526425716,0.3087639716,0.1508545213,0.1424219517,0.049742122,0.1934725612,0.0846389216,-0.1723005837,0.3303808974,0.2693034915,0.0077547984,0.2750925039,0.2214576381,0.0608925373,0.2748343902,0.0559708313,0.3382790998,0.0699295273,0.3813992185,0.3660291267,0.3152946041,0.3410964541,0.1893692618,0.36003147,0.3289594898,0.1511290548,0.1579982628,0.2030629289,0.198612414,0.0102523765,0.3062812119,0.2091674163,0.0931481588,0.2491710518,0.0752512833,0.0946794026,0.1463101177,0.1603368512,0.2184616619,0.2629785314,0.2486299746,0.0123548901,0.2199984472,0.2487345646,-0.2118842317,0.3089197549,0.0317758639,0.2433898958,0.2338055889,0.1629387211,0.327930317,0.0055854125,0.3028256444,0.1879077691,0.3069225715,0.084037261,0.1267435555,0.1170657677,0.023219368,0.0456205124,0.2223730933,0.2540576227,0.0611852549,0.0202157147,0.0057693814,0.1091275944,0.1159292269,0.3043688775,0.2968434611,0.0855216964,0.2091371325,0.1669438754,0.3720034632,0.0441094185,0.3477525084,0.0156541344,0.0794292538,0.1384312914,0.1155498264,0.2297686719,0.2620790761,-0.3494133574,0.3341652423,0.1876635753,0.1912264669,0.009255892,0.269800299,0.0900089682,0.2602249781,0.1660491254,0.0642783893,0.3714537966,0.3726539712,0.0359653933,0.1140471633,0.1617496633,0.2428360515,0.3131648417,0.2996585535,0.3164971887,0.1310295672,0.3544633455,0.3456983183,0.1266793195,0.035446235,0.3873218373,0.2041280822,0.1201044487,0.1171651367,0.1662533699,0.0854627115,0.1860230577,0.3869187348,0.3226558825,0.1175081717,0.3404683971,0.1311644346,0.0703741545,0.0360433728,0.1351829316,0.2095737068,0.2186662735,0.0102074269,0.1455206053,0.2385612145,0.3141222332,0.2631890225,0.2061917188,0.1095543175,0.0652462104,0.1725978594,0.2092866537,0.3145434653,0.3394951889,0.014953325,0.342613618,0.1961679156,0.3819670987,0.3063130199,0.079656125,0.0320448671,0.051566132,0.0047320648,0.104684621,0.0588979677,0.3634454597,0.2709293064,0.0297340647,0.2416814487,0.2257384114,0.0375067947,0.3346824686,0.3554338252,0.3152829125,0.0121866047,0.3459345735,0.1876229118,0.3444864664,0.001081075,0.043751791,0.1150522614,0.1187595613,0.1778960311,0.2153630326,0.2439439763,0.0170986378,0.3531699206,0.328200894,0.2670164428,0.314625268,0.3652530332,0.3604045304,0.1501884177,0.1374226545,0.2042504451,0.039928705,0.3149265558,0.0680662909,0.1944763723,0.1816160871,0.2950860145,0.0316868762,0.1810903877,0.2609385442,0.0257092444,0.3525053008,0.3466373023,0.1312213144,0.1042197217,0.1474675482,0.268101424,0.1709918362,-0.3305335598,0.2074962774,0.024032194,0.0517245211,0.1098535081,0.1290593722,0.0055795093,0.3876290795,0.0947190216,0.0386044548,0.2021570251,0.1780395933,0.0114048566,0.0830060439,0.366838401,0.0563835996,0.1505276195,0.0086787393,0.0067779387,0.1314455175,0.275502005,0.1209884685,0.1323533236,0.0816427901,0.2989248714,0.3050072067,0.0505127158,0.190230075,0.1665477521,0.3535951849,0.2555742975,0.1350040418,0.2282409214,0.0683301597,0.2565635475,0.2882430792,0.3391676771,0.0868677284,0.301958901,0.0842663122,0.0937366416,0.0208879387,0.3737835345,0.0554909438,0.3595674145,0.3110025136,0.2617380614,0.2750126658,0.3667332222,0.3375376917,0.2238683459,0.2056424169,0.257906626,0.1798573651,0.166240026,0.2416060999,0.3036988586,0.1561378625,0.3131639167,0.2363019062,0.1674870117,0.2048020911,0.1302594413,0.1809968904,0.0117988394,0.1726774005,0.0440274939,0.3186119009,0.3577541161,0.000576714,0.0454045031,0.3008071901,0.3123159361,0.1564030279,-0.166401088,0.206435523,0.1822671246,0.0574206523,0.1878876872,0.2394857102,0.1365072717,0.0138215397,0.3702100708,0.1294916344,0.3842413998,0.1283754486,0.2183794403,0.076814397,0.2162497244,0.313894845,0.1994413232,0.1894663712,0.0974183898,0.3122821657,0.3612875698,0.2789112052,0.1845541594,0.2252782865,0.1087110249,0.3112845408,0.1682674711,0.1138168794,0.105476374,0.3486975994,0.3721977769,0.2325304053,0.0201675791,0.1807537031,0.0602094286,0.1779860932,0.3493936576,-0.0347778973,0.269203304,0.0104528808,0.0165402636,0.2500347182,0.1600122757,0.2331121129,0.2555549445,0.0201843936,0.0837657714,0.1825104496,0.2357066757,0.3299625562,0.0475299047,0.0753354635,0.3675850798,0.0236927937,0.2795447575,0.0898031523,0.3184069277,0.1511520554,0.0835778463,0.0408535607,0.3425776866,0.2224269094,0.2819825709,0.1023944989,0.0123253356,0.160225911,0.1775975241,0.2272310594,0.3280753911,0.114335527,0.3594251927,0.0170302667,0.303082112,0.1379916308,0.2538735871,0.151941422,0.3549552906,0.0214734827,0.2980150204,0.3257380372,0.2685399184,0.3127208768,0.2101958631,0.2450804422,0.3687066946,0.1858056279,0.2351536446,0.0349474872,0.0932860139,0.0314606002,0.1689804951,0.0693034899,0.1240340917,0.2328500213,0.1826929095,0.3435187789,0.1977546839,0.0215509633,0.3710480058,0.2941593664,0.2062507346,0.0360773974,0.3041715124,0.28762737,0.1237429841,0.0047986055,0.0544090458,0.0173916169,0.103914832,0.0057220008,0.2245687007,-0.0328637495,0.1385620161,0.2203773197,0.1998453056,0.1491529657,0.2264060883,0.0876073472,0.0193303588,0.3010163256,0.0747179237,0.366218226,0.1697702504,0.3746390588,0.102121632,0.3492904326,0.1904092045,0.2955108452,0.1146782364,0.0496048865,0.2755795592,0.2169412801,0.2334268014,0.3035225929,0.3638852868,0.091038205,0.1732229797,0.2752595274,0.3492972441,0.0639000826,0.038186052,0.0404765868,0.0354327409,0.2386554659,0.0630390337,0.1601930812,0.0240708615,0.0612726275,-0.2528744481,0.1245921106,0.1274691566,0.375289681,0.0082462484,0.2465071867,0.3124727103,0.3076879056,0.2062488783,0.0270082554,0.3359782259,0.0777392588,0.0027409992,0.194605169,0.3442582862,0.0595569679,0.2017719806,0.0094188106,0.155701182,0.141014028,0.1019427276,0.0923947639,0.3071491501,0.3521412571,0.0709500726,0.2117946651,0.3090009657,0.1933320662,0.3389753213,0.3463390738,0.3752268474,0.1732551924,0.2174872521,0.1124957767,0.2359007504,0.3059203752,0.2182634061,0.2611858663,0.2616890257,0.1089566777,0.0619633498,0.0732005133,0.2135028559,0.3743320848,0.1663482232,0.2029317845,0.2468729197,0.2972209989,0.0835364345,0.177191349,0.0735168359,0.0757789212,0.0392547962,0.1905734404,0.3583138186,0.2021357104,0.348651398,0.2090299201,0.1739137539,0.3625912424,0.3666959851,0.1143777901,0.3010572046,0.052389853,0.0907008632,0.0612253181,0.2822082803,0.1714453835,0.073423498,0.0019410029,0.1154730082,0.0019847247,0.2836145391,0.3388637899,0.1418676955,0.3747890158,0.0467843267,0.2333129899,0.0837261354,0.1574205349,0.3772537573,0.3121983568,0.0870940587,0.3058288782,0.2722686488,0.0413407249,0.0562975131,0.053183354,0.262446209,0.1715665033,0.2094921592,0.2425332801,0.1002535213,0.1391531392,0.0201908133,0.1373488462,0.3808510785,0.2692774801,0.0894487515,0.0356621289,0.0437550509,0.2665065272,0.3329056132,0.1603543888,0.3694631405,0.2257729565,0.1402295753,0.0828771134,0.1094479223,0.0169166534,0.1433313073,0.1698524586,0.2212643489,0.0978535117,0.1914005201,0.0758851793,0.2451648442,0.1441123179,0.3836258596,0.3145346765,0.2747667947,0.079458591,0.0071587881,0.3636463771,0.0417399757,0.0902506779,0.340082827,0.2248350729,0.3251827903,0.3503546932,0.2523230547,0.3878695223,0.3602198135,0.0007475596,0.2055748663,0.3834825233,0.1884900552,0.0671166764,0.0488489095,0.0045563868,0.3335329423,0.055973914,0.3688903869,0.3336545478,0.2638142314,0.0239459075,0.1764406331,0.2834232015,0.270182114,0.1427313801,0.3304009179,0.3131349093,0.3483320738,0.0177267303,0.1001422316,0.0858093206,0.1677963741,0.2674496907,0.2305696965,0.383053854,0.1037659511,0.2985134554,0.0140839948,0.3504307726,0.1596364197,0.2686623029,0.3090474814,0.2577767468,0.0111108861,0.2754545581,0.1613322341,0.1563945464,0.3519501868,0.2014326544,0.3101365935,0.2621521291,0.1941405972,0.170573643,0.2707431517,0.181604183,0.0734180862,0.1454333849,0.1708930711,0.0564843467,0.0253985476,0.35895885,0.1073357059,0.1498696275,0.1180708564,0.2269131326,0.318875183,0.0207983411,0.360576977,0.0972180773,0.2883115942,0.2546197914,0.221303876,0.1886910709,0.0036191731,0.1914484669,0.2486715278,0.1994554615,0.2841724828,0.3359304611,0.0766137909,0.2691433395,0.3371257253,0.2826171899,0.2535490846,0.2540259691,0.3287542699,0.00365814,0.1572649262,0.2004245403,0.1777033624,0.1511121717,0.1572517682,0.0092589784,0.0805637333,0.2785003105,0.2573334023,0.2224936938,-0.0894213248,0.1599429168,0.268485635,0.2020512086,0.1767995584,0.0423299196,0.3646117929,0.3407499484,0.0799321976,0.2166476234,0.1251411037,0.1840437117,0.1048809583,0.1008185599,0.03250873,0.3648259685,0.2330573088,0.2423324331,0.1255208899,0.1580302522,0.2801792846,0.1897127889,0.2809885095,0.2568251419,0.209582569,0.2649558398,0.0712682422,0.223873886,0.0074623283,0.3687564489,0.1166204981,0.0260697294,0.1412197121,0.3689232243,0.3508173642,0.1790379003,0.1854765538,0.1497469978,0.050058553,0.0576674819,0.0655796674,0.0535460054,0.3287966061,0.2329914595,0.2965715441,0.0099219495,0.2356637854,0.141234315,0.213919936,0.1446192748,0.2526440793,0.1737800967,0.288105349,0.3224036471,0.3696506094,0.2226858031,0.1729070405,0.0165646119,0.2711365765,0.0582105299,0.1880159614,0.2285372503,0.0377877059,0.1747053777,0.2951966269,0.0644999015,0.3521942524,0.1580858665,0.1013141968,0.2157953283,0.2422180967,0.2497805307,0.2882853293,0.0480773009,-0.1990781314,0.3217514922,0.2249909945,0.2434353336,0.3330731904,0.0938525792,0.1037502513,0.3342623275,0.1442829157,0.1721607268,0.2276134696,0.1010164455,0.1993041479,0.1200766847,0.1919355064,0.3496679876,0.1863571844,0.1065744577,0.1549999708,0.1867048353,0.1970921572,0.2085486929,0.2256777169,0.2988870552,0.3127839192,0.0537473091,0.0726430361,0.2679258948,0.3219853089,0.113933126,0.1532375971,0.2652907257,0.0366245342,0.0307792601,0.0238328476,0.0966646225,0.2279829764,0.2614966535,0.1601323654,0.2268394772,0.2759469734,0.0379230437,0.0380472284,0.0244105857,0.2406938272,0.3372497234,0.0995552601,0.3453145299,0.2900256519,0.0330453857,0.0212471918,0.2471084787,0.1141397742,0.1121376746,0.2130170774,0.2078675277,0.1864539073,0.0479294963,0.2333739742,0.1255913887,0.1436887097,0.152218273,0.0121233204,0.0680695429,0.0699724844,0.2173872385,0.049081164,0.2889226749,0.0256667075,0.0336150255,0.0553108678,0.2414598153,0.2028145074,0.2009305999,0.0829517536,0.2295563042,0.2702784263,0.0364144174,0.1899767921,0.3437537719,0.0424783379,0.2918680439,0.3708200578,0.1162655572,0.1993649566,0.2996118442,0.3528448808,0.1569429804,0.3325827514,0.0048025621,0.0360008175,0.1161878915,0.2478167945,0.2399983626,0.0228996665,0.1226737079,0.0941918547,0.1251697737,0.0421353733,0.3217036414,0.0762740177,0.3842445281,0.2841280787,0.3359477005,0.2649556804,0.3230201719,0.2020422593,0.2037284287,0.0197854924,0.3180890869,0.1270421371,-0.0435830857,0.2032216917,0.0619972696,0.3057962882,0.1046992508,0.2922481485,0.1438292245,0.071081738,0.3250544437,0.1634846972,0.1476559846,0.0114270097,0.0040613081,0.2293579028,0.1207498157,0.2715144624,0.2301449555,0.0373951753,0.0265871575,0.3314674159,0.2051408447,0.338168479,0.2494560927,0.1744073773,0.1922673346,0.283293723,0.0233947094,0.2372489614,0.1469407007,0.3111308238,0.1049795027,0.2793573503,0.2363837157,0.1921400909,0.3265103923,0.2496300913,0.1838898193,-0.1570986541,0.0971832229,0.0657772367,0.1619595968,0.3835342262,0.2796604682,0.1312384883,0.0131862617,0.309548128,0.3862725031,0.2141158626,0.3611198076,0.2143411971,0.0797038872,0.0250169467,0.3400783046,0.2266303028,0.3792497629,0.265620103,0.2756039928,0.29409842,0.0893810892,0.1141365433,0.1017017455,0.0172003863,0.2770598235,0.0461629994,0.0636000453,0.2072791495,0.0598389188,0.1880837339,0.3051744719,0.1734213947,0.0265736769,0.074810877,0.2724342352,0.277569182,0.087839739,0.2085088591,0.0054585927,0.2866490057,0.0593453817,0.157794284,0.2345480525,0.3864197546,0.058583656,0.3474537778,0.3323396153,0.1127994332,0.1420199368,0.1251229959,0.2724751214,0.2156770174,0.2896339803,0.2325245654,0.3447197061,0.1089588168,0.1378890043,0.1631963704,0.0819729183,0.333367005,0.277910578,0.336983444,0.0391364407,0.1322656963,0.3634940245,0.2352927944,0.1263361419,0.1441612179,0.2282557452,0.0073856794,0.3092282683,0.1369657236,0.0978330777,0.1448650439,0.1583598235,0.0835851076,0.345632966,0.3086758662,0.2338209865,0.2016485829,0.2763464776,0.1443872711,0.3439575492,0.0004299111,0.0024558112,0.160845291,0.3225122734,0.0337935249,0.1906702461,0.0578322532,0.0746324738,0.1357004978,0.0312350947,0.353880704,0.2535264251,0.1372818753,0.2448564506,0.2102862827,0.136952472,0.3313324131,0.050602288,0.2263334764,0.3151541179,0.3246463732,0.0066118102,0.3403265395,0.025746258,0.188237968,0.3029745552,0.2352177431,-0.1475834271,0.2836129172,0.3037726212,0.3259657196,0.1462363876,0.2722711742,0.1060653144,0.0562150913,0.0138409967,0.0153097939,0.3518807833,0.3490910648,0.1093881782,0.2925635872,0.2609002828,0.1999540585,0.2287544848,0.0000516656,0.0221005919,0.354062548,0.3417933128,0.36934475,0.1595215855,0.0838228084,0.2754664554,0.2670948412,0.3709463381,0.3308861973,0.349972528,0.3449698321,0.2355206703,0.3509375224,0.2328723736,0.3598764818,0.3098664037,0.3324083735,0.277978165,0.266687735,0.3064365352,0.2401194184,0.22434289,0.3438639199,0.2034341417,0.0086337345,0.0689108399,0.0535082124,0.3740956163,0.3224001027,0.3065411788,0.3831701837,0.3727483834,0.256385428,0.3453338021,0.1420220198,0.0621618731,0.0488867387,0.0939676506,0.0037916482,0.050853675,0.3605942222,0.2899288159,0.350299033,0.3447843084,0.2313606512,0.0500740439,0.199855993,0.104312001,0.0205430337,0.3301500495,0.2091377583,0.0568377331,0.0945869067,0.26019192,0.3758773886,0.2978661305,0.2197913797,0.0545713142,0.2307943302,0.3527949425,0.3807299777,0.3644310099,0.0765149376,0.344156205,0.1019120921,0.1354129199,0.3785609206,0.0915751577,0.0092477112,0.1545651487,0.0207283916,0.0735015816,0.3131695177,0.0439649027,0.0863122709,0.1680553145,0.2965560081,0.0477047689,0.1606331876,0.0312414844,0.0728287552,0.1392470605,0.314901849,0.3510269147,0.1617715855,0.3583359479,0.3482671786,0.1546399872,0.1795386043,0.1107684695,0.0752329092,0.2414690388,-0.1512938191,0.3288382403,0.3598415054,0.1538425317,0.1852074328,0.2201215873,0.1360801128,0.1421143182,0.2545605695,0.3054179711,0.0070395061,0.2451344842,0.1975011454,0.2344626897,0.3279628621,0.056108839,0.2947499248,0.0595857847,0.1620007821,0.3234720487,0.0077391817,0.361008455,0.2489568928,0.177434182,0.0693973379,0.3308878665,0.1836140267,0.2089066472,0.3750854001,0.0463300369,0.073480062,0.1201630489,0.0789961866,0.0085819167,0.143447267,0.2039697581,0.1345394762,-0.3650955397,0.2036203841,0.0550706342,0.2269772578,0.1050319024,0.0384582583,0.1312828997,0.3664416897,0.2246061077,0.1528150371,0.0299435572,0.2127644985,0.1434048549,0.3117488995,0.1655243879,0.1701375892,0.0348721175,0.2550969535,0.0596707268,0.0479021884,0.2480491326,0.3338630366,0.2699958916,0.1331638431,0.1295702892,0.1829015683,0.1746468822,0.13860046,0.1903694948,0.136621212,0.192899044,0.1742071938,0.0303442885,0.0022558788,0.1013843015,0.0868276609,0.3303031838,0.2289004174,0.1340459131,0.2795061118,0.0268508553,0.2722394513,0.2877604895,0.1186531882,0.1715688962,0.0748569798,0.3483408237,0.3240980293,0.0698800712,0.1224316996,0.2580245642,0.2149044294,0.0532305815,0.0030541119,0.3791951913,0.3141822032,0.3272531157,0.1049698491,0.0870547838,0.2704037721,0.3367265287,0.1239128789,0.2652774802,0.154189985,0.139935696,0.0183646026,0.0082603735,0.0456221085,0.31042461,0.1572040973,0.3366953248,0.0806866487,0.3670076932,0.247011502,0.2210646452,0.1014093863,0.2957132546,0.2578017475,0.196698392,0.284258844,0.2266949726,0.1140258407,0.2329048774,0.3450334422,0.0518300253,0.1266279119,0.3001069718,0.2790738491,0.0289199314,0.044025688,0.0767654465,0.2903766248,0.2639181446,0.2213931314,0.3177388338,0.2300376507,0.3241388906,0.0627612153,0.0243171151,0.1844187531,0.0173670895,0.360609998,0.2219364896,0.331881385,0.127355664,0.071193373,0.0662860421,0.3077480131,0.3434084486,0.0421438156,0.0297810319,0.1234024479,0.0796084817,0.0511521522,0.1468187045,0.1251254546,0.3322071328,0.2351347046,0.0620297458,0.0010134972,0.1980418775,0.0099454594,0.0968956631,0.2240771241,0.3637759118,0.2885284793,0.178261025,0.0866658448,0.2124659951,0.3449459552,0.1403479015,0.3692639418,0.3119748026,0.0047852516,0.0404097437,0.2902281989,0.0994981853,0.2999214818,0.1902766194,0.2993762505,0.0885234936,0.3278572337,0.2241979493,0.1075610365,0.0756224528,0.0477850239,0.1336693139,0.2830760238,0.1236225033,0.0745187406,0.2121202839,0.3327470753,0.1841586737,0.382756978,0.2927425892,0.1007501289,0.3694302312,0.2137120615,0.2708884705,0.200683863,0.0964985723,0.3146752286,0.1837398246,0.2637054763,0.1807982527,0.115214346,0.334805239,0.1654305443,0.2333303062,0.3328075306,0.0036547243,0.0605047962,0.0069541334,0.184478237,0.3740749224,0.2930415144,0.3608519585,0.1772913155,0.0534194587,0.3191385261,0.1533620198,0.1585999573,0.2231694466,0.2646595784,0.0681766903,0.1791707917,0.0041314617,0.232791215,0.1595750214,0.2968677311,0.0477760933,0.0934603816,0.1931190053,0.3186483894,0.0099653453,0.2149627077,0.2826704123,0.3710764728,0.007883435,0.3678210562,0.0894139166,0.2890394207,0.3324036249,0.3258483565,0.1879647112,0.0002889065,0.1013860572,0.1535751385,0.0922930703,0.2361941711,0.1204113221,0.2172144656,0.369550485,0.0888773939,0.1047859416,0.1042939189,0.386696914,0.0798324324,0.3594632141,0.0391161348,0.271513551,0.1759594573,0.1008621558
biasActivation=0,1,1
[BASIC:ACTIVATION]
"ActivationTANH"
"ActivationTANH"
"ActivationLinear"
