encog,BasicNetwork,java,3.2.0,1,1363395496263
[BASIC]
[BASIC:PARAMS]
[BASIC:NETWORK]
beginTraining=0
connectionLimit=0
contextTargetOffset=0,0,0,0
contextTargetSize=0,0,0,0
endTraining=3
hasContext=f
inputCount=12
layerCounts=1,11,21,13
layerFeedCounts=1,10,20,12
layerContextCount=0,0,0,0
layerIndex=0,1,12,33
output=0,0,0,0,0,0,0,0,0,0,0,1,0,0,0,0,0,0,0,0,0,0,0,0,0,0,0,0,0,0,0,0,1,0,0,0,0,0,0,0,0,0,0,0,0,1
outputCount=1
weightIndex=0,11,221,481
weights=0.0508672859,0.3216460511,0.1542488543,0.2224061449,0.0021376,0.3450452657,0.0534238944,0.2398642716,0.133708646,0.072873489,-0.1535541756,0.3791095466,0.0941489477,0.2840059838,0.1287077595,0.355721608,0.3004449376,0.1259756196,0.3509820489,0.3194188469,0.3192801614,0.1723768141,0.2698188049,0.2016495964,0.1123828408,0.3657057369,0.2180021416,0.1806083814,0.1201422171,0.2685613873,0.139921453,-0.0800206295,0.3210790767,0.2534620222,0.2066643157,0.0616603495,0.1286103525,0.3667707713,0.2328743797,0.047358195,0.3065946031,0.3435753057,0.1339857589,0.2716272026,0.3602567348,0.3451612651,0.26346352,0.2500979407,0.0216243381,0.2576719445,0.1264451657,0.0096946177,-0.2469859039,0.1494280341,0.2130486859,0.0708254213,0.0242720317,0.0269326101,0.1837881397,0.0664829275,0.2945915819,0.2421864604,0.1760221287,0.1399005815,0.0665790273,0.25644738,0.3177265522,0.1722542098,0.2027250504,0.237068748,0.2235487826,0.0930959593,0.0324127463,-0.2846666172,0.1748512267,0.1730726132,0.3538210219,0.2106500657,0.0284083455,0.1773875409,0.0477808726,0.0410473858,0.2929052814,0.1767093743,0.0865769938,0.2512463852,0.0564687429,0.3177919308,0.2191722768,0.0835723739,0.1690259683,0.013444837,0.2021704134,0.1851060998,-0.2771011487,0.1811419569,0.1609955433,0.1488163424,0.1979332371,0.0259219716,0.2683540199,0.3405749106,0.3908359055,0.3365114103,0.1421885863,0.3519890584,0.1060808132,0.195198728,0.2617543231,0.3819252837,0.0413070589,0.3904050017,0.2823590586,0.1025363584,0.350688309,0.2830932159,0.2788759611,0.0187284624,0.1960240101,0.2833743947,0.216588638,0.1783132563,0.0914363539,0.0124025966,0.3913268926,0.3896393081,0.3665378204,0.0371166935,0.1753851575,0.2961205897,0.3636287621,0.1646804244,0.0700109286,0.3051637642,0.0518413415,0.0152984053,0.0197204031,0.1569891053,0.366360028,0.0900467159,0.2355686108,0.089358565,0.1888745689,0.325166242,0.2394780785,0.2615778627,0.0106165399,0.0646890995,0.0947434353,0.332669845,0.1931598037,0.0487150608,0.3088089877,0.0673496975,0.3715610925,0.1580155838,0.2631434349,0.016637615,0.3474018089,0.232011536,0.2473588097,0.1896116934,0.0707303985,0.1253041831,0.2106571139,0.0065856853,0.1514481057,0.1293098774,0.3514282612,0.1311334464,0.2421908507,0.0050621998,0.1555212984,0.2133780796,0.2315590718,0.251866302,0.1948224683,0.0096099932,0.0980493031,0.0972449135,0.352130549,0.2724968843,0.1895620464,0.3436159871,0.380100102,0.320274237,0.2181238279,0.2747792073,0.2408097323,0.0312931342,0.1861923182,0.1393757002,0.3175285565,0.1524433358,0.3371107954,0.2498404959,0.0259477404,0.0106452031,0.0136678326,0.0148344951,0.1451220682,0.267557337,0.1294053989,0.1582687424,0.2783508213,0.020479592,0.1137955676,0.2750886179,0.0784706919,0.2653604097,0.2623626592,0.1382735702,0.3610345163,0.3564785559,0.0638355189,0.1968199129,0.0021997758,0.3692008097,0.3313384954,0.0339931559,0.119968366,0.2007068574,0.1565932862,0.3141123365,0.1810914445,0.2931630249,0.2853850899,0.4129121486,0.3959827874,0.3590088902,0.2977061527,0.056822523,0.1892842334,-0.3017525033,0.1543331426,0.3623767933,0.1098653021,0.0866059438,0.2927089376,0.0554421754,0.3361995488,0.2015475081,0.0918457486,0.1018352234,0.0290569263,0.0113557182,-0.3349006912,0.0110802015,0.3120873343,0.2697069494,0.2901963304,0.084440888,0.1317830847,0.39652673,0.315508517,0.303747242,0.1086479577,0.4044715266,0.2801479885,-0.3924531345,0.4450772324,0.4401289071,0.4377623148,0.039806136,0.1267555351,0.0126816936,0.0101738414,0.0030494664,0.1202100866,0.2221651065,0.097792678,0.4046691813,-0.3292134572,0.0753954871,0.0096577916,0.1696167354,0.0218533613,0.3598183224,0.1039710702,0.322351487,0.4226252842,0.1765835904,0.4272450879,0.3692743223,0.339117069,-0.2472866344,0.2977134607,0.2877438231,0.1210476203,0.3040266604,0.1955716497,0.4471630947,0.1133812139,0.1008604237,0.071893317,0.2500915979,0.2513701427,0.067715768,0.3170307802,0.040726685,0.2991655363,0.2517720811,0.2045640942,0.0009332006,0.4342288648,0.2230949761,0.1688465955,0.280203615,0.4061170485,0.1971935225,0.3520151561,0.3135666246,0.2157680127,0.2675694559,0.0919249422,0.3308986142,0.4464637326,0.4058174467,0.1349705846,0.3840741265,0.4061644248,0.366986335,0.2904356965,0.2067618238,0.1494201002,0.0738411207,0.1835756095,0.2137189281,0.1165313659,0.2573892192,0.0942099579,0.282409345,0.0625382453,0.1025513977,0.068377223,0.1641280516,0.1515839709,0.0660209346,0.4117241549,0.1727567003,0.4020545235,0.203891644,0.0402977092,0.0102115766,0.1668071316,0.0175398234,0.1784681971,0.2109977416,0.1358786203,0.1315580501,-0.4304789941,0.0295856664,0.0228834714,0.3850265671,0.2460290985,0.3322413548,0.3051217941,0.3222643897,0.2123500286,0.4393389011,0.1587323965,0.4353099557,0.3517131726,-0.1743706228,0.1984521238,0.0396217882,0.0532039857,0.4311782233,0.4093148743,0.0934630073,0.0787909598,0.1225952965,0.3785522039,0.2103736252,0.23240523,0.4287799019,0.0855756891,0.0502829733,0.0045417661,0.0820623356,0.1337915226,0.2850746345,0.3851993322,0.072256289,0.2744176565,0.4301807379,0.2440847537,0.3317859796,0.2932759898,0.352077597,0.2689181963,0.2706794749,0.1572109877,0.0423756183,0.4490323486,0.1663017738,0.4425439385,0.1119930682,0.080815863,0.2552007275,0.0473057923,0.2042362223,-0.1861055864,0.2958402952,0.3549482072,0.2434977743,0.2187575241,0.4445768249,0.106195505,0.1664545087,0.270412382,0.3532336465,0.2916072521,0.3538507644,0.33208738,-0.3665992767,0.1074529116,0.0339948481,0.3600299674,0.3346307079,0.3261094988,0.1104539707,0.3178074984,0.3438155224,0.0521619644,0.2341260342,0.3393363485,0.4443962995,-0.3812067795,0.1600243562,0.1892742051,0.3677301363,0.0293401481,0.1726298293,0.3537916109,0.2163696216,0.412112823,0.3374315519,0.3494215856,0.2748034658,0.2075655786,0.1711805714,0.2901858032,0.1422143389,0.0248642102,0.4487514689,0.3188411493,0.4276521878,0.1593385636,0.1744895488,0.068549213,0.1649237613,0.1429500816,0.2609225801,-0.0905717363,0.2150107559,0.4260128259,0.2801696004,0.1674888872,0.2898345737,0.0411940755,0.3844436827,0.305234687,0.2100140236,0.3584615173,0.1777085871,0.2648122929,0.2924438939,0.317343037,0.0076264667,0.0374976745,0.0468210897,0.3076776629,0.4136727523,0.2770983382,0.2519823884,0.2124524648,0.1322025716,0.0538129257,0.2442095696,-0.1650844739
biasActivation=0,1,1,1
[BASIC:ACTIVATION]
"ActivationTANH"
"ActivationTANH"
"ActivationTANH"
"ActivationLinear"
