encog,BasicNetwork,java,3.2.0,1,1362261850328
[BASIC]
[BASIC:PARAMS]
[BASIC:NETWORK]
beginTraining=0
connectionLimit=0
contextTargetOffset=0,0,0
contextTargetSize=0,0,0
endTraining=2
hasContext=f
inputCount=36
layerCounts=1,43,37
layerFeedCounts=1,42,36
layerContextCount=0,0,0
layerIndex=0,1,44
output=0,0,0,0,0,0,0,0,0,0,0,0,0,0,0,0,0,0,0,0,0,0,0,0,0,0,0,0,0,0,0,0,0,0,0,0,0,0,0,0,0,0,0,1,0,0,0,0,0,0,0,0,0,0,0,0,0,0,0,0,0,0,0,0,0,0,0,0,0,0,0,0,0,0,0,0,0,0,0,0,1
outputCount=1
weightIndex=0,43,1597
weights=0.0933577358,0.1414585107,0.278538622,0.1117979509,0.1012533025,0.093212761,0.2655004761,0.0385565707,0.0009897794,0.2859412859,0.1527931757,0.2608374109,0.2792052655,0.0249034028,0.2653218887,0.0096310765,0.279124503,0.2981333857,0.2097847878,0.0190033825,0.1336500171,0.0299808825,0.3003242058,0.2519859927,0.0545292623,0.1771968725,0.3183413493,0.2725092661,0.2239951845,0.266636083,0.1299961164,0.2979704615,0.1797600138,0.2693007805,0.1036145001,0.3056536975,0.1146619864,0.2745428994,0.0488649352,0.3032782391,0.0786222247,0.0207704648,-0.093219852,0.0471777474,0.3619679349,0.341834216,0.259523634,0.2805000591,0.0914684781,0.2166490269,0.3385253098,0.2496690309,0.3601346075,0.0833252067,0.2524205364,0.1502522711,0.0276811497,0.0803225562,0.0814504474,0.3552563031,0.2149804859,0.0312624451,0.0898489095,0.0272938736,0.0116673283,0.333780512,0.2340979626,0.0895050993,0.2770722661,0.0144966374,0.0389696121,0.0855833309,0.2655057235,0.1004515557,0.0279500716,0.2191484474,0.0373258522,0.0451132098,0.3497284624,-0.0752827894,0.2554828655,0.171239855,0.2027947274,0.0314427784,0.0014647771,0.3751572803,0.2166100855,0.2024937878,0.0582574446,0.1015791391,0.265164092,0.2790211672,0.0152718906,0.1543561803,0.2718239861,0.1206389864,0.1139686505,0.3413268428,0.1586873841,0.1856866925,0.2669552528,0.0051011607,0.29956653,0.2486553117,0.205059583,0.0072052732,0.025997564,0.1148826775,0.0295576345,0.3378075406,0.2663343423,0.3302099361,0.1498273982,0.0308717058,0.3813260083,0.2435958936,-0.213280416,0.1404772682,0.0457059056,0.2487129753,0.1372821531,0.1567191826,0.0621974288,0.0483217061,0.0614241754,0.2967770334,0.3023345686,0.1018941671,0.2801369237,0.1049276277,0.2978831822,0.0121658368,0.055673211,0.0523432588,0.107715573,0.2291938353,0.2247003697,0.1689749012,0.0318312331,0.0699767626,0.1147975367,0.1967779316,0.1592863949,0.0286094719,0.1418075807,0.1085171014,0.3488817927,0.2776483702,0.0500089401,0.2220251034,0.3803151581,0.3210900026,0.2487876192,-0.037122685,0.2322979346,0.3580920721,0.2370612219,0.1124028834,0.1896985549,0.1391355877,0.3807496671,0.2327506032,0.1423984808,0.3095369911,0.0645732532,0.0455049199,0.1205668554,0.2693865954,0.0616669133,0.3568015719,0.1071792467,0.0876792034,0.0559807143,0.3109708038,0.0690397359,0.3487949275,0.0111023965,0.2853341038,0.0801425173,0.3531925337,0.1070761806,0.3565715961,0.0354300506,0.0968479184,0.2951156669,0.1092047141,0.3220394172,0.160516573,0.3566770814,0.2393396346,0.2985379507,0.2200051019,0.1342590618,0.1308219795,0.0485941551,0.3745423475,0.0445700746,0.0907077679,0.3180363523,0.174748472,0.2074346644,0.1953482439,0.0608980259,0.342835882,0.2918337455,0.2909495743,0.2818617212,0.168308652,0.2333268305,0.2415938267,0.0288508631,0.2987929968,0.1391639757,0.0974908005,0.2629170564,0.1181110225,0.2398726947,0.2540023332,0.2214023243,0.3238464293,0.1265792583,0.3345727521,0.2522320823,0.036815271,0.050799082,0.2239497712,0.1012842314,0.3848135768,0.2262331368,0.3171463466,0.0426209595,0.1942244691,0.1577479741,0.0490696537,0.2775052867,0.2297407544,0.0048950817,0.24670963,0.2290396068,0.2809968493,0.2543323091,0.1729727789,0.039153615,0.3714190783,0.0590209736,0.222697244,0.1803659749,0.0025012103,0.3479577461,0.3701764971,0.2642593568,0.0107437824,0.367780633,0.3120268488,0.1068490143,0.1336030339,0.1433143195,0.0025095137,0.2384897759,0.3219893599,0.2371955497,0.0038105541,0.0777459417,0.055906297,0.3799784821,0.063996042,0.3130346436,0.2251026364,0.3344027674,0.1328149562,0.2012044277,0.3213891123,0.3562070141,0.0507506518,0.2954758331,0.2314907279,0.0305878467,0.3567374157,0.0628494966,0.2454341181,0.3577879493,0.2626222723,0.2610585155,0.1429524774,0.0647536786,0.1245306591,0.2761104517,0.0439212598,0.2889292484,0.049221648,0.0849739377,0.166957385,0.0580952685,0.2979079828,0.1636828172,0.0412812789,0.1291714327,0.0831734162,0.3060064083,0.3534580477,0.3087095508,0.1204123445,0.0533926656,0.0573615167,0.1257223092,0.1439567115,0.0397166969,0.3447487244,0.3085993463,0.1845810266,0.0722531933,0.2365695334,0.3037644024,0.3010297865,0.181746633,0.3620799203,0.1122195247,0.031146914,0.2332080283,0.0203302392,0.2990986537,0.2800831946,0.0477255668,0.1786014318,0.29900558,0.041105459,0.1051671055,0.2150948498,0.351895546,0.0474687597,0.1557200769,0.3028245996,0.2523165832,0.1469935494,0.3369323132,0.0032888841,0.1261870677,0.0854217097,0.3226748761,0.3748628034,0.0103837623,0.3741934402,0.2485541075,0.2562534975,0.2709354454,0.3160583886,0.1591820751,0.3586625138,0.1697563031,0.184991415,0.1675323757,0.1429189601,0.0868309672,0.2238316949,0.1787645738,0.1149217396,0.2431872496,0.2352647738,0.1995052791,0.1405779119,0.2917196098,0.1051563435,0.3507872795,0.0257191406,0.242185676,0.3083754971,0.0337748875,0.188810729,0.1717481875,0.3646539126,0.3144504757,0.0028640414,0.255945914,0.1015541276,0.209880489,0.1485824363,0.246732821,0.1457512758,0.2013285601,0.1334284679,0.2729828529,0.3181250712,0.3207092144,0.3014830974,0.3192764412,0.1750659109,0.2998958013,0.100325458,0.2591242565,0.0628301748,0.2085872046,0.2449146282,0.3473683138,0.0419931896,0.1766945729,0.0489570545,0.2142920422,0.2247960092,0.212278658,0.1895457254,0.0285152299,0.0348694369,0.349863907,0.231942056,0.0275775598,0.1088344108,0.1145200096,0.3645278903,0.0697808815,0.2790231263,0.0005219431,0.3556335518,-0.2394788251,0.3001026509,0.0314164956,0.2747760417,0.0610533787,0.1146882556,0.2245360048,0.0375009622,0.0384219559,0.3818344308,0.36943092,0.1754482197,0.0029821584,0.3615350422,0.2916498567,0.3273569975,0.1672500826,0.0258114145,0.0142272392,0.0314629198,0.2127581158,0.3414736375,0.1032745822,0.1298126879,0.2806700715,0.0352699835,0.1668336003,0.3318541437,0.2523624676,0.2664694141,0.0046855823,0.100426718,0.172165891,0.0170107997,0.3719014113,0.2951246456,0.3390253455,0.0358366434,0.076613664,0.2812407685,0.0371130848,0.3287241041,0.1720490903,0.3592947288,0.252287308,0.3561903427,0.351707334,0.3593942448,0.0747201127,0.124650125,0.11646685,0.0274503091,0.1681345889,0.2934861252,0.0037896069,0.269120496,0.3857626412,0.1163170678,0.2202421316,0.0980931022,0.1819146708,0.3345837245,0.2558674623,0.1193749101,0.3061048592,0.1241626852,0.2806084802,0.1569505924,0.0383139101,0.2822279554,0.3182499778,0.07958616,0.2959937099,0.2309278347,0.17288346,0.16540283,0.2954603323,0.1582658266,0.22759237,0.1765107743,0.2831800775,0.0779845061,0.0769465099,0.3226644676,0.0346175725,0.0978761796,0.0923679063,0.0522442951,0.103749672,0.2618384075,0.2538698525,0.0768957969,0.3025162765,0.3790048381,0.1024339855,0.3836827346,0.0157824896,0.177822589,0.1694262353,0.3638239972,0.0495137337,0.2537685023,0.3213452663,0.3832554203,0.1346158761,0.34528689,0.2528500036,0.0466054305,0.1574440456,0.1700420792,0.1537236339,0.2931551422,0.0653107782,0.2608187224,0.0490418316,0.1486613102,0.1847442245,0.0314687254,0.1951106027,0.1809699443,0.104993629,0.0079459578,0.1696770689,0.0581095532,0.1222375456,0.2197125512,0.3380880144,0.0542363621,0.0487329957,0.358630264,0.1919206104,0.2662549884,0.1354349766,0.1627985429,0.1425734207,0.1511831415,0.2721044152,0.0818506455,0.1143588434,0.2841173191,0.2970012635,0.2026300946,0.1977245192,0.0295327922,0.1533728474,0.143822759,0.2632005416,0.2809347809,0.1409533679,0.1865069587,0.1936244488,0.1754418185,0.255759649,0.1190840717,0.0749576721,0.3305633174,0.2004817751,0.3415881695,0.0018736241,0.2667635073,0.0322424983,0.1857632943,0.1618088643,0.1794770618,0.1661293326,0.3810200746,0.0656979603,0.1306781466,0.3855443113,0.0427881099,0.1258730967,0.2173976416,0.1479659286,0.2650683539,0.2152993687,0.2423358479,0.3218623275,0.1623662593,0.2173690737,0.1574423087,0.3327359788,0.3132879543,0.0041662534,0.2613977716,0.3314743315,-0.2275834426,0.2736176752,0.1838829802,0.3494810084,0.0140050161,0.264507577,0.0248126105,0.3757517167,0.0462155468,0.345090119,0.1036764817,0.2861133417,0.0222524203,0.2409611699,0.1336924807,0.2600678313,0.2754536537,0.1342318427,0.2891285261,0.2521941116,0.285617222,0.290474567,0.1458092007,0.1735741792,0.1879984633,0.2942434138,0.141997568,0.2003434262,0.1481631526,0.0421522492,0.248142194,0.0504737921,0.3484319005,0.1896512482,0.0020063806,0.2626160036,0.1669942253,-0.3563418002,0.3439343987,0.3874128842,0.1031054893,0.0194976975,0.094462186,0.0137891359,0.037012312,0.0332542857,0.2930821523,0.2594309347,0.1756932854,0.1576701039,0.3043478983,0.2183773053,0.3184182003,0.1080369558,0.0939636433,0.0227387717,0.038460482,0.3692578966,0.0018174754,0.2313800096,0.2269036389,0.2305728698,0.0567594122,0.3697002274,0.2291580698,0.1057326519,0.3474363867,0.2398091592,0.1518136823,0.3778199361,0.3388070418,0.3706383212,0.0776411399,0.0139431575,0.1270168636,0.155981201,0.1914969607,0.1854037212,0.0861895511,0.3404951091,0.0413912922,0.2314880065,0.1164064968,0.2725555993,0.0706423998,0.3645045814,0.0174562626,0.322063915,0.0847705248,0.0688144518,0.2001852949,0.3439532358,0.0770953179,0.2703561372,0.3454001561,0.2179690618,0.0007061469,0.2808382127,0.3659831754,0.068531039,0.034676054,0.2512319722,0.0083960983,0.3230951713,0.2930337498,0.2972388885,0.1830446398,0.1600436671,0.0265587638,0.0307359876,0.1735420327,0.2959415812,0.0050467993,0.3507928525,0.0217060069,0.1876606809,0.079879472,0.0049598497,0.3158274546,0.0219741002,0.0139227593,0.2904604675,0.179851654,0.3330534181,0.0022338762,0.0078040018,0.1253059484,0.3155626934,0.2165908823,0.1649411165,0.1714981857,0.3316310894,0.269506738,0.2904201976,0.0118524814,0.2859405538,0.0974411895,0.3819368735,0.3146286709,0.2225430166,0.3020449456,0.2388017569,0.0634127441,0.2963559389,0.2282988923,0.1220223801,0.0866345356,0.2515911716,0.2710237703,0.1579174657,0.1287679504,0.0747171922,0.0184103819,0.1606371307,0.2381354991,0.086313534,0.2448496456,0.2873935564,0.2982845701,0.1016435695,0.3311833347,0.0405305003,0.2213460992,0.3176145095,0.3028991117,0.2415345034,0.3766077609,0.0135459601,0.2669031366,0.213532204,0.0593647304,0.0003869034,0.2669994835,0.2220866761,0.1446651307,0.2470583515,0.0286490941,0.0647084231,0.3481587932,0.0026097112,0.1605967442,0.0131359505,0.363961132,0.0462903022,0.1413622289,0.1528209343,0.0044710224,0.2851338992,0.2467053788,0.0187324636,0.3020047957,0.1948264092,0.204721064,0.043160347,0.0123660236,0.2992026461,0.3824777714,0.1584874283,0.0801261717,0.2934621063,0.0692629744,0.3801558909,0.162155962,0.1370691037,0.0747323913,0.2992976565,0.3220434861,0.3046234636,0.2095917882,0.2922704129,0.334905503,0.1681479774,0.3300284681,0.1740478526,0.2210366146,0.261524888,0.1070443124,0.3744587351,0.1213626997,0.09654481,0.3358183057,0.3298410415,0.2160495691,0.2913208986,0.1522238025,0.0556551446,0.3685324702,0.0260476436,0.3559997327,0.3092938376,0.2233564803,0.0922461547,0.2495407763,0.0895893638,0.2485935644,0.0030686409,0.1886270038,0.0728033365,0.3017040325,0.2081458633,0.0517314116,0.0664656512,0.2384833011,0.0411822298,0.1037460238,0.2828846624,0.0252666392,0.1633260408,0.0250180294,0.205355885,0.1394943978,0.0099365408,0.0159282257,0.2750861919,0.2931116123,0.2664824081,0.3128983704,0.08768035,0.0013112376,0.1886087383,0.1206961171,0.0146080644,0.3120030292,0.0110318905,0.2880011044,0.2911462912,0.2632293314,0.1928243678,0.1084364327,0.009482579,0.3621107249,0.0747516549,0.2253506816,0.1669556343,0.2404181474,0.0014761037,0.3791397579,0.2375016825,0.2754167958,0.2636116922,0.0264956768,0.2435492751,0.0045384718,0.1113598418,0.2359573435,0.0177337793,0.2778346245,0.2085599704,0.1166165093,0.3640939429,0.3212176393,0.3247851569,0.1696867683,0.0779608508,0.0709560741,0.0137947051,-0.3231654696,0.2936655223,0.0634617897,0.070988197,0.2999879978,0.0123108804,0.2805447975,0.0935910501,0.36396558,0.3101509673,0.3244537206,0.2509776938,0.3381282629,0.3404002097,0.0120859384,0.3084059259,0.386060921,0.1665472466,0.0878701963,0.0080668403,0.3204568562,0.2266553517,0.270742266,0.1612254468,0.1772169841,0.3454953483,0.2508588909,0.3291806124,0.2940085,0.2652748446,0.1909193934,0.35902461,0.2270559509,0.304955145,0.2753709424,0.0752537547,0.3390419316,-0.3352829903,0.2981465534,0.3169040046,0.2295801649,0.1597561592,0.1859246376,0.0345815111,0.0806418872,0.3799470234,0.3309133968,0.2580485074,0.1872946243,0.3037842139,0.1494796357,0.0150005596,0.0449208026,0.016940229,0.2149371557,0.3514674618,0.0116700023,0.1755985889,0.0657626325,0.1034057686,0.3231756872,0.3760800288,0.0657759061,0.2987209318,0.1210922079,0.1853906988,0.1402909341,0.2333392658,0.2585579786,0.3782936331,0.240570765,0.1598668751,0.1984306106,0.0460954791,-0.3273335507,0.0642982901,0.2488441212,0.3618344054,0.2270217229,0.1996016505,0.3566843056,0.0504635556,0.3394158279,0.1086062117,0.255005466,0.0353750347,0.3025691078,0.3496826974,0.1275252267,0.2842189706,0.2844840808,0.0909691563,0.1862300201,0.2469263884,0.2865287482,0.3690868605,0.1036352799,0.2400457836,0.1179582612,0.3302109355,0.0515756347,0.2096892543,0.2888825757,0.3272633852,0.2906347072,0.2293442667,0.2108431342,0.3809953878,0.1952585421,0.1727374319,0.3023698772,-0.3587189158,0.193644736,0.2613921786,0.3548445544,0.1425909928,0.0881948251,0.2069098318,0.2411000242,0.2682995804,0.3245140265,0.3107490648,0.2674941568,0.1963840325,0.0698633381,0.2401615363,0.1845209388,0.1187944617,0.2533091325,0.1664362596,0.3155222341,0.1723792261,0.0477510864,0.361026798,0.2943588341,0.177725959,0.0734980798,0.2598332888,0.0311715,0.2546694617,0.1308874214,0.1176280695,0.3575093432,0.0293769044,0.2102814247,0.305801829,0.2473465661,0.1607569279,0.3243677969,0.2962404735,0.1698091908,0.1160154876,0.0346840643,0.0661669806,0.0194757459,0.1222695133,0.2853214091,0.2766136854,0.1312305276,0.2055332959,0.1143046435,0.0407967492,0.1785040975,0.3375600881,0.2220915036,0.0782928733,0.3552380387,0.23284449,0.2150608691,0.376885339,0.2175378592,0.1232515018,0.2640683184,0.0009946591,0.1867483053,0.131143064,0.0204327891,0.2670376933,0.1624131971,0.0303228575,0.1526480209,0.1781719556,0.1202041216,0.0256907329,0.3127743163,-0.1544577031,0.1472334056,0.1918164127,0.0675051885,0.130223323,0.0522199276,0.3184213769,0.1285851021,0.2365545378,0.2202884977,0.3033659068,0.3773460455,0.0540429105,0.3256676526,0.1238455003,0.2517987081,0.2866817566,0.284801041,0.1338579683,0.0364036668,0.2465937804,0.08209683,0.379648539,0.2087039292,0.1329850671,0.1760149077,0.3371951141,0.2534221214,0.2050547798,0.3500880412,0.1910236043,0.0992849978,0.2692724837,0.3615086212,0.3268667596,0.3540637292,0.2080396728,0.0193595803,0.3038240616,0.0588296178,0.2750007517,0.3540610101,0.1676964229,0.0351779734,0.1253309089,0.1983080617,0.1299711977,0.3363152324,0.366953115,0.1775991304,0.3342823793,0.1738063946,0.0079401093,0.2694094337,0.0845971205,0.0253628572,0.2484445073,0.2282428145,0.2719760478,0.2752493681,0.1181267607,0.221532925,0.1237146559,0.3464579193,0.3417676254,0.017327403,0.2879418681,0.0605982016,0.0975388565,0.3133810793,0.2233703668,0.226492709,0.1027858511,0.2632780149,0.3475271809,0.3658690766,0.1750470746,0.1957177213,0.0958883935,0.3640646728,0.2506998007,0.0826497711,0.1849761381,0.1751160618,0.0353716752,0.0533087472,0.1953883026,0.2261040243,0.3114125026,0.1540231795,0.2725481639,0.2971886714,0.3856791068,0.2822603851,0.3374551772,0.0872004197,0.0548336604,0.3045882829,0.0113433898,0.2187763381,0.3173500787,0.2381728555,0.1207502842,0.1288936692,0.3016123777,0.2575014281,0.1083154384,0.0024270896,0.3537447375,0.1822274197,0.3876296462,-0.1153893899,0.2250286298,0.3381234539,0.1095616957,0.1689985974,0.2041019326,0.16551711,0.0101161187,0.1845066785,0.0196026703,0.1991967553,0.1042285711,0.366910457,0.1436685211,0.172885051,0.2460699337,0.3669198281,0.0436283576,0.3230534043,0.043327347,0.0573905711,0.2821360211,0.1202290061,0.2738770083,0.2597138887,0.0652494308,0.2838470313,0.1332017921,0.2707711,0.2336646322,0.3377632508,0.2275644288,0.1978474516,0.0090193615,0.2752141418,0.0360836602,0.1498758464,0.3357538106,0.1624668255,0.1943109325,0.1493605767,0.2023316464,0.0805035787,0.1433315273,0.3433323309,0.2811966854,0.1258576632,0.0416515869,0.118301469,0.3830558378,0.2436661905,0.129891735,0.1697427884,0.2474649033,0.1183812446,0.3792464773,0.1436485055,0.3214145628,0.2003813766,0.1911822466,0.0331092359,0.0012914233,0.3755749607,0.009361836,0.162695104,0.3467072958,0.2631179006,0.3650841795,0.0875118342,0.1882302682,0.1911939584,0.0723761345,0.1044377974,0.1665593929,0.1030675365,0.0397607708,0.2246195552,0.0221008495,0.2317299485,0.3400168216,0.2872890121,0.2878262762,0.2957314786,0.2333883418,0.3420158568,0.2454205372,0.0570279098,0.3865373982,0.3510496259,0.3497666743,0.1465917031,0.0684924026,0.3356862709,0.1938158063,0.0219129224,0.2153995308,0.0979437797,0.0376362846,0.3564575249,0.316708093,0.1336720486,0.117185694,0.1342619638,0.0638921187,0.2785050267,0.1877966514,0.3196901222,0.1947179551,0.1849665433,0.2045792322,0.1907843626,-0.2200915785,0.2903003093,0.2393398154,0.2394604007,0.0930400969,0.1967612429,0.2821610719,0.1727615922,0.2654086025,0.3384320009,0.3213500783,0.234344998,0.1071926567,0.222891018,0.3677939156,0.3693618351,0.0429536884,0.1721557782,0.053738534,0.2046558686,0.2577998955,0.1492718959,0.0330880456,0.0166339738,0.3340745021,0.1992412819,0.2151667618,0.0717280951,0.2291490453,0.3201595553,0.0569275336,0.3266123334,0.1431464787,0.0046024841,0.3267247099,0.1004639272,0.0474069043,0.3518441292,0.2442586264,0.0166103759,0.2576612275,0.2689703642,0.0521926901,0.3359200757,0.1104429836,0.0259823306,0.1946308909,0.2794530147,0.0103806834,0.2019460939,0.3757417273,0.2232576982,0.2431547998,0.1051818763,0.1947575613,0.1213260979,0.3178890692,0.173979916,0.2267078846,0.3540311953,0.2673068184,0.1019204318,0.2830184308,0.367014332,0.0014157815,0.3025923663,0.2381158808,0.2247355968,0.0124651771,0.001278615,0.2904039924,0.1713951595,0.0615983037,0.2120266435,0.2552110475,0.3574045286,0.2863100212,0.0893856095,0.2648456722,0.2598952679,0.0008693058,0.2347994663,0.0329840789,0.1442814362,0.2070103941,0.1918138836,0.0063661977,0.0372581631,0.2826990641,0.1494803722,0.2934563135,0.348793828,0.3759269609,0.2590745427,0.0321840009,0.2634322227,0.2633177616,0.1885232063,0.1255902986,0.2658315988,0.1099277766,0.0923202845,0.1753084872,0.1832411974,0.0549166198,0.2163338548,0.3539583116,0.2208726999,0.3471877812,0.3706459767,0.2713654705,-0.0208347274,0.1213089525,0.0640847065,0.3466374178,0.3816869554,0.251611177,0.2491966918,0.1079191897,0.1339285496,0.2699422916,0.2219405102,0.3523109181,0.1553452268,0.1004771016,0.0962892322,0.1788411628,0.3308708274,0.1895179688,0.244974165,0.014007724,0.2105831807,0.2277613269,0.1734002752,0.2238464419,0.0847895041,0.2849203403,0.0919611626,0.1837255775,0.3319285516,0.2594588399,0.1374544249,0.0079364855,0.0784748846,0.1050633949,0.0060176358,0.1158738195,0.3875813697,0.0641256179,0.0707081775,0.2915989211,0.0268271334,0.29875684,0.0792062106,0.0759705162,0.1413531873,0.0399382682,0.3459714513,0.0982281605,0.3200168959,0.1522589941,0.3520148251,0.0835082295,0.3370064371,0.0660683389,0.061732924,0.072519263,0.0740218096,0.332391331,0.065935543,0.3600666241,0.2028621081,0.3136446687,0.0914982303,0.0763156155,0.3751593107,0.3649849863,0.2205294782,0.2201102238,0.2118327689,0.3600403444,0.1921723926,0.2332249567,0.2462560619,0.2783879409,0.1242328233,0.0048198568,0.0028088782,0.0240323277,0.2928602503,0.3635921956,0.1395984502,0.0188679964,0.2214856313,0.2724989207,0.104409416,0.0566260889,0.2625648025,0.2260357064,0.290158532,0.0491162197,0.3700609263,0.3220058559,0.2792138768,0.1267534277,0.3181736701,0.3607839358,0.3859646203,0.0371667907,0.129208304,0.1641966478,0.2172976079,0.3767006256,0.0599864462,0.3207869621,0.1203048761,0.017667682,0.1798000785,0.0578454636,0.2508358697,0.1055655994,0.0434866433,-0.2018490163,0.287525318,0.3503803907,0.0283514343,0.3660055241,0.2469071799,0.0497472139,0.1858380865,0.2163381356,0.2983378219,0.0041945248,0.1492264286,0.3146350305,0.3687853626,0.0714518884,0.2748310821,0.1529006228,0.124674832,0.1695621019,0.2600645523,0.1567636225,0.1155372194,0.0832423042,0.1792391578,0.2502993945,0.0261091245,0.1081515562,0.3086382396,0.0820837922,0.3009452386,0.096677934,0.1746632473,0.2857819266,0.049351325,0.2026095494,0.3625441743,0.1810969048,-0.179564401,0.0396726032,0.3428456571,0.3533287536,0.2245350633,0.0859603751,0.3497064182,0.0456385544,0.109181902,0.0842672117,0.0409685297,0.3147892432,0.1493215717,0.0184231929,0.3064508699,0.1793075695,0.0410667615,0.3821293832,0.0876920044,0.0484803744,0.243555116,0.1862847829,0.3338156803,0.1108504879,0.1539905421,0.3670403287,0.3141713251,0.0963392424,0.0650200771,0.0720839396,0.3364191682,0.2376744406,0.134187548,0.210453575,0.3687485645,0.0780417895,0.0460959955,0.2207229268
biasActivation=0,1,1
[BASIC:ACTIVATION]
"ActivationTANH"
"ActivationTANH"
"ActivationLinear"
