encog,BasicNetwork,java,3.2.0,1,1353730036150
[BASIC]
[BASIC:PARAMS]
[BASIC:NETWORK]
beginTraining=0
connectionLimit=0
contextTargetOffset=0,0,0
contextTargetSize=0,0,0
endTraining=2
hasContext=f
inputCount=10
layerCounts=1,21,11
layerFeedCounts=1,20,10
layerContextCount=0,0,0
layerIndex=0,1,22
output=0,0,0,0,0,0,0,0,0,0,0,0,0,0,0,0,0,0,0,0,0,1,0,0,0,0,0,0,0,0,0,0,1
outputCount=1
weightIndex=0,21,241
weights=0.0892055549,0.2833567511,0.0450488521,0.1128683961,0.1581451028,0.1756366867,0.2381025289,0.2097182711,0.1333209534,0.013846506,0.137673269,0.0931974743,0.2598199461,0.3297416209,0.1834385877,0.0243744923,0.2640870722,0.3250334306,0.04902027,0.0591268518,0.1580370768,0.0765595074,0.1481347259,0.2134489981,0.0030179804,0.0798940715,0.3625585987,0.2959441756,0.3759056429,0.0905544011,0.2620833394,0.1243544894,0.1426127384,0.453329166,0.3339711316,0.2994076374,0.2132452674,0.0225806402,0.4450597358,0.2760557404,0.2529682923,0.1157371992,-0.0542718501,0.0658664267,0.3625434411,0.174253576,0.4304771091,0.3310146514,0.2009965737,0.2277645786,0.0174090606,0.2717790391,0.2980546959,0.2254595743,0.3503791747,0.2426246989,0.0662411235,0.423927724,0.0466262257,0.0627109469,0.4119763611,0.2455759711,0.0459034526,0.2098380274,-0.0596778026,0.3529964959,0.2127636779,0.0119134774,0.0689079304,0.3689735912,0.373071545,0.2177257175,0.2823171245,0.2969676358,0.3040866363,-0.1996166568,0.0440920589,0.3693111437,0.2189362445,0.2705221664,0.0147319855,0.4720125551,0.1691767604,0.3811787938,0.3155198319,0.4106243352,0.0663077495,0.385345544,0.1661963643,0.1495935695,0.3189174478,0.2960345209,0.3545110225,0.4640383263,0.3620633343,0.3927124345,0.1817620812,-0.3479654477,0.3980839897,0.2995057212,0.2047115661,0.3118575973,0.1797189327,0.180275822,0.2273795606,0.1498916608,0.0442641299,0.1025266644,-0.0417498483,0.1364616201,0.1349610337,0.1897801489,0.4443925866,0.3709691476,0.1584112473,0.2569470484,0.333210348,0.4119242922,0.2272975558,0.0982781327,0.1853839785,0.2099730932,0.36814942,0.2188799268,0.3795065832,0.4065859932,0.1667173903,0.263824844,0.1847732342,0.338517172,-0.0596625877,0.2486403889,0.1595793463,0.3898575098,0.0617291137,0.0535209785,0.346151512,0.155587646,0.3579332965,0.2867514223,0.0889346952,0.3062246471,0.3743819783,0.4224183216,0.1138711456,0.128824643,0.047570194,0.3975317571,0.4408801478,0.018401962,0.1701000972,0.2793297164,-0.4645000328,0.310799969,0.3064256292,0.4061074573,0.2039861337,0.1657321296,0.3642074464,0.2879541046,0.2342197042,0.0645393926,0.2548418208,-0.4442738753,0.0484652768,0.0378505272,0.3673722173,0.2884194882,0.2588899006,0.3726078141,0.4262981688,0.3292094504,0.2534900244,0.2289791192,0.0292382182,0.1744814752,0.3871238621,0.3049090537,0.4317623324,0.291454713,0.1497482358,0.080169168,0.4586522648,0.3764410647,0.4136654573,0.053173944,0.1514102293,0.0436760002,0.0826103804,0.3069036676,0.3246876264,0.1069039885,0.3147032872,0.4315400263,0.3528968902,0.2354285393,-0.2375090992,0.0187718533,0.2687220883,0.1450476926,0.3431841405,0.286172147,0.1701686664,0.0917496157,0.1782235136,0.4262920743,0.0265386213,0.3434684095,0.417396048,0.2756546176,0.3288459124,0.0153024705,0.1860302539,0.2575799463,0.2194512016,0.1359879094,0.2214123859,0.1072637933,-0.3679276569,0.4451455787,0.0333552302,0.1385526061,0.1867993696,0.1817675132,0.1373042077,0.3339751887,0.2244058223,0.3830194677,0.270355073,0.2143740968,0.3299714732,0.308877857,0.4135959321,0.1921715553,0.353726198,0.060603548,0.4537902853,0.2578044616,0.3217414999,0.4573457736,0.0297361416
biasActivation=0,1,1
[BASIC:ACTIVATION]
"ActivationTANH"
"ActivationTANH"
"ActivationLinear"
